{"layers": [{"type": "linear", "weight": [[0.012668146751821041, 0.3920089602470398, 0.13255973160266876, -0.008244750089943409, 0.17983078956604004, -0.038686029613018036, 0.08808643370866776, -0.0859619602560997, 0.03179057314991951, 0.13405723869800568, -0.003179898951202631, -0.02770855277776718, -0.10650686174631119, -0.0544811449944973, 0.10824274271726608, -0.19789955019950867, 0.15733809769153595, 0.2855355441570282, 0.0062616909854114056], [0.07657492160797119, -0.32984498143196106, -0.3097814619541168, 0.2086593061685562, -0.04845241829752922, -0.10655426234006882, -0.04647122696042061, 0.25362327694892883, 0.1461295634508133, 0.24760794639587402, 0.035641636699438095, 0.1090545654296875, -0.3631800711154938, 0.20364919304847717, -0.13303498923778534, -0.13260823488235474, 0.1303550750017166, 0.08000077307224274, 0.09388028085231781], [-0.31977227330207825, 0.12753942608833313, 0.030213715508580208, 0.16727665066719055, -0.06913231313228607, -0.35681089758872986, -0.14009112119674683, 0.2500680088996887, 0.03807024657726288, 0.4172990024089813, 0.06091049686074257, -0.2837482690811157, 0.4043339788913727, 0.06156286969780922, 0.06871140003204346, -0.21335235238075256, 0.00937172956764698, -0.16858534514904022, 0.010479485616087914], [0.11196509003639221, -0.18993638455867767, 0.0774039626121521, 0.15268699824810028, 0.07203074544668198, 0.36046934127807617, 0.03114551678299904, 0.24558188021183014, -0.10032553970813751, 0.05844619870185852, 0.0375363714993, -0.08072210848331451, -0.3439807891845703, -0.10056407749652863, 0.09079708904027939, 0.018659397959709167, -0.01848421059548855, -0.112242192029953, -0.06272520869970322], [0.23981137573719025, -0.027492986992001534, 0.10007360577583313, 0.23009109497070312, -0.3532818853855133, -0.01657533273100853, 0.22501717507839203, -0.08897574990987778, 0.048811279237270355, 0.13711029291152954, -0.13026100397109985, 0.10482760518789291, -0.1788051724433899, -0.0069493623450398445, 0.26817676424980164, -0.1366228312253952, 0.1358226090669632, -0.20978817343711853, -0.3169194459915161], [0.02334114909172058, -0.003703849157318473, 0.33509060740470886, -0.19119666516780853, 0.267965704202652, 0.2750122547149658, 0.2882058322429657, 0.12049742788076401, -0.09647922217845917, 0.13652202486991882, 0.42613670229911804, 0.3424459397792816, 0.011225220747292042, 0.010597527958452702, 0.05789461359381676, -0.07414738088846207, 0.07141470909118652, 0.2650947868824005, -0.08555812388658524], [-0.24051126837730408, 0.13564947247505188, -0.08085036277770996, 0.26750448346138, 0.12933367490768433, 0.05516744405031204, -0.036924440413713455, -0.40413898229599, -0.23734211921691895, 0.027405541390180588, 0.27769923210144043, 0.05444374307990074, -0.01705888845026493, -0.09599228948354721, 0.19028037786483765, 0.02451162412762642, -0.006994005758315325, -0.22254984080791473, 0.180139422416687], [-0.14887022972106934, -0.07647377997636795, -0.09903180599212646, 0.28858986496925354, -0.030577588826417923, -0.017695726826786995, -0.20015454292297363, 0.4225119352340698, 0.0582120455801487, 0.12918013334274292, 0.18443255126476288, 0.22744449973106384, 0.1168060377240181, 0.10330742597579956, -0.04755081608891487, 0.09441611915826797, -0.09562375396490097, -0.09715157747268677, -0.035828735679388046], [-0.2804649770259857, 0.175126850605011, -0.1417342722415924, 0.02507992647588253, -0.01193281076848507, 0.023218216374516487, -0.027631212025880814, 0.24183289706707, 0.19518345594406128, 0.08146017789840698, -0.061176761984825134, -0.24413757026195526, 0.4071217477321625, -0.36274775862693787, 0.1779763251543045, 0.38594403862953186, -0.1594965159893036, 0.08413473516702652, 0.2133806347846985], [0.062369778752326965, 0.37281230092048645, -0.027419283986091614, 0.35376498103141785, -0.1801898032426834, 0.36485764384269714, -0.02233569696545601, -0.0646936371922493, -0.020095648244023323, 0.012282038107514381, 0.021088402718305588, 0.12328628450632095, -0.06444567441940308, -0.021101782098412514, 0.10891276597976685, -0.3992690443992615, -0.12134557962417603, 0.1405361294746399, 0.35884997248649597], [0.06474622339010239, 0.2603279650211334, -0.24738512933254242, 0.18689262866973877, -0.04828477278351784, 0.14341406524181366, 0.0509612038731575, -0.28166109323501587, -0.4398477077484131, 0.09352300316095352, 0.09258899092674255, 0.04474135488271713, 0.02844398468732834, -0.000981116434559226, -0.018158521503210068, -0.10678938031196594, 0.06129642575979233, -0.2989749610424042, 0.12443842738866806], [-0.35446450114250183, -0.06666863709688187, -0.01905049756169319, -0.019893350079655647, 0.046750202775001526, -0.054701656103134155, 0.38277187943458557, -0.19284452497959137, 0.0775955319404602, 0.13244310021400452, 0.13765978813171387, -0.13194438815116882, 0.1486477255821228, -0.1609814316034317, 0.4872172772884369, -0.12011633068323135, 0.0854833722114563, 0.13357557356357574, -0.17721135914325714], [-0.2325506955385208, -0.12668663263320923, -0.032373737543821335, 0.19716407358646393, -0.22069548070430756, 0.20862069725990295, -0.04376572370529175, 0.12078327685594559, -0.2741793990135193, -0.05654550716280937, 0.22124439477920532, 0.06895610690116882, 0.16699227690696716, 0.16581453382968903, 0.06892326474189758, 0.19053636491298676, -0.08050202578306198, -0.14351040124893188, 0.06684008985757828], [-0.3480968177318573, -0.19249743223190308, 0.15519852936267853, 0.2020818293094635, -0.13797716796398163, 0.043509114533662796, -0.0649402067065239, -0.08883841335773468, 0.1363724172115326, 0.2537918984889984, -0.05311168357729912, 0.21084986627101898, 0.19522638618946075, 0.37191882729530334, 0.3241598606109619, 0.3535868525505066, 0.04906727746129036, 0.1301320493221283, -0.2946998178958893], [-0.09432828426361084, 0.09266141057014465, -0.1170491948723793, -0.146626815199852, -0.1377093642950058, 0.052125707268714905, -0.10832370072603226, -0.3160054087638855, -0.05318373814225197, -0.06731671839952469, -0.02999398112297058, 0.2789863646030426, 0.19866988062858582, -0.1370382159948349, 0.09799741953611374, 0.011706551536917686, -0.11595597118139267, -0.3043273985385895, 0.1305234432220459], [0.2891601324081421, -0.13442833721637726, 0.0028442740440368652, 0.27895087003707886, -0.000502398528624326, 0.06689825654029846, 0.0571516677737236, 0.06348889321088791, 0.2742956280708313, 0.01986096054315567, 0.19290201365947723, 0.16880355775356293, -0.11726387590169907, 0.07953168451786041, -0.039406146854162216, 0.2415790557861328, 0.16982564330101013, 0.05882878601551056, -0.39065104722976685], [0.39279428124427795, -0.02343977428972721, -0.17320965230464935, -0.1882912516593933, -0.13953326642513275, 0.15210147202014923, -0.10837434232234955, -0.04585011303424835, 0.4789879620075226, 0.4444732666015625, 0.026893198490142822, -0.04419649764895439, -0.26857349276542664, 0.21531404554843903, -0.1603122055530548, -0.0646032765507698, 0.07853272557258606, -0.00936864037066698, 0.3135131299495697], [-0.19323723018169403, -0.2470758557319641, -0.09582807868719101, -0.196036696434021, -0.10870442539453506, -0.18288035690784454, -0.32680994272232056, 0.07898621261119843, -0.11034661531448364, -0.27976298332214355, -0.10008110105991364, 0.020214099436998367, 0.08715683966875076, 0.3189122676849365, 0.0041207922622561455, 0.1996423453092575, -0.010932587087154388, -0.04893490672111511, 0.18758542835712433], [-0.10217618942260742, -0.2564716637134552, 0.19437815248966217, -0.19219224154949188, 0.3588677942752838, -0.16713647544384003, 0.1044406071305275, 0.2073357254266739, -0.14388005435466766, 0.2604849338531494, 0.1899130642414093, 0.06292147934436798, -0.06843282282352448, 0.10269613564014435, -0.46576744318008423, -0.00400457764044404, -0.13832449913024902, -0.010977751575410366, -0.07889959216117859], [0.09445489943027496, -0.22341427206993103, -0.17868749797344208, 0.20149697363376617, 0.1912386119365692, 0.011086621321737766, -0.04318024963140488, 0.2826036214828491, -0.09596511721611023, -0.10766010731458664, -0.1956942230463028, 0.016615865752100945, 0.009584321640431881, -0.1613880693912506, 0.21517951786518097, 0.17143915593624115, 0.01164130587130785, 0.23576852679252625, -0.2111118584871292], [0.0944368913769722, 0.10439566522836685, -0.33362048864364624, 0.15324832499027252, -0.17593508958816528, -0.23850637674331665, -0.1701994240283966, -0.13718676567077637, 0.12518097460269928, -0.05194410681724548, -0.011398261412978172, 0.12072019279003143, -0.11610207706689835, -0.34204015135765076, 0.14983628690242767, -0.21994219720363617, 0.31702521443367004, -0.2075662761926651, -0.1435689628124237], [-0.14316275715827942, -0.2693018615245819, 0.3859696686267853, 0.0752042606472969, -0.09485691785812378, -0.29478833079338074, -0.252219021320343, 0.04499828815460205, -0.04879529029130936, 0.16295310854911804, 0.10264790803194046, 0.13686929643154144, 0.005103821866214275, -0.055581048130989075, 0.13315606117248535, 0.20500308275222778, -0.14908578991889954, 0.07202060520648956, 0.2837276756763458], [-0.1059863418340683, 0.536868691444397, 0.10535068064928055, 0.04463094845414162, -0.1533275991678238, -0.5149420499801636, 0.0027648855466395617, -0.43005186319351196, -0.09334962069988251, -0.2148277461528778, -0.03569788485765457, 0.10215087234973907, -0.3686869144439697, -0.010786664672195911, -0.17324432730674744, 0.21628548204898834, -0.06558867543935776, 0.17176614701747894, -0.12923237681388855], [-0.2936423420906067, 0.2268124669790268, 0.045170336961746216, -0.07295923680067062, 0.19260436296463013, 0.19181619584560394, -0.07761646807193756, 0.13550962507724762, 0.17685025930404663, -0.11057697981595993, 0.07532978802919388, 0.2372104674577713, 0.42701855301856995, 0.019411280751228333, 0.13216203451156616, -0.10376759618520737, -0.23219849169254303, -0.48567816615104675, -0.10232830792665482], [-0.13895802199840546, -0.07601616531610489, -0.14979715645313263, -0.2794555723667145, -0.03951835632324219, -0.010824215598404408, -0.01879655197262764, 0.1268610656261444, -0.1140860840678215, 0.19101519882678986, -0.5030035376548767, 0.1580824851989746, -0.3699484169483185, 0.2377592772245407, 0.1761326640844345, -0.006782650947570801, 0.16062909364700317, -0.008285034447908401, -0.07575445622205734], [-0.09485246241092682, -0.023591311648488045, 0.1858266443014145, 0.2792796790599823, 0.3674561083316803, -0.13595712184906006, -0.07506076246500015, -0.023188326507806778, 0.08208349347114563, -0.2774938941001892, -0.03456401079893112, -0.11349104344844818, -0.14812688529491425, -0.024400003254413605, -0.18069535493850708, -0.2140488475561142, -0.028088970109820366, -0.1312670260667801, 0.42438215017318726], [0.08103204518556595, -0.009734105318784714, 0.15887784957885742, -0.01142216008156538, 0.23353692889213562, -0.0172675009816885, -0.27594220638275146, 0.36529889702796936, 0.017325956374406815, 0.0664137601852417, 0.07957487553358078, 0.06775689870119095, -0.6182243227958679, 0.32604238390922546, -0.008570408448576927, -0.2874073386192322, 0.10536637157201767, -0.28272759914398193, -0.04615393653512001], [-0.10960404574871063, -0.04817268252372742, -0.21009719371795654, -0.15475991368293762, -0.12590113282203674, -0.00984778068959713, 0.12949810922145844, 0.07888762652873993, -0.43386462330818176, 0.048850033432245255, -0.24460235238075256, -0.22844351828098297, -0.23901914060115814, -0.019520234316587448, 0.1344584971666336, 0.09624185413122177, -0.34385159611701965, 0.06612523645162582, -0.12246344238519669], [-0.02941046468913555, 0.19228370487689972, -0.0814087837934494, -0.003610539250075817, -0.019028134644031525, 0.04289006441831589, 0.6112625598907471, 0.019926952198147774, -0.08777441084384918, -0.06884099543094635, 0.08693784475326538, -0.1286008507013321, -0.5236231684684753, -0.3999457061290741, -0.13444463908672333, -0.046629585325717926, -0.04454048350453377, -0.13427746295928955, 0.09154440462589264], [0.3679751455783844, 0.2460070699453354, 0.040445294231176376, 0.1553855538368225, 0.18645741045475006, 0.01119591947644949, 0.005363741889595985, -0.4928165078163147, -0.08525557070970535, -0.20727473497390747, 0.0876549556851387, -0.23844918608665466, -0.24788548052310944, -0.09946929663419724, -0.1320323795080185, 0.11763269454240799, 0.06139402091503143, -0.08402670174837112, -0.23955297470092773], [-0.17271429300308228, 0.2875652611255646, 0.039745673537254333, 0.14278866350650787, 0.29259824752807617, 0.2882653772830963, -0.18287673592567444, 0.10000021755695343, 0.13825078308582306, -0.16257965564727783, -0.07678074389696121, 0.19789288938045502, -0.002246580785140395, -0.10844717919826508, 0.0024473106022924185, 0.1033262237906456, -0.05376775935292244, -0.09341100603342056, -0.12167809158563614], [-0.18183088302612305, 0.19011297821998596, 0.06945230066776276, 0.07916560769081116, 0.1912304162979126, 0.1129889115691185, 0.015162833034992218, 0.16146667301654816, -0.0033668428659439087, 0.01895361766219139, -0.009854638949036598, -0.11352565139532089, 0.11213274300098419, -0.09269609302282333, 0.048886675387620926, 0.19599749147891998, 0.19327063858509064, -0.2385302186012268, -0.004510715138167143], [0.09549077600240707, 0.15191783010959625, 0.2695608139038086, 0.0042148674838244915, -0.15855015814304352, 0.1638404130935669, 0.20675347745418549, -0.17181876301765442, -0.05007778853178024, -0.21700115501880646, -0.010922265239059925, 0.11793438345193863, 0.031886447221040726, -0.006156426854431629, -0.36443614959716797, -0.01500424649566412, 0.5382493734359741, -0.010639495216310024, 0.37606844305992126], [-0.16798913478851318, 0.20424313843250275, 0.14830631017684937, 0.44543030858039856, 0.12246136367321014, 0.20489411056041718, 0.1762540638446808, 0.2984229028224945, -0.2215578407049179, 0.06298035383224487, -0.06157265231013298, 0.030350979417562485, -0.1257413923740387, -0.07445522397756577, 0.15721970796585083, 0.20646041631698608, 0.0637565478682518, 0.05678345263004303, 0.23070655763149261], [-0.1722172498703003, 0.12466780841350555, 0.07969564199447632, -0.3387715518474579, 0.009366974234580994, -0.07843060791492462, 0.1047942265868187, 0.055248457938432693, 0.18018946051597595, -0.16365334391593933, 0.008026973344385624, -0.06866081058979034, 0.22449888288974762, 0.2561955153942108, 0.3907802700996399, 0.5139154195785522, 0.16285467147827148, -0.18405269086360931, 0.15978489816188812], [-0.12829913198947906, 0.025306228548288345, 0.2937840223312378, 0.15467560291290283, -0.1313146948814392, -0.06791271269321442, -0.08367928862571716, 0.14158977568149567, 0.12371375411748886, 0.16045063734054565, -0.20834647119045258, -0.16020548343658447, -0.01498601958155632, -0.21863026916980743, -0.19923168420791626, 0.07001812011003494, -0.3151160180568695, 0.057620514184236526, 0.047507394105196], [0.2485394924879074, 0.1008489578962326, -0.29250308871269226, 0.27685633301734924, -0.3230995833873749, 0.08304854482412338, -0.021628757938742638, 0.10509791225194931, -0.30625462532043457, -0.1567133367061615, 0.20642216503620148, 0.07262960076332092, -0.03569694608449936, 0.03923679515719414, -0.14113405346870422, 0.15263639390468597, -0.04123419150710106, 0.15644335746765137, -0.050302427262067795], [0.17213284969329834, 0.06871213018894196, 0.15907727181911469, 0.21145087480545044, 0.48798760771751404, 0.1038060411810875, 0.11144228279590607, -0.42946311831474304, -0.087461918592453, 0.19844040274620056, -0.08863996714353561, 0.025028642266988754, 0.04230690747499466, 0.130178302526474, 0.04751909151673317, 0.05275905504822731, 0.09230823069810867, 0.025733130052685738, 0.01965184323489666], [0.35239842534065247, 0.06313946098089218, 0.07417211681604385, -0.244160458445549, 0.16192381083965302, -0.08683985471725464, -0.24094338715076447, 0.08120870590209961, 0.1977701187133789, -0.08640721440315247, 0.2824377119541168, 0.30206573009490967, -0.06766393035650253, -0.419926255941391, 0.24894794821739197, 0.1338733583688736, 0.1582532823085785, 0.07790615409612656, 0.10856720805168152], [0.07416826486587524, -0.07555075734853745, -0.16062167286872864, -0.3293312191963196, 0.20240113139152527, -0.2534957528114319, -0.18846508860588074, 0.02162189595401287, -0.2944812476634979, 0.2938747704029083, 0.2079930603504181, -0.028657332062721252, -0.05462736636400223, -0.02044745534658432, -0.020861320197582245, 0.09806143492460251, -0.21650010347366333, -0.11763092875480652, 0.12511497735977173], [-0.3887118101119995, 0.23522135615348816, -0.13270720839500427, -0.1541512906551361, -0.02466713637113571, -0.060263969004154205, -0.5235271453857422, 0.047747790813446045, -0.005879380274564028, 0.05019719898700714, 0.20930518209934235, -0.07807523012161255, -0.0914614200592041, 0.04164933040738106, 0.14548465609550476, 0.3415628969669342, 0.25396066904067993, 0.05853768810629845, -0.0006063803448341787], [-0.18714217841625214, 0.14696788787841797, -0.4035119116306305, 0.08474233746528625, 0.29938066005706787, -0.10245967656373978, 0.3235698640346527, 0.01469308603554964, -0.1497119665145874, 0.17632436752319336, -0.13433091342449188, -0.04652512073516846, 0.2371940016746521, 0.3587327301502228, -0.024861980229616165, -0.09461953490972519, 0.07834275811910629, 0.06243608519434929, -0.06148618087172508], [-0.27421364188194275, -0.21956199407577515, 0.1653764396905899, 0.2249937653541565, 0.11793798208236694, -0.1016145646572113, -0.057370178401470184, -0.02234218455851078, 0.04477360472083092, -0.04604708030819893, -0.035499557852745056, -0.21998506784439087, -0.27661463618278503, -0.09401313960552216, -0.0421554259955883, 0.10693147033452988, -0.1658274084329605, 0.10371123254299164, 0.08141589909791946], [-0.042655184864997864, 0.01607622019946575, 0.07802671939134598, -0.0016246539307758212, -0.27902770042419434, 0.23216888308525085, -0.2826162576675415, -0.19763779640197754, -0.05245603248476982, -0.00024385664437431842, 0.3454793393611908, -0.2349250763654709, 0.09424018859863281, 0.028248470276594162, -0.035931166261434555, -0.28079983592033386, 0.010989313945174217, 0.4828737676143646, -0.1584767997264862], [-0.5531584620475769, 0.2568014860153198, 0.2786884605884552, -0.015544820576906204, -0.00932921003550291, -0.0421048142015934, -0.016002969816327095, 0.03386162593960762, 0.25642773509025574, -0.12871086597442627, -0.07572611421346664, 0.1603652834892273, -0.13856984674930573, -0.08175548166036606, 0.02684032917022705, -0.11787324398756027, 0.10861587524414062, 0.08361577987670898, 0.42945578694343567], [-0.0805661529302597, 0.002215907210484147, 0.13176816701889038, 0.21503455936908722, -0.16210848093032837, -0.19315628707408905, -0.11306031793355942, -0.07714757323265076, -0.2691175639629364, 0.22265920042991638, 0.006596898660063744, 0.2989535927772522, 0.1370452493429184, -0.1982836276292801, -0.019831888377666473, 0.19560733437538147, 0.006295954808592796, -0.22425179183483124, 0.0971817821264267], [-0.20660150051116943, -0.11414086818695068, -0.1327553391456604, -0.12772488594055176, 0.144912451505661, 0.2435234934091568, 0.037625931203365326, 0.11648861318826675, 0.10503417998552322, 0.1606718748807907, -0.2103179544210434, -0.1381532847881317, 0.17759817838668823, -0.1156202033162117, -0.33034154772758484, 0.20418578386306763, 0.4712527096271515, -0.03290771320462227, -0.20424513518810272], [-0.060313109308481216, 0.14759612083435059, 0.28870850801467896, -0.11467540264129639, -0.11144641786813736, -0.18048293888568878, -0.27033841609954834, 0.22556258738040924, -0.3502078354358673, 0.016812901943922043, -0.002418860560283065, 0.05567644536495209, 0.14521008729934692, -0.09471409767866135, 0.33702558279037476, 0.10137324035167694, 0.1971898078918457, -0.14088082313537598, -0.16125640273094177], [0.3043493330478668, -0.1398443728685379, -0.04346902295947075, -0.04309556633234024, 0.09946516901254654, 0.028190819546580315, -0.07642380148172379, 0.07205787301063538, -0.050908345729112625, 0.24423812329769135, -0.19240108132362366, -0.17179197072982788, -0.15469129383563995, 0.11373917758464813, 0.35968971252441406, 0.3061350882053375, -0.121700219810009, -0.03888338431715965, -0.029389072209596634], [0.10500022023916245, 0.1509384959936142, -0.1180165559053421, -0.07209931313991547, -0.013372997753322124, -0.22864335775375366, 0.25247329473495483, -0.09160642325878143, -0.2716977894306183, 0.4055599272251129, 0.0052595073357224464, 0.309291809797287, 0.25556692481040955, -0.3830028176307678, -0.1597384661436081, 0.09263169765472412, 0.18250516057014465, 0.23784436285495758, -0.01262239832431078], [-0.10276241600513458, -0.22049091756343842, -0.03455064073204994, -0.01576053909957409, -0.034699566662311554, -0.21534930169582367, 0.2204797863960266, 0.1643248200416565, -0.2248525470495224, -0.089657261967659, -0.23578914999961853, 0.339245468378067, 0.12839968502521515, -0.008117749355733395, 0.37473976612091064, 0.08215256780385971, -0.13697580993175507, 0.03128429502248764, 0.1939515322446823], [-0.4438954293727875, -0.1790989339351654, -0.2762637138366699, -0.24058841168880463, 0.004586379509419203, 0.31608298420906067, -0.0688173770904541, -0.16529881954193115, 0.08170079439878464, 0.15879328548908234, -0.0403665155172348, 0.06904414296150208, -0.04222940281033516, 0.002443154575303197, -0.10444904863834381, 0.26687145233154297, 0.02517612837255001, -0.060775693506002426, -0.06333894282579422], [0.21868497133255005, -0.025109972804784775, 0.13288234174251556, -0.28668490052223206, -0.12396524101495743, 0.18403097987174988, 0.1893891543149948, 0.132577046751976, 0.0899592861533165, -0.057523392140865326, -0.053358085453510284, 0.306762158870697, -0.37464115023612976, 0.2979195713996887, -0.32969197630882263, -0.07016701251268387, -0.15532436966896057, 0.09750279039144516, -0.037988174706697464], [0.17504079639911652, -0.16605816781520844, 0.19907161593437195, 0.32489895820617676, -0.19813741743564606, 0.12743617594242096, -0.14867237210273743, -0.16319164633750916, 0.010535099543631077, 0.02829449251294136, -0.007598561700433493, -0.20406314730644226, -0.09537024796009064, -0.250130832195282, -0.05377672240138054, 0.0992213636636734, 0.26184260845184326, -0.13200347125530243, 0.2665080428123474], [-0.1669953614473343, -0.2554444372653961, 0.473856657743454, -0.29386377334594727, -0.2696814239025116, 0.13710463047027588, 0.1571759134531021, 0.30095869302749634, -0.07285809516906738, 0.08794651925563812, -0.14709387719631195, -0.13433431088924408, -0.029416149482131004, 0.025251055136322975, -0.2030821591615677, -0.02305857092142105, 0.017951330170035362, -0.3917315900325775, -0.08436834067106247], [-0.2520548701286316, 0.670977771282196, 0.08570664376020432, 0.04663366824388504, -0.14317822456359863, 0.16335347294807434, -0.3795124292373657, 0.027575984597206116, -0.31073683500289917, 0.14476865530014038, -0.24109719693660736, -0.013667264953255653, 0.24398118257522583, -0.35922160744667053, 0.1444198191165924, -0.2222084254026413, 0.02944864332675934, 0.09510774165391922, -0.1233963817358017], [0.06044486537575722, 0.3210994601249695, 0.008350346237421036, 0.22718149423599243, -0.17094050347805023, -0.34165629744529724, 0.11810605227947235, 0.16133619844913483, 0.1650943160057068, -0.24965700507164001, 0.3445989787578583, -0.10617780685424805, -0.2454831749200821, 0.07225961238145828, -0.46530449390411377, 0.035711776465177536, 0.1791847199201584, -0.021687814965844154, -0.14841066300868988], [-0.19164399802684784, -0.0269884392619133, -0.05657591670751572, -0.15153485536575317, 0.22608844935894012, 0.014143034815788269, -0.18913784623146057, 0.10497280955314636, -0.24120160937309265, 0.19164496660232544, -0.18525384366512299, 0.31174197793006897, 0.11628586798906326, -0.056430600583553314, -0.20177946984767914, 0.2157621681690216, -0.16092447936534882, 0.08823031187057495, -0.03474687039852142], [-0.010582110844552517, -0.09952504932880402, -0.33817681670188904, -0.01802654191851616, -0.02448260597884655, -0.0899830162525177, 0.12156042456626892, -0.017981549724936485, 0.12837006151676178, -0.27362582087516785, -0.16298744082450867, 0.3860757052898407, -0.10993783921003342, -0.3177105486392975, -0.14834997057914734, -0.15880613029003143, 0.10275987535715103, 0.02568979188799858, -0.1392233520746231], [0.03425499424338341, 0.14963991940021515, -0.0557069256901741, -0.0030449184123426676, 0.04542960226535797, -0.2338985800743103, -0.0692705288529396, 0.08855763077735901, 0.062258753925561905, -0.12205376476049423, 0.17563137412071228, -0.15931445360183716, 0.37346553802490234, -0.3035043776035309, 0.2969031035900116, -0.09345056861639023, 0.048593491315841675, -0.2619628310203552, 0.0023426914121955633], [-0.03399678319692612, 0.31918033957481384, -0.030149539932608604, 0.4346737861633301, 0.09645303338766098, -0.2011794149875641, 0.04631498456001282, -0.4294196665287018, 0.18652713298797607, -0.22071853280067444, -0.05198214203119278, 0.1512179970741272, -0.04346955567598343, -0.1266094148159027, -0.1668059378862381, -0.3626475930213928, -0.046376656740903854, -0.09001118689775467, -0.15377222001552582], [-0.39418429136276245, -0.1199745237827301, -0.10857050120830536, -0.15684400498867035, 0.110960453748703, 0.09485463052988052, 0.20032702386379242, 0.09029872715473175, -0.4434414207935333, -0.09214021265506744, 0.40346190333366394, -0.11790676414966583, -0.09269830584526062, 0.005307789426296949, 0.289061576128006, -0.2529709041118622, 0.15123048424720764, 0.16191937029361725, 0.02037293277680874], [0.5937718749046326, -0.14513687789440155, -0.1405133605003357, -0.10812225192785263, 0.11963419616222382, 0.02486334927380085, -0.09896344691514969, 0.022777607664465904, -0.13838157057762146, -0.17404350638389587, -0.2764132618904114, -0.16817741096019745, -0.1625489592552185, 0.14150431752204895, -0.37639281153678894, -0.04359901696443558, 0.11594264209270477, 0.2815752625465393, -0.10656818002462387], [-0.19928258657455444, -0.47708284854888916, -0.08158114552497864, -0.041237447410821915, 0.17598845064640045, -0.11904831230640411, -0.1741371750831604, 0.0022710703779011965, -0.192096546292305, -0.08298318088054657, -0.2472573220729828, 0.04067932814359665, 0.21820186078548431, 0.06989402323961258, 0.14278385043144226, -0.06784587353467941, 0.40061047673225403, 0.17470376193523407, 0.030904443934559822]], "bias": [0.0455939918756485, -0.0027477387338876724, -0.006758870556950569, 0.013005108572542667, 0.01163375936448574, 0.06967497617006302, -0.00288498611189425, -0.03294564038515091, -0.02374190092086792, -0.0370822474360466, -0.023187562823295593, 0.042826540768146515, -0.004810575861483812, 0.04522893577814102, 0.010125597007572651, 0.0009331982582807541, -0.002825820818543434, -0.04127414524555206, 0.04959772154688835, -0.03047970123589039, -0.008016795851290226, -0.003252857131883502, 0.025261787697672844, -0.03920745849609375, 0.03385819122195244, -0.03923324868083, -0.05503235384821892, -0.06701438128948212, 0.0004896268947049975, 0.012498033232986927, -0.030265910550951958, -0.0063455672934651375, 0.04629910737276077, 0.03551315888762474, -0.031688522547483444, 0.00040628359420225024, 0.0003515463031362742, 0.01372896321117878, 0.004617495462298393, 0.042612943798303604, -0.0007250608177855611, -0.0006731391185894608, -0.018049778416752815, 0.044417332857847214, -0.011261134408414364, 0.019913632422685623, 0.10771171748638153, -0.03840198367834091, 0.015668731182813644, 0.013677834533154964, -0.007654606830328703, 0.03651632368564606, -0.018553679808974266, -0.023145589977502823, 0.033818770200014114, -0.0223358366638422, -0.01506759226322174, 0.0286711398512125, 0.016249792650341988, -0.01658136583864689, 0.021898183971643448, 0.039487726986408234, -0.014099886640906334, 0.0011900539975613356]}, {"type": "tanh"}, {"type": "linear", "weight": [[-0.02932526171207428, -0.32532477378845215, -0.025067688897252083, 0.062439143657684326, 0.02120509184896946, -0.05134395882487297, -0.03533485159277916, 0.17028047144412994, -0.11556155979633331, -0.10598124563694, -0.21820323169231415, 0.4465993046760559, -0.08634793758392334, 0.065009705722332, 0.01927132159471512, 0.1762644201517105, -0.13258057832717896, 0.3945366144180298, -0.2717183232307434, -0.17004655301570892, -0.11440461874008179, -0.058017656207084656, -0.1449625939130783, 0.2933264374732971, -0.21193797886371613, 0.01459544524550438, -0.09762296080589294, 0.17237740755081177, 0.19978642463684082, -0.05516144633293152, 0.01416859868913889, -0.3617880940437317, -0.08291222155094147, -0.26262879371643066, -0.20899789035320282, 0.09278545528650284, 0.08469712734222412, -0.07511656731367111, -0.20835831761360168, 0.3539232909679413, 0.12096332013607025, -0.09799608588218689, 0.16220951080322266, 0.27596211433410645, -0.1410474330186844, -0.07675150036811829, -0.2016538381576538, -0.06202615424990654, 0.09475218504667282, -0.10100048780441284, -0.005814907141029835, -0.16476747393608093, 0.05439625307917595, -0.11665480583906174, 0.028515681624412537, 0.12207527458667755, -0.32281494140625, 0.04885009303689003, -0.10621358454227448, -0.08263839036226273, -0.07763136923313141, -0.0009137571323662996, -0.2487221658229828, 0.343632310628891], [-0.06479404866695404, 0.02932770736515522, -0.16028600931167603, -0.017062734812498093, 0.14346511662006378, 0.11170423775911331, -0.018627958372235298, 0.1594652235507965, -0.2484217882156372, 0.28976309299468994, -0.27204522490501404, 0.03533310443162918, -0.3806625306606293, -0.27179309725761414, -0.0503242202103138, 0.1349671185016632, 0.0074277897365391254, -0.13388419151306152, 0.012669517658650875, 0.16260376572608948, -0.16091862320899963, 0.09200603514909744, 0.10447816550731659, 0.08854824304580688, 0.016073502600193024, -0.014927169308066368, 0.21888339519500732, -0.43540287017822266, -0.008272419683635235, 0.03519099950790405, -0.28992369771003723, -0.01748088374733925, 0.06401319801807404, 0.12658555805683136, -0.037024617195129395, 0.38941335678100586, -0.345004677772522, 0.2019219845533371, -0.005789906717836857, -0.211252361536026, 0.3806348145008087, -0.039144366979599, 0.19608503580093384, 0.016201309859752655, 0.19205139577388763, -0.11030913889408112, -0.0773378387093544, -0.0014777309261262417, 0.15816374123096466, -0.2440010905265808, -0.10912123322486877, -0.19286061823368073, 0.2784007489681244, 0.15629024803638458, -0.31403490900993347, 0.3285442292690277, 0.10510265827178955, -0.14575031399726868, -0.04687967151403427, 0.14154791831970215, -0.16377024352550507, -0.2306227833032608, -0.10146454721689224, -0.10412859916687012], [-0.09470755606889725, -0.060022126883268356, 0.1117907389998436, 0.2696121335029602, 0.32915982604026794, -0.21186785399913788, -0.33231571316719055, 0.036122582852840424, 0.10938815027475357, 0.23755520582199097, 0.2557215392589569, 0.034465812146663666, -0.036916349083185196, -0.22681544721126556, 0.03290398418903351, 0.1075163185596466, 0.052419018000364304, -0.23237831890583038, -0.1913289725780487, 0.2898406684398651, -0.05078909918665886, -0.15856222808361053, 0.04505030810832977, 0.09103793650865555, -0.26163867115974426, -0.047921523451805115, -0.29585549235343933, -0.0004374164273031056, -0.2388017773628235, -0.13393987715244293, -0.4303778409957886, 0.1377423107624054, 0.05026250705122948, -0.14481599628925323, -0.1197269931435585, -0.23253539204597473, -0.2737697958946228, 0.1603897213935852, -0.007782162632793188, -0.0003701509558595717, -0.15214422345161438, -0.033250853419303894, -0.19731169939041138, 0.18999440968036652, -0.13354754447937012, -0.15829850733280182, -0.0607944130897522, -0.2200554609298706, 0.3011050522327423, 0.24070318043231964, -0.010115704499185085, -0.06412648409605026, 0.044619813561439514, -0.28466734290122986, -0.04975651577115059, -0.4255130887031555, 0.03493976593017578, 0.06931258738040924, -0.1338881403207779, -0.10500408709049225, 0.0021453159861266613, 0.17656929790973663, -0.08752814680337906, -0.0022811421658843756], [-0.1630535125732422, 0.2285812646150589, -0.3230946362018585, 0.19605574011802673, -0.11783429235219955, 0.01954255998134613, 0.10884146392345428, 0.1505441665649414, 0.13225805759429932, -0.17704032361507416, -0.21901679039001465, 0.2125871628522873, 0.19246506690979004, 0.2450856864452362, -0.011650092899799347, 0.11062810570001602, 0.06274015456438065, -0.18275360763072968, 0.2709124684333801, 0.20000137388706207, 0.14297012984752655, 0.07025080919265747, 0.12063271552324295, -0.17506003379821777, -0.2720353305339813, -0.36863359808921814, -0.018049875274300575, -0.0920783132314682, -0.01676078327000141, -0.11133219301700592, -0.15022630989551544, -0.03811360150575638, -0.013718701899051666, -0.1880764663219452, -0.013480465859174728, -0.2824995815753937, 0.05142708867788315, -0.03939972072839737, -0.20059899985790253, 0.11736076325178146, 0.2348593920469284, 0.06584414839744568, 0.1558379977941513, -0.301209032535553, 0.12345069646835327, 0.02800210565328598, 0.3535858690738678, 0.1654047966003418, 0.33873963356018066, 0.23942069709300995, -0.1521134078502655, -0.39470234513282776, -0.17520715296268463, 0.03730016574263573, 0.028245635330677032, -0.20183175802230835, -0.1054740771651268, 0.17397278547286987, 0.059059157967567444, -0.1700589656829834, 0.026625316590070724, -0.026946939527988434, 0.01232568733394146, 0.3575643002986908], [0.020400911569595337, 0.14589224755764008, -0.2788695991039276, 0.21084599196910858, 0.06074604019522667, -0.22746649384498596, 0.006416153162717819, -0.18422888219356537, 0.06479496508836746, 0.09701558202505112, 0.12575264275074005, -0.11302334815263748, 0.004089646507054567, 0.009818587452173233, -0.14185824990272522, 0.3366295099258423, 0.15904220938682556, 0.15284566581249237, 0.09906798601150513, 0.266539990901947, -0.3405333161354065, 0.14085525274276733, -0.03819645568728447, -0.20270413160324097, 0.14840370416641235, -0.28175994753837585, -0.2345113605260849, -0.24869601428508759, -0.1332252323627472, -0.12037686258554459, 0.1993798166513443, -0.48856401443481445, 0.04887736216187477, 0.1399589627981186, 0.026913469657301903, 0.09658743441104889, -0.07503462582826614, 0.04975879564881325, -0.1601489931344986, 0.012380986474454403, -0.34900301694869995, 0.01711263693869114, -0.10653449594974518, -0.03167687729001045, 0.012325706891715527, 0.05223458260297775, 0.11080966889858246, 0.07569657266139984, -0.12355580180883408, -0.32446831464767456, -0.36087626218795776, 0.3336503207683563, 0.2593603730201721, 0.1136646643280983, -0.01779559813439846, -0.19298522174358368, 0.04589184373617172, -0.08130475133657455, -0.06296562403440475, -0.19390246272087097, -0.19054540991783142, 0.17652291059494019, 0.15890884399414062, 0.34626197814941406], [-0.10010778158903122, 0.07630444318056107, -0.41136470437049866, -0.10418915003538132, -0.20333446562290192, 0.09321121126413345, -0.1054152175784111, 0.073310986161232, -0.05730681121349335, 0.07116296142339706, 0.2890912890434265, -0.3613215386867523, -0.4272273778915405, 0.042145777493715286, -0.31592249870300293, 0.2894688546657562, 0.17083758115768433, -0.06664881855249405, -0.154376819729805, -0.1334611475467682, -0.08289113640785217, -0.002104532439261675, -0.04182253032922745, 0.18343891203403473, -0.006433244328945875, -0.012041359208524227, 0.0502580925822258, 0.025079015642404556, 0.13567803800106049, 0.14422744512557983, 0.07421210408210754, 0.0044317059218883514, -0.12205525487661362, -0.13785381615161896, 0.2458386868238449, -0.2889174520969391, 0.14167921245098114, -0.01976086013019085, 0.04175790026783943, -0.11406006664037704, -0.08404464274644852, 0.09841354191303253, 0.03400246053934097, 0.26808735728263855, -0.24267275631427765, -0.32342439889907837, 0.14324763417243958, -0.124276302754879, 0.2703723609447479, -0.2708359360694885, -0.2878628373146057, -0.24922986328601837, -0.04665563628077507, 0.3628484606742859, -0.07503288984298706, 0.0056151230819523335, -0.029437320306897163, 0.06155732274055481, 0.06302531808614731, -0.20123031735420227, 0.34482380747795105, 0.07622870802879333, 0.04594546929001808, -0.3461976647377014], [-0.41352301836013794, -0.06629271060228348, 0.12236690521240234, -0.3769940435886383, -0.06332942843437195, 0.22600091993808746, -0.15854203701019287, 0.2914596498012543, -0.22453300654888153, -0.029752006754279137, -0.012462587095797062, 0.0407678596675396, -0.04091738164424896, 0.08124960213899612, -0.06548385322093964, -0.06817411631345749, -0.20729440450668335, -0.11865115910768509, 0.1533261388540268, 0.05376646667718887, -0.4565756022930145, -0.10969580709934235, 0.10405097901821136, -0.2276313453912735, 0.0031764511950314045, -0.14412027597427368, -0.1367754340171814, 0.1105896607041359, 0.34716662764549255, -0.1595296859741211, -0.1527814418077469, -0.03905974701046944, 0.08732682466506958, 0.5346589684486389, 0.03661211207509041, -0.09203603863716125, -0.21978501975536346, -0.21286538243293762, -0.22288605570793152, 0.22114193439483643, -0.2787628471851349, -0.0530218705534935, -0.054700978100299835, -0.06089765951037407, 0.3099307715892792, 0.1356467604637146, 0.055911701172590256, -0.3093019127845764, -0.27327340841293335, 0.11838191002607346, 0.08265196532011032, -0.0842590481042862, -0.04311132803559303, 0.14419326186180115, 0.007309591397643089, 0.0011774665908887982, -0.13139431178569794, 0.08820118755102158, 0.08797361701726913, 0.037822891026735306, 0.09144580364227295, 0.2402343600988388, -0.11907811462879181, -0.004412784241139889], [-0.10862746834754944, -0.2008041888475418, -0.044388700276613235, 0.2284252941608429, 0.05488164722919464, 0.041938040405511856, 0.03172868490219116, -0.006462022662162781, 0.0023412806913256645, 0.28940922021865845, 0.055529844015836716, 0.14222370088100433, 0.07771962881088257, -0.29877790808677673, 0.19599507749080658, 0.005081631243228912, -0.13295337557792664, -0.14948099851608276, -0.20378360152244568, -0.18402887880802155, 0.101266048848629, 0.3330612778663635, 0.011160786263644695, 0.1460619866847992, -0.023828404024243355, -0.027868332341313362, -0.1413017064332962, 0.24458882212638855, -0.2569415867328644, 0.05321534350514412, 0.35025954246520996, 0.3055005967617035, 0.32230690121650696, 0.12135639041662216, 0.022883791476488113, 0.14067083597183228, -0.08437737822532654, -0.03091573901474476, 0.1333845853805542, 0.1212087869644165, -0.23368237912654877, -0.11343718320131302, 0.0241690780967474, 0.033671461045742035, 0.3098086416721344, 0.15800529718399048, 0.0775582417845726, -0.023977553471922874, 0.13249579071998596, -0.24101285636425018, 0.17690305411815643, -0.16714780032634735, -0.3659032881259918, 0.33939144015312195, 0.2061929702758789, 0.2778032720088959, -0.09387359023094177, 0.33648791909217834, 0.1694004386663437, -0.1953185498714447, -0.3286111056804657, -0.14271074533462524, -0.03299274295568466, -0.04307110235095024], [0.10179287195205688, -0.041859220713377, -0.13425223529338837, -0.29536956548690796, 0.2203049212694168, -0.246122807264328, 0.07617650926113129, 0.23446321487426758, 0.4443655014038086, -0.22668471932411194, 0.21297071874141693, 0.468173623085022, -0.016901222988963127, 0.17827589809894562, 0.13735675811767578, -0.3414827287197113, -0.11762215197086334, 0.20305247604846954, -0.20260311663150787, -0.027896134182810783, -0.04712183028459549, -0.14592404663562775, -0.185540109872818, 0.08741484582424164, 0.19707778096199036, -0.3620278239250183, 0.06929634511470795, 0.3639772832393646, -0.2627403736114502, 0.024045057594776154, -0.07549534738063812, 0.030218077823519707, -0.03746449947357178, 0.1676761955022812, 0.10187950730323792, -0.2454843521118164, -0.30940937995910645, 0.03492603451013565, -0.06418871134519577, -0.14959555864334106, -0.029781918972730637, 0.19898062944412231, -0.059053484350442886, -0.1233573779463768, -0.09125518798828125, -0.14829324185848236, -0.08873247355222702, 0.27846759557724, 0.02034016326069832, 0.18033984303474426, -0.09418107569217682, 0.15304958820343018, -0.11987888813018799, -0.028062932193279266, -0.20815841853618622, 0.3453066349029541, -0.22982044517993927, 0.27902188897132874, 0.29640597105026245, 0.02607872523367405, -0.2748020887374878, -0.05402814596891403, -0.21464292705059052, 0.18811537325382233], [-0.06345241516828537, 0.450102299451828, -0.13919992744922638, 0.2470400631427765, 0.12728402018547058, -0.039656832814216614, 0.15058690309524536, 0.10583620518445969, -0.19496206939220428, 0.2649114429950714, 0.038751281797885895, 0.033762380480766296, -0.2706716060638428, -0.27483052015304565, 0.2721283435821533, 0.24748654663562775, 0.46526724100112915, 0.19068694114685059, 0.4551011025905609, 0.07871788740158081, 0.11181697994470596, -0.15179085731506348, -0.27875402569770813, 0.018553592264652252, 0.2619079351425171, 0.2716039717197418, 0.21632307767868042, 0.29428568482398987, 0.2848401665687561, -0.12790195643901825, -0.08975943922996521, 0.13103355467319489, -0.20707519352436066, 0.07693462073802948, -0.2616519033908844, -0.295540988445282, 0.09817308187484741, -0.2826317250728607, 0.13363096117973328, 0.12645955383777618, -0.23371264338493347, -0.04133370891213417, -0.08507158607244492, 0.11637739092111588, 0.12850405275821686, 0.0670141652226448, -0.0031433093827217817, 0.06683431565761566, 0.03679528832435608, -0.06263338029384613, -0.14355692267417908, -0.13033509254455566, 0.18873196840286255, -0.001363916089758277, -0.15450075268745422, -0.1491362303495407, -0.00715934531763196, -0.09259947389364243, -0.08850783109664917, 0.0643908679485321, -0.16864098608493805, -0.07644839584827423, 0.08263994008302689, 0.013076304458081722], [-0.05626096576452255, -0.20073026418685913, 0.42600682377815247, 0.021984143182635307, -0.08396809548139572, 0.08015107363462448, -0.060660164803266525, 0.0944039449095726, 0.03617127239704132, -0.25645747780799866, 0.09334543347358704, -0.005657887551933527, 0.08205147832632065, 0.14577698707580566, 0.39883187413215637, 0.12316965311765671, 0.053476251661777496, -0.07516590505838394, 0.0416882261633873, 0.17479826509952545, -0.1885756403207779, 0.2807178497314453, -0.21982023119926453, 0.185432568192482, 0.1863139569759369, -0.22152595221996307, 0.01888713240623474, 0.2864149510860443, -0.1726684719324112, -0.42956817150115967, 0.11064204573631287, -0.13592812418937683, -0.1284964382648468, -0.4153594672679901, 0.08826785534620285, 0.047139521688222885, -0.29388153553009033, -0.3571776747703552, 0.2522956430912018, -0.2018139809370041, 0.3274359703063965, 0.0034154527820646763, -0.10266725718975067, -0.20849476754665375, 0.06807499378919601, -0.21331219375133514, 0.25303077697753906, -0.2450891137123108, 0.21464981138706207, 0.11353175342082977, 0.015298915095627308, 0.24544957280158997, -0.1529538333415985, 0.08533542603254318, -0.199636310338974, 0.1909620612859726, -0.10188959538936615, 0.006921791471540928, -0.06373970210552216, 0.18096740543842316, 0.047064825892448425, 0.16492919623851776, 0.13320493698120117, 0.3135351836681366], [-0.2785719335079193, 0.23193645477294922, 0.10860460251569748, -0.19999098777770996, -0.3174673318862915, -0.33140724897384644, -0.006875830702483654, 0.09385858476161957, 0.5046980381011963, -0.005272797774523497, 0.05942770093679428, -0.2150014191865921, 0.2368762344121933, -0.08158959448337555, -0.1261732131242752, -0.1103617325425148, 0.1332649290561676, 0.04221510514616966, 0.08262581378221512, 0.036444976925849915, 0.22615282237529755, 0.19217832386493683, 0.19770966470241547, 0.2014482468366623, 0.11605121940374374, 0.07687989622354507, -0.06780882179737091, -0.15426667034626007, -0.027974847704172134, 0.2162417769432068, -0.16540564596652985, -0.24106860160827637, 0.13872413337230682, -0.25516748428344727, -0.021669769659638405, 0.12149795889854431, -0.037600211799144745, -0.43588024377822876, 0.030984943732619286, 0.08335917443037033, 0.011946480721235275, -0.19188854098320007, 0.01529135461896658, 0.07485000044107437, 0.24943764507770538, 0.044666435569524765, -0.4877927601337433, -0.06478753685951233, 0.15237072110176086, -0.11914907395839691, 0.20467016100883484, 0.08681022375822067, -0.08111711591482162, 0.14481942355632782, 0.0343940369784832, 0.18310463428497314, -0.211692675948143, 0.1874546855688095, -0.1944982409477234, 0.14936508238315582, -0.2028300166130066, -0.045706819742918015, -0.34300297498703003, 0.1351284384727478], [-0.3462180197238922, 0.17097261548042297, -0.07575900852680206, -0.07155300676822662, 0.13995611667633057, 0.09866663068532944, -0.24804453551769257, -0.2503197193145752, 0.06212763860821724, -0.04086707904934883, -0.029552537947893143, -0.10237331688404083, 0.2324378341436386, 0.023398587480187416, 0.07019025832414627, -0.26154807209968567, 0.0006777193630114198, 0.1959604173898697, 0.11639517545700073, 0.46126872301101685, 0.10941161215305328, 0.0030367919243872166, 0.07718605548143387, -0.01812848635017872, 0.10000089555978775, -0.19404269754886627, 0.3530033528804779, 0.1037309467792511, -0.2370816171169281, -0.1418498307466507, 0.01570192165672779, -0.2476097196340561, -0.03565497696399689, -0.32147839665412903, -0.02776898816227913, 0.02754978835582733, 0.26116687059402466, 0.22597472369670868, 0.055989015847444534, 0.24743324518203735, -0.2870495915412903, 0.0733344554901123, -0.044620148837566376, 0.01345084235072136, -0.11443652957677841, -0.07140285521745682, 0.012166108004748821, -0.14275319874286652, 0.017670825123786926, -0.20486365258693695, -0.17292001843452454, -0.45263755321502686, -0.0002822593960445374, -0.16115237772464752, -0.19318948686122894, 0.13616393506526947, -0.24869219958782196, -0.20528431236743927, 0.15969263017177582, 0.11380161345005035, -0.1364094465970993, -0.013144109398126602, 0.2952231168746948, -0.18880759179592133], [0.32722899317741394, 0.09544944763183594, 0.1166895404458046, 0.1236666738986969, 0.0916062667965889, -0.08035337179899216, 0.12340562790632248, 0.44085031747817993, 0.07101807743310928, 0.3736042380332947, 0.0726933404803276, 0.15608157217502594, 0.1716986745595932, 0.25692054629325867, -0.04998980090022087, -0.018139304593205452, 0.06896331161260605, -0.13640178740024567, 0.07085420191287994, -0.2784765064716339, -0.14803682267665863, 0.05467881262302399, -0.1860005259513855, 0.03185991942882538, -0.10522224754095078, 0.22751425206661224, -0.12592975795269012, -0.1781173050403595, -0.06435905396938324, -0.08429825305938721, -0.22216632962226868, -0.1282886117696762, -0.02465633861720562, 0.05616012215614319, 0.273086816072464, 0.17173318564891815, 0.011925303377211094, -0.14991454780101776, 0.01139581948518753, -0.022737862542271614, -0.25489935278892517, 0.32997527718544006, 0.10651878267526627, -0.32461968064308167, -0.1518697589635849, -0.0011644333135336637, 0.13945358991622925, -0.04934937506914139, -0.11049307137727737, -0.14025607705116272, 0.26955652236938477, -0.22479934990406036, -0.3175821006298065, -0.26993417739868164, 0.10505897551774979, 0.35320329666137695, -0.32052671909332275, -0.026328790932893753, -0.25466111302375793, 0.12259501218795776, -0.09610679745674133, 0.30385416746139526, 0.19726310670375824, 0.03851568326354027], [0.052012138068675995, 0.01022495049983263, -0.12182379513978958, -0.21205353736877441, 0.19389647245407104, 0.1498395800590515, -0.3529587686061859, 0.11154624819755554, -0.19814029335975647, -0.20792563259601593, 0.22593137621879578, -0.24631699919700623, 0.1457531750202179, 0.05787200480699539, -0.20070290565490723, 0.20609796047210693, 0.02161642163991928, -0.10504259169101715, 0.05530599504709244, 0.057037897408008575, 0.012500496581196785, -0.037117574363946915, -0.2685006558895111, -0.2868229150772095, 0.3025134801864624, 0.3001028597354889, 0.17936047911643982, -0.12167716026306152, 0.11338154971599579, 0.10361668467521667, 0.09621233493089676, -0.2032300978899002, 0.05440741777420044, -0.18115362524986267, -0.39285847544670105, 0.06350117176771164, -0.2930673360824585, -0.059153977781534195, -0.03841756284236908, 0.35862353444099426, -0.28215622901916504, -0.015464440919458866, 0.4309220612049103, -0.14112724363803864, -0.15358154475688934, -0.02579374611377716, 0.09365862607955933, 0.19902464747428894, 0.37659209966659546, 0.004500479903072119, -0.11793304234743118, -0.007881549187004566, -0.04024089127779007, -0.07759767025709152, -0.20161181688308716, -0.3741151690483093, 0.2360312044620514, 0.16095693409442902, -0.13120317459106445, -0.10760141909122467, -0.19977785646915436, -0.2741067409515381, 0.2926201820373535, -0.08957334607839584], [-0.2873433232307434, 0.216644287109375, -0.13035446405410767, 0.04677112400531769, -0.00548257352784276, -0.19072796404361725, -0.10166963934898376, 0.16014282405376434, -0.021885434165596962, -0.2728992998600006, 0.14032451808452606, 0.19960495829582214, 0.29527759552001953, 0.21215136349201202, 0.07470828294754028, 0.2551425099372864, -0.11697205156087875, 0.2483140230178833, -0.2549762725830078, 0.32875433564186096, 0.31003570556640625, -0.21587447822093964, -0.10077644884586334, 0.15009811520576477, 0.12893398106098175, 0.1722402274608612, -0.19651851058006287, -0.09792058914899826, -0.1451295018196106, -0.07225583493709564, 0.06173619627952576, 0.3024185001850128, -0.08669164776802063, 0.09554559737443924, 0.26145029067993164, 0.1967821568250656, -0.24114209413528442, -0.06504633277654648, -0.06672263145446777, -0.17453943192958832, 0.17450620234012604, -0.19622363150119781, 0.2887539267539978, 0.2797003388404846, 0.27584129571914673, 0.05280259624123573, 0.1680024117231369, -0.009200995787978172, -0.23634372651576996, -0.02489529177546501, 0.11420530825853348, 0.21579612791538239, -0.3543236255645752, -0.1375042051076889, -0.09960038214921951, 0.08352573961019516, -0.45211291313171387, -0.1129474937915802, -0.005734195467084646, 0.09038576483726501, 0.1742239147424698, 0.06909951567649841, -0.02403762936592102, -0.07131441682577133], [0.396203875541687, 0.18295644223690033, -0.004495483823120594, 0.04081187769770622, 0.0018744253320619464, -0.05118134617805481, -0.020463373512029648, -0.18655666708946228, -0.18916499614715576, 0.07872673124074936, 0.15415623784065247, -0.1725139170885086, -0.07488588988780975, -0.06219370290637016, 0.14164313673973083, -0.18160444498062134, 0.046346165239810944, 0.1419471949338913, -0.19503659009933472, -0.05983639881014824, 0.08827849477529526, -0.21594789624214172, 0.24321676790714264, -0.4065680503845215, -0.27989447116851807, -0.14374887943267822, 0.02857844904065132, -0.06252308934926987, -0.18505598604679108, 0.10780075192451477, -0.15052080154418945, 0.030512899160385132, -0.24325673282146454, 0.046103838831186295, -0.015706803649663925, -0.07456382364034653, -0.09739702939987183, -0.481693297624588, -0.003216175828129053, 0.2543662190437317, 0.04597967118024826, -0.1135219857096672, 0.17442937195301056, 0.19995126128196716, 0.20448964834213257, -0.13365496695041656, -0.05948548763990402, 0.20531423389911652, 0.25605860352516174, -0.2810288369655609, 0.1776764839887619, -0.029130306094884872, 0.31851494312286377, 0.08072713762521744, -0.24580320715904236, 0.09737066179513931, 0.14937356114387512, 0.012516334652900696, 0.2714135944843292, -0.10230477899312973, 0.27167150378227234, 0.14858345687389374, 0.3921937644481659, -0.10520362854003906], [0.5001724362373352, -0.2511584162712097, -0.041233308613300323, -0.3864341080188751, 0.06691635400056839, 0.2047886699438095, 0.10255676507949829, -0.12869948148727417, -0.010305909439921379, 0.42204537987709045, 0.155471533536911, 0.02135608345270157, 0.11483248323202133, -0.3586435317993164, 0.026421254500746727, 0.027972839772701263, -0.08074402064085007, -0.020530475303530693, -0.07531572133302689, -0.12258974462747574, 0.19906085729599, -0.22349269688129425, 0.5305485129356384, -0.045723747462034225, 0.03449275344610214, 0.26515454053878784, -0.06113848462700844, 0.019148539751768112, -0.13166747987270355, -0.13142290711402893, 0.189046710729599, -0.2738882005214691, -0.28402820229530334, -0.06986629217863083, -0.03490440174937248, -0.1595533788204193, -0.045897193253040314, 0.07898876816034317, -0.1740443855524063, -0.2578892111778259, 0.2549366354942322, -0.12149123102426529, -0.09221895039081573, -0.0020807990804314613, 0.14793546497821808, 0.09326931089162827, 0.1272604912519455, -0.06951063871383667, -0.2914244532585144, 0.020648233592510223, -0.03697629272937775, -0.19636569917201996, -0.2167910486459732, 0.1951725035905838, -0.17220327258110046, -0.1537289172410965, -0.2951391339302063, 0.2343127280473709, 0.010359866544604301, 0.19164115190505981, -0.06698247045278549, 0.05410834029316902, -0.17689737677574158, -0.07799006998538971], [-0.2248436063528061, 0.17665235698223114, -0.14570409059524536, 0.21308816969394684, -0.1871764063835144, -0.06772997230291367, 0.23083482682704926, -0.09425519406795502, -0.3841879069805145, 0.20642191171646118, -0.14077211916446686, -0.25239941477775574, 0.11676877737045288, 0.16829431056976318, -0.3797050416469574, -0.042464159429073334, -0.14121013879776, -0.07009308785200119, 0.0435328334569931, 0.05945265293121338, -0.023716051131486893, -0.29031652212142944, -0.47897955775260925, -0.05635426938533783, -0.09685744345188141, 0.16254989802837372, 0.2826833128929138, 0.1533639132976532, -0.23448868095874786, -0.12644346058368683, -0.21600504219532013, -0.26489898562431335, 0.0455380417406559, -0.1427823007106781, 0.038857508450746536, -0.21467481553554535, -0.2614601254463196, 0.11434365808963776, 0.11897794902324677, 0.20322754979133606, 0.16934755444526672, 0.134479358792305, -0.07737996429204941, 0.06325415521860123, 0.05039864405989647, -0.13458557426929474, -0.29247498512268066, -0.15002529323101044, -0.02040853165090084, 0.029515784233808517, -0.1348022222518921, 0.22506317496299744, 0.0650518387556076, 0.23120668530464172, 0.15799367427825928, -0.2624645233154297, -0.12477441877126694, 0.17833349108695984, 0.06975389271974564, 0.009296498261392117, -0.1570570468902588, -0.20231281220912933, 0.46050456166267395, 0.15768460929393768], [-0.047024961560964584, 0.08384763449430466, 0.3289211690425873, 0.055648595094680786, 0.01048079039901495, -0.2623003125190735, -0.1823558658361435, 0.10047765076160431, 0.04385426640510559, -0.06794276088476181, 0.07046705484390259, 0.29030144214630127, -0.038098275661468506, -0.08560183644294739, -0.1573951542377472, 0.17208231985569, -0.14429913461208344, -0.028916841372847557, -0.19594885408878326, -0.013454153202474117, -0.046128787100315094, 0.20646795630455017, 0.0008112696232274175, -0.05092480406165123, -0.22642859816551208, -0.09716527163982391, 0.23501770198345184, 0.040335457772016525, 0.16880281269550323, 0.08513759076595306, 0.34010523557662964, -0.12696141004562378, 0.22931814193725586, 0.10763990879058838, 0.1601402908563614, -0.5724282264709473, 0.04153482988476753, 0.06655936688184738, -0.07271859794855118, -0.13914169371128082, 0.2188703864812851, -0.24432416260242462, -0.10934072732925415, -0.04196380451321602, 0.04280401021242142, 0.04889623820781708, 0.037250321358442307, 0.17964546382427216, 0.06109724938869476, -0.42100024223327637, 0.21318453550338745, -0.035971514880657196, -0.059893425554037094, -0.08121423423290253, -0.19329053163528442, -0.1562468558549881, 0.029796404764056206, -0.09568416327238083, -0.19184061884880066, 0.42726215720176697, 7.472837751265615e-05, -0.16463826596736908, 0.24766699969768524, -0.02827529050409794], [-0.017972538247704506, -0.029486393555998802, -0.21070215106010437, 0.17012032866477966, 0.1367691308259964, 0.11243156343698502, 0.010479161515831947, 0.18080298602581024, -0.1999220997095108, -0.11612832546234131, -0.0860886424779892, 0.007704575080424547, 0.19209282100200653, -0.12412513047456741, 0.043601710349321365, -0.001303590484894812, 0.4795517325401306, -0.15379054844379425, -0.23405471444129944, -0.009003609418869019, -0.02562187798321247, -0.05121060088276863, 0.3945327401161194, -0.05021296814084053, 0.07486296445131302, 0.07976323366165161, -0.30243468284606934, 0.04158013314008713, 0.012342868372797966, 0.23250463604927063, -0.05544763430953026, -0.2676365375518799, -0.023070158436894417, -0.10294298082590103, -0.07973966002464294, -0.2850715219974518, 0.06669928878545761, 0.08080928772687912, 0.002640379825606942, 0.04243948310613632, -0.1103501170873642, 0.04014401510357857, -0.0730823278427124, 0.16968558728694916, -0.2703963816165924, 0.07206110656261444, -0.027331111952662468, -0.024094168096780777, -0.030886195600032806, 0.2493906319141388, 0.19737744331359863, 0.09598581492900848, 0.14427566528320312, 0.4537608027458191, -0.3100760877132416, 0.06265506148338318, -0.023610128089785576, -0.504436194896698, 0.1103394478559494, -0.15091301500797272, 0.15785019099712372, -0.5403701066970825, 0.40924036502838135, -0.10124372690916061], [-0.38111746311187744, -0.293123722076416, -0.11745230853557587, 0.20290698111057281, -0.041920341551303864, -0.2703835964202881, -0.07395827770233154, -0.18792510032653809, 0.3572664260864258, 0.1911861151456833, 0.29693496227264404, -0.03485655412077904, -0.032945651561021805, 0.19560398161411285, 0.015359745360910892, -0.027538031339645386, -0.055417951196432114, 0.17623227834701538, 0.1593696027994156, -0.25165730714797974, -0.11211968213319778, 0.09134615957736969, 0.19945713877677917, -0.2595978379249573, 0.17020875215530396, 0.5242713689804077, -0.0640900656580925, 0.29439786076545715, -0.12419318407773972, -0.2628839313983917, -0.024177582934498787, -0.09434348344802856, 0.11570444703102112, 0.14622287452220917, -0.0679464116692543, 0.08975138515233994, -0.02151794172823429, 0.0021028274204581976, -0.1983383297920227, 0.11492618918418884, 0.3282475471496582, -0.17844615876674652, 0.13262782990932465, -0.17692311108112335, 0.07351166009902954, -0.0633188784122467, 0.151457741856575, 0.11237238347530365, 0.05978798493742943, 0.1007637307047844, 0.046180009841918945, -0.11645014584064484, 0.38247212767601013, 0.04463181644678116, 0.32456761598587036, 0.34619230031967163, -0.0442865714430809, -0.013538157567381859, -0.08664890378713608, 0.09721938520669937, 0.11687213182449341, -0.08486364781856537, -0.07383210957050323, -0.19761058688163757], [0.29144087433815, -0.04426087811589241, 0.00643293047323823, -0.1254858374595642, 0.04407399520277977, -0.11948879808187485, -0.025133077055215836, -0.09580279141664505, -0.25535425543785095, 0.1459704339504242, 0.12414715439081192, -0.04216434806585312, -0.2916721701622009, 0.16401119530200958, -0.38312390446662903, -0.12557154893875122, -0.16357356309890747, 0.12449231743812561, -0.05817459151148796, 0.31289395689964294, 0.33513346314430237, 0.15080145001411438, 0.1099325641989708, 0.29850032925605774, -0.046858202666044235, -0.05801389738917351, -0.5481247305870056, 0.223465695977211, 0.08411700278520584, 0.396529883146286, -0.07204368710517883, 0.03639829531311989, -0.18012216687202454, -0.1640053391456604, -0.19561254978179932, -0.20870812237262726, -0.055134840309619904, 0.07809040695428848, 0.09095801413059235, 0.14672166109085083, 0.002620850456878543, -0.062216076999902725, -0.0910271480679512, -0.3684524893760681, 0.2782764732837677, -0.03579303249716759, 0.3151191771030426, -0.16431821882724762, -0.26446032524108887, -0.004806559067219496, 0.08353521674871445, -0.02836359478533268, 0.1171218529343605, -0.047128479927778244, -0.04719731956720352, 0.34039509296417236, 0.20190808176994324, -0.013715247623622417, 0.003420568071305752, 0.07413846254348755, 0.039859604090452194, -0.1891547590494156, -0.024442946538329124, -0.06524214148521423], [0.2881111204624176, 0.0830814465880394, 0.049463123083114624, 0.04205708205699921, 0.2605225741863251, -0.482144296169281, 0.026688668876886368, 0.2751334309577942, -0.19644100964069366, -0.19183439016342163, -0.18767818808555603, -0.0700494721531868, 0.3021034598350525, 0.136707603931427, -0.0630926862359047, 0.17796523869037628, -0.017383096739649773, 0.0962989330291748, 0.3305189609527588, 0.16119441390037537, -0.2825022041797638, -0.14079008996486664, 0.1167638972401619, -0.27976691722869873, 0.12385950237512589, 0.006077383644878864, 0.1148972362279892, 0.10695922374725342, 0.06884977221488953, 0.06386328488588333, -0.18167775869369507, 0.1779729127883911, 0.09514464437961578, -0.1589994728565216, 0.2058013379573822, 0.03562995791435242, 0.20620179176330566, 0.03472895547747612, 0.03718503192067146, 0.11619163304567337, 0.06494325399398804, -0.4051930606365204, 0.010564680211246014, 0.03857899457216263, -0.25413426756858826, -0.24918295443058014, -0.010792362503707409, -0.33864328265190125, 0.11419802159070969, -0.10221920907497406, -0.2539319396018982, -0.045045409351587296, 0.031286511570215225, 0.34052857756614685, 0.14765971899032593, -0.1761312037706375, 0.20275701582431793, 0.001224134350195527, 0.1357247680425644, -0.10382699221372604, -0.39300674200057983, -0.00951102189719677, 0.1592922955751419, -0.223600372672081], [0.08698397874832153, 0.32440051436424255, -0.3688892722129822, -0.013389737345278263, 0.4461919963359833, 0.23918893933296204, -0.4642055630683899, -0.22287970781326294, -0.2603045403957367, 0.22525762021541595, 0.08298628032207489, -0.09114071726799011, -0.3387991786003113, 0.2396605908870697, 0.2999880015850067, -0.020593341439962387, 0.13420093059539795, -0.048216313123703, 0.0033314975444227457, -0.10867757350206375, -0.05112718418240547, 0.0285651758313179, 0.09901408851146698, -0.3198160231113434, -0.08418329060077667, 0.0033426941372454166, 0.17826300859451294, -0.11552951484918594, 0.17456713318824768, 0.43405574560165405, 0.042493242770433426, 0.05599648505449295, 0.22601240873336792, -0.3307775557041168, -0.0332852303981781, -0.11661241948604584, -0.05183853581547737, 0.01271972618997097, -0.17219498753547668, 0.04412810876965523, -0.002956222277134657, -0.10589518398046494, -0.09662321209907532, -0.06508996337652206, -0.040361132472753525, -0.10106468945741653, -0.19277003407478333, -0.21371443569660187, -0.017185982316732407, 0.024618767201900482, -0.07100415974855423, 0.22253011167049408, -0.04650258645415306, 0.16134896874427795, 0.35503384470939636, -0.1340155005455017, -0.18693198263645172, -0.24706611037254333, 0.07293085753917694, 0.19299454987049103, 0.08503857254981995, -0.023282963782548904, 0.10267177224159241, 0.17426016926765442], [-0.28623828291893005, -0.14282406866550446, 0.08995959162712097, 0.1463649719953537, 0.06488004326820374, -0.08709133416414261, -0.0991143062710762, -0.30971723794937134, -0.3807799518108368, -0.15681250393390656, -0.1735139787197113, -0.08870192617177963, 0.026851948350667953, -0.09772288799285889, 0.0008292330312542617, 0.22413676977157593, 0.12238414585590363, -0.10708505660295486, 0.09847328811883926, -0.17036765813827515, 0.10477834939956665, -0.15886138379573822, -0.09265465289354324, -0.12271463871002197, 0.41033175587654114, -0.035420142114162445, 0.03114827536046505, -0.077023945748806, -0.011420886032283306, 0.3626677989959717, -0.3389137387275696, -0.22152763605117798, -0.11289025843143463, 0.11556512862443924, 0.11720127612352371, -0.09746290743350983, 0.048624664545059204, -0.07144563645124435, -0.06432625651359558, 0.08042079955339432, -0.02652871608734131, 0.1660250574350357, -0.19482992589473724, -0.34038421511650085, -0.18068264424800873, -0.2512207329273224, 0.2407379299402237, -0.0861528292298317, 0.2672104835510254, -0.3310491442680359, 0.21991920471191406, 0.06935504078865051, 0.12430287152528763, -0.16218850016593933, -0.058593109250068665, -0.4456886947154999, -0.26725566387176514, -0.11671887338161469, 0.47294312715530396, -0.13571305572986603, -0.13135389983654022, 0.027820903807878494, -0.1546139419078827, 0.053392644971609116], [-0.09684207290410995, 0.146783709526062, -0.13960501551628113, 0.14801152050495148, 0.08847805857658386, -0.20092761516571045, 0.21936100721359253, -0.03301141783595085, -0.1856466680765152, -0.012683284468948841, -0.22246487438678741, -0.07500819861888885, -0.08871592581272125, 0.08382575213909149, 0.007034821901470423, -0.14323514699935913, -0.06084747239947319, -0.0718441754579544, 0.003781556850299239, 0.03523384779691696, -0.06390663981437683, 0.09411035478115082, 0.3011631667613983, -0.2110733538866043, -0.2568451464176178, 0.1507459282875061, -0.1045854389667511, 0.4046620726585388, 0.2680315673351288, 0.03749510273337364, -0.013811757788062096, -0.16634170711040497, -0.24430570006370544, -0.16680385172367096, -0.06868351250886917, 0.18974944949150085, -0.11639655381441116, 0.1460488736629486, 0.01161238830536604, -0.2830359935760498, -0.2172897458076477, 0.0528632290661335, -0.15706884860992432, 0.0388348288834095, 0.07466782629489899, 0.10710199922323227, -0.012247818522155285, 0.26137322187423706, 0.37928932905197144, -0.12291262298822403, -0.1304658204317093, 0.3734992444515228, -0.29180872440338135, -0.16172191500663757, -0.19113445281982422, 0.0646442323923111, -0.24217568337917328, 0.18369056284427643, -0.04370079189538956, 0.13168418407440186, 0.14730797708034515, -0.196747288107872, -0.19827328622341156, -0.36965227127075195], [0.1918252855539322, -0.14816619455814362, 0.18615765869617462, 0.09439154714345932, -0.1194525957107544, 0.05586814880371094, -0.11757359653711319, -0.22815197706222534, 0.09934916347265244, 0.18331022560596466, -0.0874275341629982, -0.09031611680984497, 0.05845598876476288, 0.3201712667942047, 0.004262784030288458, -0.011962405405938625, -0.1093573346734047, -0.002836143132299185, -0.040815602988004684, -0.32009798288345337, -0.25491446256637573, -0.34120437502861023, 0.15856949985027313, 0.24196068942546844, 0.22562527656555176, -0.34412333369255066, -0.14411349594593048, -0.28526613116264343, 0.1666443794965744, -0.11859019100666046, -0.051916856318712234, 0.09930719435214996, 0.24550677835941315, 0.019053196534514427, 0.018004456534981728, -0.19668172299861908, -0.2104039043188095, -0.15716426074504852, 0.44557106494903564, -0.027296964079141617, 0.0491877943277359, -0.2119152843952179, -0.16899757087230682, 0.14787916839122772, 0.08357862383127213, 0.32403433322906494, 0.18328174948692322, 0.16517199575901031, -0.05735022947192192, 0.04171690717339516, -0.24545150995254517, -0.1894083023071289, -0.04113365337252617, -0.3240140378475189, 0.07044844329357147, 0.16850687563419342, -0.2515028417110443, 0.026522431522607803, -0.07221969217061996, -0.02632572129368782, -0.057362157851457596, -0.3785035014152527, -0.04489055275917053, -0.0884711891412735], [-0.12228460609912872, -0.12343817949295044, 0.3391304016113281, 0.24693991243839264, 0.07896613329648972, 0.05926773324608803, 0.20847798883914948, 0.10879555344581604, 0.090286985039711, 0.10820697247982025, 0.21112260222434998, -0.18261989951133728, 0.06075330078601837, -0.032330501824617386, -0.4289136528968811, -0.11693966388702393, 0.03357631340622902, 0.4853539764881134, 0.0006983504863455892, -0.025465868413448334, -0.2865230143070221, 0.16501200199127197, 0.24921177327632904, -0.15848073363304138, 0.04201608523726463, -0.03457839787006378, 0.030990738421678543, 0.08619143068790436, -0.14261800050735474, 0.21993224322795868, 0.10258761793375015, 0.4178444743156433, -0.04042484238743782, -0.04138364642858505, -0.41097280383110046, 0.00843222625553608, -0.055000755935907364, -0.10101080685853958, -0.016980858519673347, -0.12748180329799652, 0.19804233312606812, 0.21270133554935455, 0.15738889575004578, -0.0727488249540329, -0.018196992576122284, 0.04401993378996849, -0.20426292717456818, 0.004082468803972006, -0.056453343480825424, -0.05127713829278946, -0.17725878953933716, -0.08914190530776978, -0.46721455454826355, 0.043701864778995514, -0.16878409683704376, -0.017892761155962944, -0.1758984625339508, -0.26959851384162903, 0.056648265570402145, -0.07481374591588974, 0.08742914348840714, 0.03849177807569504, -0.08814889937639236, 0.18884244561195374], [-0.11308734118938446, 0.2595195174217224, -0.12962956726551056, 0.22441764175891876, 0.30515968799591064, 0.11675211042165756, -0.12128940969705582, 0.21759580075740814, -0.09298606216907501, -0.12240178138017654, -0.06397609412670135, 0.011000295169651508, 0.1729612946510315, -0.23311133682727814, -0.008038031868636608, -0.1928229182958603, 0.13341709971427917, -0.22034254670143127, -0.19572660326957703, 0.16296330094337463, -0.23760715126991272, 0.16503138840198517, -0.0338786356151104, 0.022222209721803665, 0.20665611326694489, 0.10244861245155334, 0.24159620702266693, 0.04224633052945137, 0.05827408656477928, 0.2715829014778137, 0.015300855040550232, -0.2861514091491699, -0.13122335076332092, 0.07326211780309677, -0.1026972308754921, -0.09451138228178024, -0.03739698976278305, -0.22734472155570984, 0.18904107809066772, -0.04625873640179634, 0.38701629638671875, 0.07356318831443787, 0.08468157052993774, -0.15985757112503052, 0.15282106399536133, 0.026833873242139816, -0.07425422221422195, 0.061858851462602615, -0.3139595687389374, -0.19945648312568665, -0.223063126206398, -0.03568238392472267, 0.269160658121109, -0.0930890440940857, 0.4542746841907501, -0.14568716287612915, -0.013232220895588398, 0.1736428141593933, -0.1813342422246933, -0.4837855100631714, 0.09382960200309753, 0.12296748161315918, 0.02459912933409214, -0.33984866738319397], [0.09693237394094467, -0.07245491445064545, 0.11270718276500702, -0.027654657140374184, -0.006294229533523321, 0.11613420397043228, 0.21999484300613403, -0.26351988315582275, 0.05085844174027443, -0.1835649609565735, 0.45863547921180725, -0.1045706570148468, 0.14377880096435547, -0.13295665383338928, 0.10132163017988205, 0.23734650015830994, 0.0677669420838356, -0.23226840794086456, -0.2156972736120224, -0.11777910590171814, -0.03084576316177845, 0.1766011118888855, 0.010710407979786396, -0.04058847948908806, -0.06254953891038895, -0.026405852288007736, -0.17095719277858734, 0.09803793579339981, 0.42959141731262207, -0.13777437806129456, -0.3380414545536041, 0.07855138927698135, -0.15438222885131836, -0.18175756931304932, 0.08646629750728607, -0.03375573083758354, -0.09147624671459198, 0.29065969586372375, -0.3587178885936737, 0.0937236025929451, 0.16778399050235748, -0.10679242014884949, -0.1578485071659088, 0.09312926977872849, 0.1571628451347351, 0.09280802309513092, -0.219669371843338, 0.22831936180591583, -0.40394076704978943, -0.11967495083808899, -0.033589575439691544, -0.13571973145008087, -0.37446722388267517, -0.20065908133983612, 0.05582533776760101, 0.5087847709655762, 0.15272413194179535, 0.010020166635513306, 0.2854803800582886, -0.05424202233552933, -0.09565045684576035, 0.03261107951402664, -0.02169663831591606, -0.015586852096021175], [0.01661856845021248, -0.017129847779870033, -0.042154841125011444, -0.11743061244487762, 0.056906186044216156, -0.21516558527946472, 0.07934548705816269, -0.1218423992395401, -0.0730096772313118, 0.17423589527606964, 0.3579663634300232, -0.07979441434144974, -0.2331991344690323, -0.2839866578578949, 0.07369152456521988, -0.09704713523387909, -0.181809201836586, 0.0932278111577034, 0.30240222811698914, 0.2692832350730896, -0.07613487541675568, -0.2659395933151245, -0.11092667281627655, -0.10841106623411179, 0.15463130176067352, -0.28885337710380554, 0.103171706199646, 0.20088735222816467, 0.1584233194589615, 0.2578093111515045, -0.22867785394191742, -0.32636699080467224, 0.09120028465986252, -0.16807451844215393, 0.05750956013798714, 0.09616885334253311, 0.25241386890411377, 0.09626689553260803, -0.09035384654998779, -0.26944485306739807, 0.06373275816440582, -0.14336031675338745, 0.2737977206707001, 0.0924534797668457, -0.22542427480220795, 0.31777873635292053, 0.12690788507461548, -0.029101992025971413, 0.037464775145053864, 0.10350421816110611, 0.3998890519142151, 0.0181850828230381, -0.2150139957666397, 0.04477829858660698, 0.022083483636379242, -0.0011553557123988867, -0.0366770476102829, 0.04252553731203079, -0.06323819607496262, -0.44854283332824707, 0.29113003611564636, -0.16793306171894073, 0.20970198512077332, 0.12682195007801056], [0.034737903624773026, 0.14029304683208466, -0.0748441144824028, 0.06474500149488449, 0.028268324211239815, 0.34039780497550964, 0.04303179308772087, -0.3582642674446106, 0.11968672275543213, -0.08682578802108765, 0.005861521698534489, 0.11448056995868683, -0.03654056787490845, -0.23169875144958496, -0.06139449402689934, -0.0891546979546547, -0.26461902260780334, -0.12850110232830048, -0.15478649735450745, 0.16102057695388794, 0.027580825611948967, 0.07105835527181625, -0.030753353610634804, -0.23459923267364502, -0.12240482121706009, 0.09110107272863388, -0.13895565271377563, -0.056916601955890656, 0.3022962510585785, -0.10270847380161285, -0.358250230550766, -0.03692995384335518, -0.012136155739426613, 0.30053314566612244, -0.11761820316314697, -0.2006799429655075, 0.13825616240501404, -0.2387634962797165, 0.23968982696533203, -0.2725515067577362, -0.19573910534381866, -0.08454697579145432, 0.3504926264286041, 0.060802802443504333, -0.313432514667511, -0.5846433639526367, 0.19420041143894196, -0.20359455049037933, -0.06592977046966553, -0.09901805222034454, -0.15264202654361725, 0.10679254680871964, -0.050570886582136154, 0.014321343041956425, 0.13661853969097137, -0.09546437859535217, -0.06962143629789352, -0.11400920152664185, -0.06754675507545471, 0.11684848368167877, -0.19797669351100922, -0.31230786442756653, 0.06866443902254105, 0.1365869790315628], [-0.019090643152594566, -0.08114328980445862, -0.12567274272441864, 0.009475314058363438, -0.024520007893443108, 0.04906254634261131, -0.34698086977005005, 0.10268039256334305, -0.4028567969799042, -0.25014206767082214, -0.04122179374098778, -0.22637546062469482, -0.07586989551782608, -0.01626281999051571, -0.144947811961174, 0.25525978207588196, 0.310601145029068, -0.01992977038025856, 0.10128117352724075, -0.12261834740638733, 0.23135392367839813, -0.265619158744812, 0.32295700907707214, -0.25772637128829956, -0.16451014578342438, -0.030003327876329422, 0.24493005871772766, 0.35988983511924744, -0.13422390818595886, -0.10535553097724915, -0.20707038044929504, -0.11772400885820389, 0.218196839094162, -0.055258844047784805, -0.0979679524898529, -0.005600329022854567, 0.2493269145488739, 0.1399618536233902, 0.37047049403190613, -0.1875772774219513, -0.26766106486320496, -0.14689461886882782, 0.23059900104999542, -0.21476233005523682, 0.18526409566402435, -0.19146795570850372, -0.22962835431098938, 0.1231418177485466, -0.08877012133598328, -0.24088096618652344, -0.12130293995141983, 0.12211140245199203, 0.19545705616474152, 0.023277869448065758, 0.02650921419262886, -0.0097011374309659, -0.010213550180196762, -0.04519448056817055, -0.2641572654247284, -0.36075595021247864, -0.01311864610761404, 0.04785199463367462, 0.011889164336025715, 0.18944741785526276], [0.022803321480751038, -0.1660425364971161, -0.47013193368911743, 0.007284558843821287, -0.09023647010326385, -0.4995556175708771, -0.024418894201517105, -0.31401216983795166, -0.42366406321525574, 0.01889318786561489, 0.031438153237104416, -0.11449358612298965, 0.025998247787356377, -0.5303103923797607, -0.009063228033483028, 0.02121737413108349, 0.11900872737169266, 0.05729834735393524, -0.1024014800786972, -0.27309277653694153, 0.08794626593589783, 0.06425637751817703, 0.47274842858314514, 0.05711517110466957, -0.017193811014294624, -0.27894285321235657, 0.3802461624145508, -0.04254020377993584, 0.2900644838809967, 0.10371510684490204, 0.016343319788575172, 0.07890091836452484, -0.1115097925066948, 0.0630813017487526, -0.030029339715838432, -0.02934897691011429, -0.142646923661232, -0.11342975497245789, -0.15223371982574463, 0.1336544007062912, -0.15350401401519775, 0.26912540197372437, 0.19079475104808807, -0.06359417736530304, -0.03698976710438728, -0.1171484962105751, 0.07547485083341599, -0.3649132549762726, -0.12325571477413177, 0.2526181936264038, -0.11727972328662872, 0.08212844282388687, 0.0213210117071867, -0.17368775606155396, 0.05147572234272957, 0.035539742559194565, 0.15205314755439758, -0.03313241899013519, -0.25379207730293274, 0.08490973711013794, 0.08632191270589828, -0.11058370023965836, 0.31339845061302185, -0.1390291452407837], [0.2655881345272064, 0.22381936013698578, -0.0474550798535347, 0.01794220134615898, -0.21217241883277893, 0.0830245167016983, 0.3152991831302643, -0.14297567307949066, -0.2551782727241516, 0.08287080377340317, 0.04921072721481323, -0.1446019560098648, 0.21441033482551575, -0.031906675547361374, 0.221273735165596, 0.08184442669153214, 0.05904149264097214, -0.005691247060894966, -0.024405280128121376, -0.07949725538492203, -0.16520240902900696, 0.16839337348937988, -0.12229045480489731, 0.007367372512817383, 0.022579725831747055, 0.1877768486738205, 0.07771247625350952, -0.02173376828432083, -0.11094275861978531, 0.14374923706054688, 0.14319008588790894, -0.03397734463214874, 0.37246406078338623, 0.048736751079559326, 0.04584157466888428, -0.30744701623916626, -0.041690509766340256, 0.11699249595403671, -0.26173651218414307, -0.20652388036251068, -0.2247322052717209, -0.15405066311359406, 0.39532628655433655, -0.16271811723709106, 0.2586161494255066, -0.09322739392518997, -0.19145141541957855, -0.46261996030807495, 0.10523393005132675, -0.006636778358370066, -0.11302322894334793, -0.09696915000677109, 0.36130109429359436, -0.2921296954154968, -0.160691037774086, 0.03511398658156395, -0.028777824714779854, -0.12152112275362015, 0.061824407428503036, -0.19976219534873962, 0.2629848122596741, -0.19546447694301605, -0.33754149079322815, -0.15358789265155792], [0.07590179890394211, -0.14410577714443207, -0.0827939361333847, -0.2977566421031952, 0.12447512894868851, -0.008027243427932262, -0.08960724622011185, 0.22826002538204193, -0.0241214819252491, -0.30984625220298767, -0.11023709177970886, -0.05503726750612259, 0.2618577480316162, 0.03638820722699165, -0.13006393611431122, -0.005609345622360706, 0.12557819485664368, 0.20397667586803436, 0.47780513763427734, -0.07532337307929993, 0.05856828764081001, 0.3898252248764038, -0.3652982711791992, -0.05782446637749672, 0.15139468014240265, -0.15616968274116516, -0.02554239332675934, -0.13207751512527466, -0.25720417499542236, -0.21074633300304413, -0.26758643984794617, 0.08207743614912033, -0.1564696878194809, 0.09924262762069702, -0.2089260369539261, -0.20515082776546478, -0.16305723786354065, 0.11197655647993088, -0.05765204504132271, -0.2525532841682434, -0.06804866343736649, 0.07383135706186295, -0.1821582317352295, 0.29771190881729126, 0.11340360343456268, 0.008516290225088596, 0.014536739327013493, -0.032119616866111755, 0.3080742061138153, -0.2915358245372772, 0.0606628954410553, -0.05162434279918671, 0.20187528431415558, 0.01312093436717987, 0.5726457238197327, -0.1687798798084259, -0.21937215328216553, -0.046783916652202606, -0.13320140540599823, 0.08726030588150024, 0.05148004740476608, -0.08967563509941101, 0.18027423322200775, 0.09624326229095459], [-0.17679232358932495, 0.10267981886863708, 0.04103771224617958, -0.11238521337509155, -0.03616008535027504, -0.27036136388778687, 0.12922939658164978, 0.11590879410505295, 0.12806230783462524, 0.1132679358124733, -0.11598574370145798, 0.08060067892074585, -0.057685136795043945, 0.1699250340461731, 0.2963690161705017, -0.16836310923099518, 0.34035465121269226, 0.08182234317064285, -0.1792365163564682, -0.02640819363296032, 0.15512336790561676, 0.04751620441675186, 0.05166025832295418, 0.06854327023029327, 0.03977317735552788, -0.01419683638960123, -0.04516570270061493, -0.03818652778863907, -0.15667299926280975, -0.2678191065788269, -0.09841792285442352, 0.009365176782011986, 0.0725664347410202, 0.05059017613530159, -0.23376578092575073, -0.029398908838629723, -0.22013910114765167, 0.26773518323898315, 0.24926289916038513, 0.17026342451572418, 0.12076687812805176, -0.17173291742801666, 0.26565420627593994, -0.14821702241897583, -0.27779626846313477, 0.05369448661804199, 0.009484407491981983, -0.1437099725008011, -0.3034003973007202, -0.5911253094673157, 0.04710334911942482, 0.05552351474761963, -0.31993961334228516, 0.10322839766740799, -0.07214429974555969, -0.1427668035030365, 0.21560300886631012, 0.22225350141525269, 0.11420369148254395, 0.20774580538272858, 0.49625083804130554, -0.11465100944042206, -0.15352106094360352, 0.08977784961462021], [0.12100501358509064, 0.035528022795915604, -0.09246263653039932, 0.13432234525680542, -0.11436261236667633, -0.008632496930658817, -0.30211639404296875, -0.09295652061700821, 0.19138164818286896, -0.12384969741106033, -0.5417832732200623, -0.21767385303974152, -0.35680535435676575, -0.10747755318880081, 0.11014664173126221, 0.4460577070713043, 0.05818796157836914, 0.06247539818286896, -0.023162584751844406, 0.13650453090667725, -0.0036351887974888086, -0.13647456467151642, 0.07863642275333405, -0.30729877948760986, 0.21396048367023468, 0.14843226969242096, -0.08562646061182022, 0.03187192976474762, -0.13487397134304047, 0.3951377272605896, 0.026127737015485764, -0.13065190613269806, -0.2520303428173065, 0.1849028617143631, -0.0816330686211586, -0.2522765100002289, 0.01085611805319786, 0.1840445101261139, 0.08127766847610474, -0.1275620460510254, -0.007501153275370598, 0.03406805917620659, 0.031413484364748, 0.02266908623278141, 0.012401854619383812, -0.046504247933626175, -0.2859327495098114, -0.28640615940093994, 0.06543713063001633, 0.13432684540748596, -0.053727928549051285, -0.153581902384758, -0.2440384179353714, -0.1957811564207077, -0.012304074130952358, 0.13563765585422516, 0.18611153960227966, 0.24126183986663818, 0.12407249957323074, 0.013668161816895008, 0.1096877008676529, -0.05840173363685608, 0.5203428864479065, 0.11769499629735947], [-0.08783974498510361, 0.01725994236767292, 0.2149704247713089, -0.034319356083869934, 0.006398200523108244, -0.09864401817321777, -0.0286546777933836, -0.07877150923013687, 0.07644079625606537, 0.06046907603740692, -0.3273019790649414, -0.009573250077664852, -0.2413312792778015, 0.07243182510137558, -0.35558193922042847, -0.3378169536590576, 0.5788211822509766, -0.35422107577323914, -0.06613977253437042, -0.029684657230973244, -0.04458940774202347, -0.19215422868728638, -0.09004553407430649, 0.023702401667833328, 0.032198891043663025, 0.20344959199428558, 0.2897603511810303, -0.12491309642791748, 0.16367505490779877, -0.03325510025024414, 0.13334333896636963, 0.17379385232925415, -0.06753941625356674, -0.08829447627067566, -0.1187477856874466, 0.05414612218737602, -0.09422250092029572, 0.044925812631845474, -0.40815791487693787, -0.27274641394615173, -0.22010590136051178, -0.34249192476272583, 0.09525427222251892, 0.06156203895807266, 0.21147209405899048, -0.23677143454551697, 0.27196380496025085, -0.12323974817991257, -0.004763299133628607, -0.12110016494989395, -0.06835654377937317, -0.00644682627171278, 0.23674607276916504, -0.060613248497247696, 0.058260802179574966, -0.10790938884019852, -0.0818951427936554, -0.04356513172388077, 0.060679368674755096, -0.33496683835983276, -0.14235951006412506, -0.005419409368187189, 0.41215863823890686, 0.1568552404642105], [-0.26134341955184937, -0.035708747804164886, -0.18844042718410492, 0.19390816986560822, 0.24247737228870392, 0.023996129631996155, 0.10664204508066177, -0.012736363336443901, -0.04668055847287178, -0.32355737686157227, -0.10429312288761139, -0.2161661982536316, -0.24080196022987366, 0.2356385737657547, 0.11773846298456192, -0.10126577317714691, 0.13671371340751648, 0.4634508490562439, 0.22990886867046356, -0.10444110631942749, -0.24097131192684174, 0.13180658221244812, -0.17420294880867004, 0.19004857540130615, -0.0481611043214798, -0.0965849906206131, -0.08625402301549911, -0.2680216133594513, -0.0763823390007019, -0.30155864357948303, -0.059885475784540176, -0.1630551666021347, 0.04030930623412132, -0.10081159323453903, 0.07747738808393478, -0.09324266016483307, -0.04241863638162613, -0.11571839451789856, 0.017728189006447792, -0.198293536901474, -0.025515710934996605, -0.16589514911174774, 0.21362143754959106, -0.23406235873699188, 0.20858356356620789, -0.2490234524011612, -0.18277817964553833, 0.10263064503669739, -0.11782164126634598, 0.0961369052529335, 0.38511404395103455, -0.11209073662757874, -0.0756358876824379, -0.002437649527564645, 0.021705014631152153, -0.5443333983421326, 0.05456859990954399, 0.12587101757526398, 0.02934829704463482, -0.06673357635736465, -0.4448920488357544, 0.04982540011405945, 0.1397555023431778, -0.28061643242836], [0.1869707852602005, -0.29823657870292664, -0.1218501403927803, -0.10571753233671188, 0.35710638761520386, -0.2546658515930176, -0.006157564930617809, -0.3930286765098572, 0.12030511349439621, -0.03723088651895523, 0.07356560975313187, -0.1402004212141037, 0.07072950899600983, -0.052765000611543655, -0.008607248775660992, 0.049112603068351746, 0.10244201123714447, -0.21837377548217773, 0.23397834599018097, 0.008054882287979126, 0.009443167597055435, 0.17216940224170685, 0.017438706010580063, -0.03128942847251892, -0.4782777428627014, 0.3196048438549042, 0.02970428392291069, 0.07625027000904083, 0.34552767872810364, 0.3720077872276306, 0.14911331236362457, 0.07711762934923172, 0.07043282687664032, 0.19715574383735657, 0.17172259092330933, 0.13415268063545227, -0.18627963960170746, 0.03374972194433212, 0.39624181389808655, 0.061877716332674026, 0.060911498963832855, 0.1647465080022812, 0.014751746319234371, 0.1808035671710968, 0.08915894478559494, -0.01590656116604805, -0.06676371395587921, -0.05442274361848831, -0.328621506690979, 0.013032213784754276, 0.018089331686496735, -0.34451308846473694, 0.16075028479099274, 0.06684649735689163, -0.4304203987121582, -0.007922873832285404, -0.1780124455690384, 0.0667584016919136, 0.09972364455461502, -0.0853181928396225, 0.33772557973861694, -0.1614241749048233, -0.058004844933748245, 0.1811336874961853], [-0.04295564815402031, 0.3263513147830963, -0.05660596489906311, 0.35733866691589355, -0.1570781171321869, 0.08346652239561081, -0.4441719353199005, -0.01932680234313011, -0.06601499766111374, -0.18276137113571167, 0.008413776755332947, 0.18777497112751007, -0.06259208172559738, 0.15706409513950348, -0.31738442182540894, 0.1184416338801384, 0.08547410368919373, 0.2092326134443283, 0.15204232931137085, -0.14358696341514587, 0.12027431279420853, 0.22269587218761444, -0.2769072353839874, -0.48854896426200867, -0.08766505867242813, -0.07196171581745148, 0.3698654770851135, -0.11295551806688309, -0.07113496959209442, -0.22517837584018707, -0.16752132773399353, -0.03687362000346184, -0.1875293105840683, -0.12161749601364136, -0.12833470106124878, 0.029606105759739876, -0.07945729792118073, -0.041340962052345276, 0.0034219208173453808, -0.16896262764930725, -0.05965396761894226, 0.023166203871369362, -0.12786154448986053, -0.026151038706302643, -0.2480846345424652, 0.31362050771713257, 0.04562383145093918, -0.5097751617431641, -0.08811520785093307, -0.03415343165397644, 0.15989917516708374, 0.07455098628997803, 0.3164760172367096, 0.09800438582897186, -0.18982622027397156, -0.1715671569108963, -0.03888418525457382, 0.19506582617759705, 0.020059173926711082, -0.38311201333999634, -0.3120083808898926, -0.07551977783441544, 0.018617011606693268, -0.2331969290971756], [0.13395367562770844, 0.3104405999183655, 0.00018234897288493812, -0.03378899767994881, -0.18064334988594055, 0.050629813224077225, -0.038774628192186356, 0.08901888132095337, 0.034214459359645844, -0.2158317118883133, -0.1339564025402069, 0.19747211039066315, -0.22078536450862885, -0.1205892488360405, -0.28559595346450806, -0.01306869275867939, 0.0015257057966664433, 0.2300763726234436, 0.1804753839969635, 0.2536354660987854, -0.21630577743053436, 0.2637428939342499, 0.22220447659492493, -0.03775429725646973, 0.2609361708164215, 0.21573035418987274, 0.16974952816963196, 0.01978047750890255, 0.018732290714979172, -0.46792393922805786, 0.04247760400176048, -0.04469755291938782, 0.07403746247291565, -0.1075737252831459, 0.3879452347755432, -0.07456598430871964, -0.4328288733959198, 0.12027560919523239, 0.31664013862609863, 0.32819700241088867, -0.05887174978852272, 0.055998481810092926, 0.10612627863883972, 0.0050064739771187305, -0.0817185640335083, -0.05027513578534126, 0.0326334647834301, 0.08593082427978516, 0.18517085909843445, 0.04256133735179901, 0.34075576066970825, 0.09445983916521072, 0.061232298612594604, -0.2020762711763382, 0.44370123744010925, -0.25601717829704285, -0.15514883399009705, -0.19826218485832214, 0.2891192138195038, -0.2815153896808624, -0.15993373095989227, 0.11975223571062088, -0.10778722167015076, 0.1551220864057541], [-0.14273667335510254, -0.051252029836177826, 0.2535245716571808, -0.13530996441841125, -0.07626193761825562, 0.04328373447060585, 0.06259894371032715, 0.12984661757946014, -0.14823700487613678, -0.005590141750872135, 0.2473701536655426, -0.21109893918037415, -0.04228423535823822, 0.30914580821990967, 0.22885484993457794, -0.12047382444143295, 0.3363081216812134, 0.22876164317131042, 0.14959044754505157, 0.20554889738559723, 0.06654811650514603, 0.2859448492527008, 0.15380121767520905, 0.1280633807182312, -0.2683745324611664, 0.057289812713861465, 0.16501903533935547, -0.06837859749794006, -0.26631593704223633, 0.11739400029182434, 0.08410828560590744, -0.1885608732700348, -0.11115765571594238, 0.4072099030017853, 0.09254057705402374, -0.09485092014074326, 0.1368841975927353, 0.08435190469026566, -0.01699896529316902, 0.2651401460170746, 0.27832362055778503, -0.12160246819257736, -0.07240738719701767, 0.27103427052497864, -0.22326889634132385, -0.017295535653829575, 0.22326263785362244, 0.00801350548863411, 0.1362186074256897, 0.18323348462581635, -0.03785385936498642, 0.267073392868042, -0.2188241183757782, -0.25561657547950745, 0.039057496935129166, 0.21256592869758606, -0.14598466455936432, 0.2899477481842041, -0.11778505146503448, -0.19516873359680176, -0.4282677173614502, -0.046286050230264664, -0.08947160094976425, 0.0985681563615799], [0.1665017455816269, 0.06713016331195831, -0.1462884098291397, 0.1571371853351593, -0.054307542741298676, 0.04059750959277153, -0.18838685750961304, 0.2512754499912262, -0.23745475709438324, -0.06853509694337845, -0.04835279658436775, -0.1367851346731186, -0.12002471089363098, -0.01902124099433422, -0.2397906333208084, 0.08055291324853897, 0.2642229497432709, 0.0618014857172966, -0.04818737879395485, 0.2992893159389496, -0.1044226884841919, 0.31146883964538574, -0.12574154138565063, -0.17687515914440155, 0.3109191358089447, -0.13000938296318054, 0.10258100926876068, 0.04143419489264488, -0.11524192243814468, -0.27997076511383057, -0.15817011892795563, 0.1518339365720749, 0.2505851686000824, -0.051524948328733444, 0.05549275130033493, 0.30911028385162354, 0.44597485661506653, -0.22880233824253082, -0.20054294168949127, 0.10586080700159073, 0.022065455093979836, -0.05978421866893768, -0.17558203637599945, -0.04759198799729347, -0.09124784171581268, -0.2143958956003189, -0.07455888390541077, 0.11147657781839371, -0.06828093528747559, 0.09439779818058014, 0.016650697216391563, 0.039709094911813736, 0.22028152644634247, -0.2349327653646469, 0.011988827958703041, -0.41076457500457764, -0.2953171133995056, 0.46404343843460083, 0.2008751779794693, 0.12645520269870758, 0.14911998808383942, -0.40170353651046753, 0.21554724872112274, 0.12476267665624619], [-0.010321426205337048, -0.13966579735279083, 0.10441002249717712, 0.04416951164603233, 0.14076030254364014, -0.019504979252815247, -0.33810144662857056, -0.10605424642562866, -0.09193664789199829, 0.16716936230659485, 0.2419375777244568, 0.36786913871765137, 0.2336769998073578, 0.10933904349803925, -0.05614810809493065, -0.3497091233730316, -0.04931528866291046, -0.00928240455687046, 0.2159220278263092, -0.022792795673012733, -0.028975510969758034, -0.0665416494011879, 0.09528972208499908, 0.3453684449195862, 0.051217980682849884, 0.1806088238954544, -0.28954339027404785, -0.2117469608783722, 0.25503456592559814, -0.40545743703842163, 0.1645958423614502, 0.034574829041957855, -0.1400100141763687, 0.20012615621089935, 0.22798845171928406, -0.06694954633712769, 0.2999964952468872, -0.03758426383137703, -0.053191881626844406, -0.15129482746124268, 0.17605923116207123, 0.3454431891441345, 0.20656195282936096, -0.029334193095564842, 0.3044121265411377, 0.17347347736358643, -0.29118630290031433, -0.09900050610303879, 0.2318686991930008, -0.1279487907886505, -0.058077942579984665, 0.2006358504295349, -0.2420053482055664, -0.03625696524977684, 0.037709105759859085, 0.2565198838710785, 0.26102739572525024, 0.1512802094221115, 0.28722524642944336, -0.04122890159487724, 0.07525379955768585, -0.08097853511571884, -0.12874485552310944, 0.17747117578983307], [-0.07394976913928986, -0.17222511768341064, 0.03549838066101074, -0.307644248008728, -0.30486050248146057, -0.13038848340511322, -0.15206776559352875, 0.1009121686220169, 0.055062126368284225, 0.23706331849098206, -0.2450130730867386, 0.10001704096794128, 0.01261557824909687, -0.09623963385820389, 0.21268555521965027, 0.10407467931509018, 0.19528545439243317, 0.16839253902435303, 0.0642586499452591, 0.2220568060874939, -0.06554440408945084, -0.1704249531030655, -0.2482786774635315, -0.36409512162208557, -0.23992298543453217, 0.0694371908903122, -0.06203747168183327, -0.1856907308101654, -0.03925703838467598, -0.062179114669561386, 0.12264980375766754, 0.0768013745546341, 0.28096723556518555, -0.3122981786727905, -0.06452682614326477, -0.08876851946115494, -0.08932213485240936, -0.24589841067790985, -0.02826395444571972, -0.06394349783658981, 0.14689812064170837, 0.4253944158554077, -0.16640515625476837, 0.06955304741859436, 0.17366856336593628, -0.31810417771339417, 0.21525678038597107, 0.08701271563768387, -0.22729767858982086, -0.1929032951593399, 0.03768878057599068, 0.10834227502346039, -0.15905873477458954, -0.1288149207830429, 0.13143205642700195, 0.034447018057107925, 0.19355955719947815, -0.1519974172115326, 0.03217339515686035, -0.24188992381095886, -0.08708188682794571, -0.3174113631248474, -0.17099648714065552, -0.2567214369773865], [-0.3157188296318054, 0.30803951621055603, -0.4981427490711212, -0.2489151656627655, -0.0813867449760437, -0.0625145360827446, 0.0695917084813118, 0.12066514790058136, -0.3462217152118683, -0.05020749196410179, 0.2415490299463272, -0.09672769904136658, 0.0001811292313504964, -0.05173433572053909, 0.005368256010115147, 0.09462720900774002, 0.006456941366195679, -0.1149354800581932, -0.11264074593782425, -0.12867093086242676, -0.346055805683136, -0.12058521807193756, 0.19110757112503052, -0.23809155821800232, -0.049134910106658936, 0.2025565803050995, 0.06649904698133469, -0.006970047019422054, -0.10114696621894836, 0.23558621108531952, 0.05839667096734047, 0.13477104902267456, -0.23662316799163818, -0.26539087295532227, -0.153852641582489, 0.06250838190317154, 0.15675662457942963, -0.028348013758659363, 0.30211150646209717, -0.28020358085632324, -0.034975163638591766, -0.1330605298280716, -0.19956757128238678, -0.016683358699083328, -0.1620958000421524, 0.06639000028371811, 0.07488809525966644, -0.2279263585805893, 0.07332577556371689, -0.13446706533432007, 0.07249290496110916, -0.20674943923950195, 0.35297369956970215, -0.33602312207221985, -0.03780955448746681, -0.24448710680007935, 0.332552969455719, -0.024934930726885796, 0.15909619629383087, -0.04036588594317436, -0.19067062437534332, -0.21344515681266785, 0.29253706336021423, 0.4133579730987549], [0.06988642364740372, 0.23746241629123688, -0.08902287483215332, 0.22390228509902954, -0.16126319766044617, -0.13374470174312592, -0.30499476194381714, 0.06107138469815254, -0.3154887557029724, -0.013086863793432713, 0.0899379551410675, -0.025488175451755524, 0.1282690465450287, -0.43782666325569153, -0.1482143998146057, -0.3058370053768158, 0.05194476619362831, -0.039983149617910385, 0.2468900978565216, -0.3501909375190735, -0.09338817000389099, -0.059709079563617706, -0.17099232971668243, -0.0982043594121933, -0.029128581285476685, 0.011781295761466026, -0.17006318271160126, -0.15372054278850555, 0.040246255695819855, 0.1639058142900467, 0.19071568548679352, -0.29390189051628113, 0.1353309452533722, -0.000174854023498483, -0.23216639459133148, 0.01900702342391014, -0.004686356522142887, 0.24494683742523193, 0.16534526646137238, -0.09436951577663422, -0.0070319934748113155, -0.2556401789188385, -0.07154268026351929, 0.21230387687683105, 0.050062403082847595, -0.4195256233215332, 0.1874346137046814, 0.12504804134368896, -0.17225651443004608, 0.30667349696159363, -0.04045442119240761, -0.11820758879184723, -0.12719164788722992, -0.056560780853033066, -0.10340123623609543, 0.2314748466014862, 0.08988478779792786, 0.021334532648324966, 0.2732180953025818, 0.1897880882024765, 0.19837595522403717, 0.24973532557487488, -0.12168090045452118, -0.025732379406690598], [-0.030783871188759804, -0.2169853299856186, -0.1542249321937561, -0.20035336911678314, -0.20048873126506805, -0.19224199652671814, -0.04789593815803528, -0.1192936822772026, -0.1132904589176178, 0.5308303236961365, -0.07915448397397995, 0.23262451589107513, 0.20465904474258423, 0.387114942073822, 0.11401122808456421, 0.011216923594474792, -0.24627768993377686, -0.22392210364341736, -0.10705582052469254, 0.08177221566438675, 0.03949660807847977, 0.45252278447151184, 0.013339170254766941, -0.08872596174478531, 0.3331313729286194, -0.15124458074569702, -0.042938463389873505, 0.027944667264819145, 0.19427712261676788, -0.021539926528930664, -0.044775545597076416, 0.14923763275146484, -0.21769174933433533, 0.03269962593913078, -0.1691875010728836, -0.1982007920742035, 0.13040664792060852, 0.1390022486448288, 0.1616963893175125, -0.08424752950668335, 0.0019080921774730086, -0.1053621768951416, 0.06500590592622757, 0.15710251033306122, -0.05883750692009926, -0.224685400724411, -0.28009912371635437, 0.29467740654945374, -0.10487537831068039, 0.21626995503902435, 0.23741433024406433, 0.02794932946562767, -0.1037401631474495, 0.01292678527534008, -0.26477205753326416, -0.02100813388824463, -0.09988304227590561, -0.09800656139850616, -0.05444137379527092, -0.21577660739421844, -0.06457038968801498, 0.36000609397888184, 0.006841779220849276, -0.0024921889416873455], [0.237932488322258, -0.3200761675834656, -0.3629646897315979, 0.06838716566562653, -0.21081450581550598, 0.17672985792160034, 0.14230002462863922, -0.043687328696250916, 0.17457613348960876, -0.14886337518692017, 0.25824984908103943, 0.41971054673194885, -0.2137230932712555, -0.02233896590769291, -0.0010383628541603684, -0.14530916512012482, -0.24156437814235687, -0.3200553357601166, 0.32939931750297546, -0.13532458245754242, -0.07045061886310577, -0.024952180683612823, 0.22480781376361847, 0.24301250278949738, 0.031418800354003906, 0.21441750228405, 0.082086481153965, -0.04287176951766014, -0.12612265348434448, 0.177262082695961, -0.2292155772447586, 0.01692749559879303, 0.3015410602092743, 0.1219281405210495, -0.17420051991939545, -0.004661224782466888, 0.08142504096031189, -0.029452702030539513, -0.03996796905994415, 0.19548632204532623, 0.09525769203901291, -0.06408726423978806, -0.2460172027349472, 0.09291239082813263, 0.3102337718009949, -0.04459366202354431, -0.00787610188126564, -0.15967798233032227, -0.14905555546283722, -0.19132545590400696, -0.06961393356323242, 0.2524871528148651, -0.2973467707633972, -0.21209090948104858, -0.3132404386997223, 0.004823070950806141, 0.03115352801978588, -0.22496113181114197, -0.04324839636683464, -0.08778303116559982, 0.1253572404384613, 0.146945059299469, 0.17200343310832977, -0.1819380223751068], [-0.11301763355731964, 0.08896265923976898, 0.030076107010245323, -0.08734531700611115, 0.0676850974559784, -0.21207785606384277, -0.05501304939389229, 0.25475478172302246, -0.015196606516838074, 0.043521102517843246, -0.11785416305065155, -0.2276393473148346, -0.3054351806640625, 0.039833929389715195, -0.00695722084492445, 0.002098234836012125, -0.1364484578371048, -0.3260737955570221, 0.17757126688957214, -0.19732725620269775, 0.48804524540901184, 0.17549976706504822, -0.001451238407753408, -0.020379528403282166, -0.07387246936559677, -0.20842698216438293, -0.2766212821006775, 0.3193446695804596, -0.2835173010826111, -0.14443986117839813, 0.18510161340236664, -0.19685260951519012, 0.003085885662585497, -0.01455466914921999, 0.06647928059101105, 0.0513056144118309, -0.1563723087310791, -0.3390023410320282, -0.13653843104839325, -0.07937339693307877, 0.21113523840904236, -0.0251606535166502, 0.2539248764514923, 0.21127192676067352, -0.28335729241371155, 0.12399274110794067, -0.19496019184589386, -0.0016265057493001223, 