{"layers": [{"weights": [[0.4419592022895813, -0.05510536953806877, -0.6802840232849121, -0.1916516274213791, -0.16032975912094116, 0.29593420028686523, 0.3445863723754883, 0.21694570779800415, -0.08718326687812805, -0.07133930921554565, -0.41709041595458984, -0.0963299423456192, 0.3910418152809143, 0.43855202198028564, 0.06560726463794708, 0.06596077233552933, 0.41983774304389954, 0.22238798439502716, -0.6008033752441406], [0.011047780513763428, -0.421625554561615, 0.13230475783348083, -0.3111823797225952, 0.5961945056915283, -0.17189204692840576, -0.3040561079978943, -0.023350626230239868, 0.06806772202253342, 0.43458154797554016, -0.22809934616088867, 0.27711349725723267, -0.17321829497814178, 0.3387819528579712, 0.0637136697769165, -0.23456959426403046, -0.2465236932039261, -0.39159318804740906, -0.23476047813892365], [0.4521632790565491, 0.015866711735725403, -0.12555031478405, 0.17405715584754944, -0.06002381443977356, 0.3440301716327667, 0.3741949200630188, 0.05730385333299637, -0.13373520970344543, -0.38259467482566833, 0.12493802607059479, 0.4979011118412018, 0.06891098618507385, 0.4133913516998291, 0.4101230502128601, 0.102306067943573, -0.1926586627960205, 0.4531523883342743, -0.030377045273780823], [0.3832114338874817, -0.10734429955482483, 0.0336063951253891, -0.1307101547718048, -0.08903758227825165, 0.11416207253932953, 0.3401170074939728, 0.3416392207145691, -0.28063350915908813, 0.37252992391586304, 0.0636269748210907, 0.21205636858940125, -0.45346859097480774, -0.2846468389034271, 0.11040447652339935, -0.006815716624259949, -0.25351452827453613, 0.24324211478233337, 0.10913147032260895], [-0.015819866210222244, -0.17494884133338928, -0.015584699809551239, 0.8008687496185303, 0.1126033365726471, 0.17499136924743652, -0.15979501605033875, -0.006664115935564041, 0.2657483220100403, -0.11602902412414551, 0.19655080139636993, -0.33775264024734497, 0.0927298367023468, -0.4655259847640991, -0.19049912691116333, -0.12862439453601837, -0.06291654706001282, 0.06074880436062813, 0.010887935757637024], [0.46878060698509216, 0.44658204913139343, 0.4800555408000946, -0.014971107244491577, -0.5083624124526978, 0.16039788722991943, -0.2091253399848938, 0.043175846338272095, -0.33731821179389954, -0.29296666383743286, 0.1130002960562706, 0.1636548638343811, -0.1704123616218567, -0.07200663536787033, 0.2787884771823883, -0.3758712410926819, -0.27317315340042114, 0.055432870984077454, -0.3652265667915344], [0.38192301988601685, 0.08301098644733429, 0.6912403106689453, -0.24973753094673157, -0.2509956955909729, -0.30757975578308105, -0.09665100276470184, -0.23571312427520752, 0.39106279611587524, -0.41085296869277954, 0.009159103035926819, 0.21692967414855957, 0.11385349929332733, 0.6124277710914612, 0.5301682949066162, -0.5563625693321228, 0.1428857147693634, 0.1965007185935974, 0.4193326532840729], [0.6458964347839355, 0.1359211653470993, 0.24327905476093292, -0.11919349431991577, -0.011171720921993256, 0.12193713337182999, -0.007677726447582245, 0.06148867681622505, -0.43038010597229004, -0.3920607566833496, 0.28682801127433777, -0.21349450945854187, -0.4549778997898102, -0.3657998740673065, -0.20287445187568665, -0.5024382472038269, 0.3433246910572052, -0.0048703402280807495, -0.2667151391506195], [0.502021312713623, -0.09602274000644684, -0.26396337151527405, -0.09527077525854111, 0.3578616976737976, -0.0007233917713165283, 0.27106669545173645, -0.2272258996963501, -0.13921064138412476, 0.23100736737251282, 0.11990880221128464, 0.05524993687868118, -0.2655916213989258, 0.03206479176878929, 0.12859277427196503, 0.0986490547657013, 0.24864938855171204, -0.14247918128967285, 0.11484993994235992], [-0.09297526627779007, -0.3257247805595398, -0.7791458964347839, -0.02112586423754692, 0.14706659317016602, 0.01296091079711914, -0.13294777274131775, 0.14078059792518616, 0.06136050820350647, 0.4210561215877533, -0.15847690403461456, -0.027751468122005463, -0.6865400075912476, -0.3166936933994293, 0.1772659868001938, -0.0019929856061935425, 0.31953972578048706, -0.02051425166428089, -0.4106082320213318], [0.26203179359436035, 0.035149943083524704, -0.04732963442802429, 0.0357036329805851, -0.33610063791275024, 0.19415247440338135, 0.2745436728000641, -0.15674442052841187, -0.32548627257347107, 0.6315533518791199, 0.20993302762508392, 0.25800621509552, 0.030403176322579384, 0.29498928785324097, -0.24480298161506653, 0.19609445333480835, 0.11444507539272308, -0.25562968850135803, 0.16414469480514526], [-0.4692474901676178, -0.12855611741542816, 0.21233659982681274, -0.6268019676208496, 0.07575506716966629, -0.5397157669067383, -0.5051848888397217, -0.4699467420578003, -0.2626234292984009, -0.19898377358913422, -0.34485116600990295, -0.2347460389137268, -0.13087373971939087, 0.3738626539707184, 0.00016772747039794922, 0.20511338114738464, 0.5809467434883118, 0.2740759551525116, -0.5573467016220093], [-0.16879962384700775, -0.5604504942893982, 0.18833918869495392, 0.283875048160553, -0.19481414556503296, -0.03307633846998215, 0.3920227289199829, -0.04519958794116974, -0.18755772709846497, -0.2090146839618683, -0.585611879825592, -0.2911890149116516, -0.20792905986309052, 0.10661377012729645, -0.24562811851501465, 0.37968096137046814, 0.17145735025405884, -0.17489317059516907, 0.038730308413505554], [0.0448354110121727, 0.056715384125709534, 0.4307189881801605, 0.13362663984298706, -0.14958561956882477, 0.08379901945590973, 0.28928497433662415, -0.2973697781562805, -0.3409275412559509, 0.22259044647216797, -0.4032316207885742, -0.036109596490859985, -0.23124152421951294, 0.3665660619735718, -0.0834837406873703, -0.12406958639621735, 0.45222029089927673, 0.3159812092781067, -0.1425064504146576], [-0.2518743872642517, 0.16644218564033508, 0.6806570291519165, 0.19749248027801514, 0.1588137298822403, -0.3169577717781067, -0.05013153702020645, 0.3868979215621948, 0.00927906483411789, -0.18918001651763916, -0.2885003089904785, -0.4819909930229187, 0.012628413736820221, 0.17715772986412048, 0.33579617738723755, 0.12427899241447449, 0.2399577647447586, -0.0034863725304603577, 0.4845890998840332], [-0.10135287046432495, 0.16992779076099396, -0.34617313742637634, -0.020304448902606964, -0.10195887833833694, -0.28489547967910767, 0.1929183155298233, 0.1333005130290985, 0.45062318444252014, 0.39186176657676697, 0.09602834284305573, 0.6414925456047058, 0.00815097987651825, 0.12043514102697372, -0.2219369262456894, 0.11502055823802948, 0.5355681777000427, 0.1067863330245018, -0.09444395452737808], [0.03826258331537247, -0.008129213005304337, -0.07666828483343124, -0.19017502665519714, -0.21972303092479706, -0.2435976266860962, -0.5452325344085693, -0.29017752408981323, -0.6851099133491516, -0.10874445736408234, -0.2985023558139801, 0.390577107667923, -0.4249729812145233, 0.05671306326985359, 0.16552314162254333, -0.0845898687839508, -0.6758320331573486, 0.08113449066877365, 0.4219913184642792], [-0.1676078736782074, -0.3158552050590515, 0.562306821346283, -0.5980921387672424, 0.07774252444505692, -0.5090526342391968, 0.19332748651504517, -0.21321669220924377, 0.19864319264888763, -0.5454334020614624, 0.08762703835964203, -0.17331737279891968, -0.14506390690803528, -0.07449151575565338, -0.22167088091373444, 0.38938072323799133, 0.21267983317375183, -0.26354923844337463, 0.3205047845840454], [-0.1466287076473236, 0.5509473085403442, -0.29594841599464417, 0.7951809763908386, 0.3476755917072296, 0.12405917048454285, 0.015446344390511513, 0.1540312021970749, -0.6204738616943359, -0.04097971320152283, 0.21551796793937683, 0.3062745928764343, 0.14899800717830658, 0.770992636680603, 0.02438759058713913, -0.19889959692955017, -0.3974355459213257, -0.4913412928581238, -0.13533587753772736], [0.02246054634451866, -0.10711653530597687, -0.27027928829193115, -0.18583893775939941, -0.7673550248146057, -0.25226667523384094, 0.21958759427070618, -0.4488072693347931, 0.23850470781326294, -0.39214110374450684, -0.685370683670044, -0.45496034622192383, 0.11142461001873016, 0.14379388093948364, 0.0018722210079431534, -0.3085334002971649, 0.05661052465438843, 0.4514630436897278, 0.48518508672714233], [-0.13056786358356476, 0.012479390949010849, -0.9846914410591125, -0.4815358519554138, 0.3359428644180298, -0.4551433324813843, -0.37868738174438477, 0.056763842701911926, -0.009526059031486511, 0.12812966108322144, 0.5447805523872375, -0.21544073522090912, 0.30675625801086426, -0.11378711462020874, 0.4070478081703186, -0.27139535546302795, -0.08396149426698685, -0.08200143277645111, -0.420207679271698], [0.1552228033542633, -0.6498141288757324, 0.06040699779987335, -0.13838890194892883, -0.6943415403366089, -0.08022023737430573, 0.10206988453865051, 0.360980749130249, 0.04169372469186783, -0.1477196365594864, -0.5052635073661804, 0.15573687851428986, 0.32349464297294617, -0.058043546974658966, -0.15814968943595886, 0.4326629042625427, -0.38295698165893555, -0.5471588969230652, -0.2708059251308441], [-0.3184823989868164, 0.06927735358476639, 0.0028699636459350586, -0.5845012664794922, 0.10617019236087799, -0.43979328870773315, -0.06332726776599884, -0.42381012439727783, 0.057622674852609634, 0.3850868344306946, 0.0594295859336853, 0.46084269881248474, 0.5271475315093994, -0.01777006685733795, 0.06481418013572693, 0.04055270552635193, -0.5179479122161865, 0.0016530174762010574, -0.049191586673259735], [-0.2198491096496582, 0.5211130380630493, 0.10178043693304062, 0.1245136559009552, 0.3168838322162628, 0.46324220299720764, -0.15876390039920807, 0.24201248586177826, 0.24297602474689484, 0.028648056089878082, -0.3375867009162903, 0.039602141827344894, 0.004481282085180283, 0.8569847345352173, -0.08238048851490021, 0.020535863935947418, -0.25995302200317383, 0.10130225867033005, -0.09367948025465012], [0.025780878961086273, 0.4139900803565979, -0.285927414894104, 0.053713276982307434, 0.016253523528575897, -0.35060301423072815, -0.3528502583503723, -0.3729105293750763, 0.2976602017879486, 0.37556713819503784, 0.00022152066230773926, -0.29276129603385925, 0.2687203288078308, 0.17101293802261353, -0.009715978056192398, 0.012820042669773102, 0.37220337986946106, -0.39451533555984497, -0.48596858978271484], [-0.1274566799402237, -0.14197313785552979, 0.48197856545448303, -0.023412153124809265, 0.6964282989501953, -0.2906329929828644, -0.7830852270126343, -0.31249967217445374, -0.0852045938372612, -0.5899575352668762, 0.8968244791030884, -0.6173650026321411, 0.4444200396537781, 0.25398004055023193, -0.14216618239879608, -0.07358603924512863, 0.4436086416244507, 0.14553599059581757, -0.20414531230926514], [0.18635204434394836, 0.1873820722103119, -0.16778768599033356, 0.4755460023880005, 0.23625898361206055, -0.06614270806312561, -0.38716524839401245, 0.28287461400032043, -0.34878697991371155, 0.23691631853580475, 0.05140440911054611, 0.13746759295463562, 0.3032638430595398, -0.057270605117082596, -0.18366378545761108, -0.43350908160209656, -0.39876630902290344, -0.267772376537323, 0.26969659328460693], [0.40978360176086426, -0.05499855801463127, 0.2622745633125305, 0.12377390265464783, 0.31969237327575684, -0.13095760345458984, -0.13329839706420898, -0.10140908509492874, 0.05946733057498932, -0.508172869682312, -0.3415268063545227, -0.5445065498352051, 0.02440793439745903, 0.04720604419708252, -0.4002881944179535, -0.011548992246389389, -0.3680931329727173, -0.13466867804527283, -0.14556735754013062], [0.14087004959583282, -0.5374995470046997, -0.2780172824859619, -0.2215864360332489, 0.21792329847812653, 0.13279041647911072, -0.18910980224609375, 0.009662356227636337, 0.3485226333141327, 0.32801270484924316, 0.41862016916275024, 0.07079413533210754, 0.04189130291342735, -0.27071693539619446, -0.20025214552879333, 0.7879164218902588, 0.08650432527065277, -0.11459413170814514, 0.31084972620010376], [0.520471453666687, 0.4029008746147156, -0.057961899787187576, 0.09030964970588684, -0.19968090951442719, -0.4087994396686554, 0.03766117990016937, 0.40505990386009216, 0.5618236064910889, -0.1733904629945755, 0.6293045282363892, 1.0579451322555542, -0.3911271095275879, 0.3977620601654053, -0.2787395417690277, 0.033090703189373016, -0.7014021277427673, -0.07121744751930237, 0.4006788730621338], [0.2537253797054291, -0.08647885918617249, 0.4727485775947571, -0.6745350360870361, 0.19273674488067627, -0.21376389265060425, 0.26771578192710876, 0.1816447526216507, 0.6338884830474854, 0.22499381005764008, 0.1900336742401123, 0.3816247284412384, -0.016147591173648834, 0.04443211108446121, -0.3926219940185547, -0.5304841995239258, 0.5360385179519653, -0.08712831139564514, 0.5882622599601746], [0.666221022605896, -0.11501416563987732, -0.015011429786682129, -0.02658633142709732, -0.6600781083106995, 0.3044663369655609, 0.07320336997509003, -0.27942222356796265, 0.5453165769577026, -0.08353468030691147, 0.014017641544342041, -0.026094768196344376, -0.2706885039806366, -0.2544320523738861, 0.22610795497894287, -0.2542041838169098, -0.08368168771266937, 0.3552763760089874, 0.11684944480657578], [0.1300603747367859, 0.4403918981552124, -0.1653362661600113, -0.48215776681900024, -0.593348503112793, -0.10019635409116745, 0.07351075857877731, -0.019342802464962006, 0.1333463340997696, -0.15107005834579468, 0.46151620149612427, -0.3268950581550598, -0.4271528720855713, 0.1874895691871643, 0.16823552548885345, -0.11771919578313828, 0.6645395755767822, -0.4377182424068451, -0.1767842173576355], [-0.696533739566803, -0.1393415629863739, 0.20430895686149597, -0.24757219851016998, -0.2269415706396103, 0.05942043662071228, -0.3212718963623047, -0.20013704895973206, -0.05035215616226196, 0.3807486891746521, -0.05245145037770271, 0.07047856599092484, 0.3067713677883148, -0.16035005450248718, -0.136327862739563, -0.5178643465042114, -0.19822128117084503, 0.0010785683989524841, -0.36602890491485596], [-0.46669355034828186, 0.2441495656967163, -0.5223288536071777, -0.4289199709892273, -0.3006713390350342, -0.22928763926029205, 0.49645331501960754, 0.06906323879957199, 0.07252363860607147, -0.5378480553627014, 0.5651634931564331, 0.25911593437194824, -0.253102570772171, 0.1782822608947754, 0.1647695153951645, 0.41831114888191223, 0.09625007212162018, 0.21388080716133118, 0.15512926876544952], [0.2576780915260315, 0.810712456703186, 0.09147670865058899, -0.03316552937030792, -0.3904418647289276, 0.13284070789813995, 0.28378140926361084, -0.12921646237373352, 0.27564120292663574, 0.05766216292977333, -0.0070790499448776245, 0.48771578073501587, 0.005266085267066956, 0.0632602721452713, 0.4615532159805298, -0.3372417092323303, -0.1702532023191452, -0.3144341707229614, -0.24108704924583435], [0.15705063939094543, -0.0802440345287323, 0.37558722496032715, -0.2790975868701935, 0.7649872303009033, 0.05536983162164688, -0.1155095100402832, 0.09242866188287735, -0.31545305252075195, -0.34833458065986633, -0.2975248396396637, -0.24011678993701935, -0.16860796511173248, 0.23431959748268127, 0.27902933955192566, -0.04200814664363861, 0.4794081747531891, -0.25141578912734985, -0.43632376194000244], [-0.08917542546987534, 0.23114058375358582, 0.1715315282344818, 0.4034881591796875, 0.2232016623020172, 0.04251987114548683, -0.28825610876083374, 0.03127143159508705, -0.09361051768064499, -0.04062029719352722, 0.03156255930662155, -0.07935528457164764, 0.44945967197418213, 0.06098321080207825, -0.0888509601354599, 0.11419400572776794, -0.6739267110824585, -0.5863651037216187, -0.1640869677066803], [0.29510223865509033, 0.29206159710884094, 0.0004949746653437614, 0.5037078857421875, 0.5009347200393677, 0.19099664688110352, -0.34547051787376404, -0.006210798397660255, 0.3401433825492859, -0.43890586495399475, -0.41146427392959595, -0.21504612267017365, -0.391386479139328, -0.022023148834705353, 0.6301305294036865, -0.23724892735481262, 0.07251223176717758, -0.36257582902908325, 0.07359017431735992], [-0.004532519727945328, 0.8908252120018005, 0.018787093460559845, -0.042810529470443726, -0.32933467626571655, -0.09079398214817047, -0.2778126895427704, 0.08735291659832001, -0.15686529874801636, 0.18730588257312775, -0.038513943552970886, -0.01681401953101158, -0.05142392963171005, -0.46527791023254395, -0.3660930395126343, -0.2664501667022705, 0.0890921801328659, 0.24826876819133759, 0.15050679445266724], [0.12802596390247345, -0.2541123926639557, -0.3769170939922333, 0.2788507640361786, 0.13140003383159637, -0.2563536763191223, 0.1256003975868225, 0.17854952812194824, -0.3893980085849762, 0.44615256786346436, 0.5657925605773926, 0.18100152909755707, 0.09548568725585938, 0.0019590556621551514, 0.3574008643627167, -0.2888423800468445, -0.3831302225589752, -0.2253372222185135, 0.36137890815734863], [-0.11727088689804077, -0.3732772171497345, -0.24448755383491516, 0.5848480463027954, 0.1598617434501648, 0.09471284598112106, 0.13208197057247162, 0.2601698637008667, -0.37623822689056396, 0.1423058956861496, -0.033940963447093964, -1.1217762231826782, 0.09075761586427689, 0.16726240515708923, -0.4301578104496002, 0.21094544231891632, 0.27795538306236267, -0.4398517310619354, -0.09449225664138794], [-0.0803695023059845, -0.14129887521266937, 0.014030233025550842, 0.2627670168876648, -0.22502923011779785, -0.16082584857940674, 0.09519366174936295, -0.23312796652317047, -0.3793146014213562, -0.37271854281425476, -0.10257205367088318, 0.10560126602649689, 0.11030276119709015, -0.17345987260341644, 0.33928054571151733, -0.8443309664726257, -0.252778559923172, -0.07664068788290024, 0.6029771566390991], [-0.3627859055995941, 0.19393675029277802, 0.14781762659549713, 0.4736243486404419, 0.07492376863956451, -0.2942880094051361, 0.4316234588623047, 0.39412128925323486, 0.21646380424499512, -0.2705674469470978, 0.11142853647470474, 0.6415935754776001, -0.17642541229724884, 0.27414634823799133, -0.0034709125757217407, 0.18959367275238037, 0.20728686451911926, -0.5164744257926941, 0.1627069115638733], [-0.026927674189209938, -0.41706305742263794, 0.17946314811706543, -0.6822824478149414, 0.5588348507881165, -0.437710165977478, 0.522738516330719, -0.32602643966674805, 0.05440714210271835, -0.2098732739686966, -0.07300397008657455, 0.002132706344127655, -0.18629243969917297, 0.042864177376031876, 0.20268377661705017, -0.002255752682685852, 0.030704088509082794, 0.6517037749290466, -0.3714558482170105], [0.2957434356212616, -0.20026898384094238, -0.414429247379303, -0.27086755633354187, 0.015064079314470291, 0.19560755789279938, -0.16537711024284363, 0.10053374618291855, 0.15592965483665466, 0.2013757824897766, 0.42717570066452026, 0.4662140905857086, -0.4793989956378937, 0.12257011234760284, -0.3308415114879608, 0.6230177879333496, 0.13859209418296814, 0.11107340455055237, -0.07325838506221771], [0.348224014043808, 0.5224535465240479, 0.34291741251945496, 0.027558188885450363, 0.4813576340675354, 0.3795359432697296, -0.11999654769897461, -0.16016201674938202, -0.42046964168548584, 0.2715449929237366, 0.2537585198879242, -0.06829263269901276, -0.8874317407608032, 0.35170483589172363, -0.011245884001255035, -0.09632725268602371, -0.20847536623477936, -0.060358140617609024, 0.46742814779281616], [0.023749087005853653, 0.3066909909248352, 0.08535316586494446, 0.14898306131362915, 0.4666672348976135, 0.4505126178264618, 0.03885618597269058, 0.23247554898262024, 0.15041519701480865, -0.0015052519738674164, -0.20627155900001526, -0.12622037529945374, -0.3183968663215637, 0.22886154055595398, -0.15493682026863098, 0.3477657735347748, 0.1475086212158203, 0.06478630006313324, 0.07021711766719818], [0.35878244042396545, 0.13200128078460693, -0.593910813331604, 0.3427407741546631, -0.0921802669763565, 0.6415033936500549, 0.07802672684192657, -0.3706194758415222, -0.000690605491399765, 0.2558685839176178, 0.25660625100135803, 0.3086402416229248, -0.035952307283878326, -0.5393967032432556, 0.47767144441604614, 0.6311625242233276, 0.31848037242889404, 0.4763815701007843, -0.1915200650691986], [-0.18335092067718506, 0.33421745896339417, -0.17938679456710815, 0.2229318916797638, 0.5306639075279236, 0.3994806110858917, -0.05005216598510742, -0.21432067453861237, 0.40262648463249207, -0.11254183202981949, -0.3171875476837158, -0.08243917673826218, 0.20768140256404877, 0.3652842342853546, -0.18026301264762878, 0.08002178370952606, 0.4952102303504944, 0.12715239822864532, -0.2314181923866272], [-0.21050019562244415, -0.07386132329702377, -0.9082711935043335, 0.2949584424495697, 0.12652406096458435, 0.41004079580307007, -0.49134981632232666, 0.21803012490272522, 0.46972420811653137, 0.08726830780506134, -0.43852341175079346, 0.01145268976688385, 0.25750109553337097, 0.21818554401397705, -0.35863369703292847, -0.5854105353355408, 0.3543560802936554, -0.22401131689548492, 0.3344331681728363], [0.21394243836402893, -0.19547978043556213, -0.1882055550813675, -0.26845505833625793, 0.2977101504802704, 0.15329065918922424, -0.07945874333381653, -0.18108518421649933, 0.15100854635238647, 0.05397191643714905, -0.7168685793876648, 0.17346341907978058, 0.18795014917850494, 0.004486948251724243, 0.37958377599716187, 0.24037498235702515, 0.31465911865234375, -0.0750969648361206, -0.38420891761779785], [-0.5828322172164917, 0.26545560359954834, 0.24444860219955444, -0.40110528469085693, 0.17420434951782227, -0.4051688313484192, 0.2833246886730194, 0.2618934214115143, -0.47786739468574524, 0.02226947247982025, 0.0008700303733348846, -0.051057569682598114, -0.5245070457458496, -0.3792054057121277, 0.5270946025848389, 0.6652122735977173, -0.25519439578056335, 0.48167723417282104, 0.26388049125671387], [0.17665334045886993, 0.15308165550231934, -0.062164951115846634, -0.4711931645870209, 0.48340070247650146, -0.000529944896697998, 0.639062762260437, -0.09112243354320526, -0.24980780482292175, 0.18561191856861115, -0.32484278082847595, 0.5112161636352539, -0.10747568309307098, -0.20694036781787872, 0.07013767957687378, -0.3904569745063782, 0.11065256595611572, 0.7519019246101379, -0.04428303241729736], [0.2502672076225281, 0.0014859437942504883, -0.42757946252822876, -0.1951577216386795, 0.11552360653877258, 0.7032217383384705, 0.011777833104133606, 0.2613765001296997, 0.5156216025352478, 0.2942502796649933, -0.29220202565193176, 0.5734527707099915, -0.45234280824661255, -0.23246794939041138, 0.37441349029541016, -0.09127306938171387, 0.14017455279827118, -0.040063828229904175, 0.17229348421096802], [-0.07969669997692108, -0.3120560944080353, -0.00753244012594223, -0.4629119038581848, 0.16641464829444885, -0.618760347366333, 0.37586355209350586, 0.08014589548110962, -0.2179071307182312, 0.5910983085632324, 1.003283977508545, -0.08562581241130829, -0.06334491074085236, -0.6281147003173828, -0.3467879295349121, 0.5545624494552612, 0.007448568940162659, 0.4473048746585846, -0.04815971851348877], [-0.06295819580554962, -0.1046861782670021, 0.22299917042255402, 0.4303707182407379, 0.007852811366319656, -0.2514514625072479, 0.09790778160095215, -0.03074701875448227, 0.2439296394586563, 0.14531399309635162, 0.2686440944671631, 0.22231343388557434, -0.4413619041442871, 0.12506568431854248, -0.8656670451164246, -0.4218941926956177, -0.36372941732406616, -0.7100633382797241, -0.15960553288459778], [0.27184757590293884, 0.17169542610645294, -0.019873522222042084, 0.30073028802871704, 0.14230942726135254, 0.13951228559017181, 0.013491963967680931, -0.015607751905918121, -0.4302842915058136, 0.03316175937652588, -0.30378639698028564, 0.4387754499912262, 0.3851221799850464, -0.0853690505027771, 0.19763436913490295, 0.05172933638095856, 0.24984897673130035, -0.1481252759695053, 0.12758442759513855], [0.2795242667198181, 0.07186868786811829, 0.26905491948127747, 0.44649145007133484, 0.17304754257202148, 0.4859957695007324, 0.44066038727760315, 0.07270696759223938, 0.13750259578227997, 0.3819469213485718, -0.19876062870025635, 0.0856202244758606, -0.3919307589530945, 0.46008843183517456, -0.191714808344841, 0.034213513135910034, 0.5032796263694763, -0.35130012035369873, 0.16172870993614197], [-0.17426037788391113, 0.19866904616355896, 0.15001893043518066, 0.2099103182554245, 0.03587637096643448, 0.11915930360555649, 0.38830041885375977, 0.29177945852279663, -0.15907970070838928, 0.25291645526885986, -0.029703112319111824, -0.03989407420158386, 0.1963776797056198, -0.10900607705116272, 0.13605622947216034, -0.37767717242240906, -0.2484375536441803, -0.11381220072507858, 0.2853781580924988], [0.3542335033416748, -0.1204211413860321, 0.07120872288942337, 0.5213732123374939, -0.10735102742910385, 0.23197558522224426, 0.331225723028183, 0.7113397121429443, 0.20663917064666748, 0.04947071149945259, -0.390504390001297, 0.12465817481279373, 0.10196498036384583, -0.3432192802429199, 0.41420280933380127, -0.002775050699710846, -0.18500804901123047, -0.037251755595207214, -0.12054941058158875], [-0.08554690331220627, -0.48518800735473633, -0.04918582737445831, 0.47306057810783386, 0.5714079141616821, 0.030139826238155365, 0.26979079842567444, -0.5876843929290771, 0.01263487059623003, -0.5549940466880798, 0.4526442289352417, 0.05691416561603546, -0.14862358570098877, -0.008318141102790833, -0.07901469618082047, 0.5842403769493103, -0.42679643630981445, 0.3205522298812866, 0.18796879053115845], [-0.43240925669670105, 0.4256097078323364, -0.4811745584011078, 0.35228705406188965, -0.022280968725681305, 0.08971334993839264, -0.4389747977256775, -0.10048900544643402, 0.38101035356521606, 0.09786111116409302, -0.3241122364997864, -0.055816859006881714, 0.09597250819206238, 0.5989571213722229, 0.2674703299999237, 0.32120758295059204, -0.5080494284629822, -0.11110769957304001, -0.16273969411849976], [-0.06681854277849197, 0.344710111618042, 0.345376193523407, 0.05100201070308685, -0.16608750820159912, 0.339881956577301, 0.06649379432201385, -0.19959503412246704, 0.03430277854204178, -0.0765688568353653, 0.40146082639694214, 0.5355914831161499, 0.48258161544799805, 0.4264930486679077, -0.013155512511730194, 0.35098984837532043, 0.17103102803230286, -0.006080135703086853, 0.21355918049812317]], "biases": [-0.47109735012054443, 0.4643968939781189, 0.019220516085624695, -0.011473830789327621, -0.04515764117240906, -0.3928185999393463, -0.0797349065542221, 0.056261032819747925, -0.14610087871551514, -0.5849136710166931, 0.7453502416610718, 0.6022810935974121, -0.20535629987716675, -0.3179965615272522, 0.3953981399536133, 0.3994045853614807, -0.1271456480026245, -0.08213397860527039, -0.03425963968038559, 0.30796724557876587, 0.47031980752944946, 0.09915958344936371, -0.26910826563835144, -0.12531325221061707, -0.020737573504447937, -0.24251729249954224, 0.7784247994422913, -0.03616989403963089, -0.25287574529647827, 0.10349398106336594, -0.3272869288921356, 0.015009835362434387, -0.33750206232070923, 0.17752262949943542, 0.13204121589660645, 0.29505711793899536, 0.5763972997665405, 0.24656237661838531, -0.08991245925426483, 0.1987326443195343, 0.3124808371067047, 0.21167251467704773, 0.06030890718102455, -0.18391335010528564, 0.6343587040901184, 0.0395689532160759, 0.31019848585128784, -0.5021265745162964, 0.3012683689594269, -0.4016163945198059, -0.29681527614593506, -0.09404219686985016, 0.054698098450899124, -0.1841871589422226, -0.43739137053489685, 0.2646833062171936, -0.2704034447669983, -0.18529151380062103, -0.3934842646121979, -0.31329619884490967, 0.2772659361362457, -0.27506569027900696, -0.43029144406318665, -0.1341591328382492], "activation": "relu"}, {"weights": [[-0.17691339552402496, 0.112032949924469, 0.2325708270072937, -0.11352787166833878, -0.47875750064849854, 0.12070295214653015, 0.2886390686035156, -0.28659501671791077, 0.1086251437664032, -0.14089258015155792, -0.248611181974411, -0.2732652425765991, -0.6195368766784668, 0.041876524686813354, -0.09812800586223602, -0.4320184588432312, 0.09441942721605301, -0.18431486189365387, 0.3034365177154541, -0.8077348470687866, 0.42336946725845337, -0.0722469761967659, -0.43052446842193604, -0.18037772178649902, 0.539951741695404, 0.2927401661872864, -0.22971341013908386, -0.25723543763160706, 0.32876458764076233, 0.11162516474723816, 0.04667292535305023, 0.5118638873100281, -0.45568525791168213, 0.018930211663246155, -0.2520587742328644, 0.19198164343833923, 0.08332689106464386, 0.42010048031806946, -0.043617621064186096, 0.16063691675662994, 0.38145697116851807, 0.1150430217385292, 0.25679853558540344, 0.2613289952278137, 0.5896573066711426, 0.7603708505630493, 0.2696561813354492, 0.42039257287979126, 0.10546163469552994, 0.15090475976467133, -0.48632729053497314, 0.3086852729320526, -0.020416345447301865, 0.03729704022407532, 0.331673264503479, 0.2522585093975067, -0.23760086297988892, 0.03591650724411011, -0.026310795918107033, 0.31720855832099915, -0.07474955171346664, 0.26146388053894043, 0.09245295822620392, 0.30051887035369873], [-0.16730092465877533, -0.30739685893058777, 0.7015581727027893, -0.4072521924972534, 0.17266447842121124, 0.5676627159118652, -0.25626346468925476, 0.4606586694717407, -0.29773998260498047, -0.03838101774454117, -0.07569237053394318, -0.24455903470516205, -0.4551237225532532, -0.011699605733156204, 0.1226603165268898, -0.6353166699409485, 0.34464678168296814, -0.12650111317634583, 0.1155010536313057, -0.3388192653656006, -0.04624377191066742, 0.3107677698135376, 0.009844139218330383, 0.046628132462501526, 0.259745329618454, 0.09227320551872253, 0.41146621108055115, 0.09347306191921234, -0.23261548578739166, -0.1698068380355835, -0.3920939862728119, -0.057734277099370956, -0.22942283749580383, -0.10822407156229019, 0.13066858053207397, -0.16745395958423615, 0.17317357659339905, -0.3613973557949066, -0.37872326374053955, 0.015490397810935974, -0.06845274567604065, 0.27076995372772217, 0.05312296003103256, 0.05687962472438812, 0.6069005131721497, -0.007731714751571417, -0.7839216589927673, 0.11012822389602661, -0.2914489507675171, 0.3406943380832672, 0.053876690566539764, -0.7835138440132141, 0.07785582542419434, 0.6897202134132385, 0.03672992065548897, -0.08908352255821228, 0.21682707965373993, -0.22326242923736572, 0.08714122325181961, 0.3529052436351776, 0.07937850058078766, 0.18095558881759644, -0.6241422295570374, 0.09158486127853394], [0.11381551623344421, 0.022357478737831116, -0.46013709902763367, -0.026515919715166092, -0.09109668433666229, -0.43875229358673096, 0.38060420751571655, 0.29325395822525024, -0.25514429807662964, 0.34582653641700745, 0.42570576071739197, 0.34809499979019165, -0.009215053170919418, 0.3286973237991333, -0.2895115911960602, 0.4282532334327698, 0.5060258507728577, 0.15870998799800873, 0.10500592738389969, 0.42522889375686646, 0.42049193382263184, -0.21202082931995392, -0.37606918811798096, 0.17901037633419037, -0.10649710893630981, 0.22188997268676758, -0.20670819282531738, -0.0797249972820282, 0.39748072624206543, -0.09233787655830383, -0.4423326551914215, 0.1466694474220276, -0.007461130619049072, 0.10911302268505096, -0.6550999879837036, 0.4468507468700409, -0.08283731341362, -0.37047576904296875, -0.19593936204910278, 0.02697610855102539, 0.14456282556056976, -0.3545515239238739, -0.21018889546394348, -0.036829814314842224, -0.0308806374669075, -0.3538576662540436, -0.21177877485752106, -0.16442851722240448, -0.219711571931839, 0.25059428811073303, 0.11304470896720886, -0.29652148485183716, -0.49949830770492554, -0.06752987205982208, -0.023741818964481354, 0.4451761543750763, 0.44705188274383545, 0.3332482576370239, -0.3790312707424164, -0.25300198793411255, -0.11998682469129562, -0.17397986352443695, 0.22065486013889313, 0.21301528811454773], [0.8477008938789368, 0.09062029421329498, 0.6846803426742554, 0.4072372019290924, -0.09278011322021484, -0.45009467005729675, -0.023197533562779427, 0.11509695649147034, -0.022057194262742996, 0.1391519159078598, -0.1982356309890747, 0.1303539276123047, 0.6572448015213013, -0.05891243368387222, 0.32180413603782654, 0.18783968687057495, 0.47259247303009033, 0.024820826947689056, 0.06852598488330841, -0.44167155027389526, -0.09948808699846268, -0.0814867615699768, -0.15910190343856812, 0.2672038674354553, -0.09439730644226074, 0.5326728820800781, 0.016735605895519257, 0.08099209517240524, -0.20019438862800598, -0.2091953307390213, -0.16421474516391754, -0.2059507966041565, 0.4482741057872772, -0.07599712908267975, 0.5239402055740356, -0.12416078895330429, -0.35210949182510376, 0.0658101886510849, 0.13356412947177887, 0.26976287364959717, -0.05737161263823509, -0.2662655711174011, 0.21893703937530518, -0.24437060952186584, -0.09663549810647964, -0.4034166932106018, -0.3431735634803772, 0.14526690542697906, -0.07806573808193207, -0.007849186658859253, 0.44912439584732056, 0.7537345290184021, -0.02846733294427395, -0.0422348752617836, 0.1856403350830078, -0.08228148519992828, -0.11153103411197662, 0.15195921063423157, -0.041665781289339066, -0.04636869207024574, 0.27663543820381165, -0.07020136713981628, 0.2771450877189636, 0.06068915128707886], [0.07564933598041534, -0.3406071066856384, -0.37404513359069824, 0.2290455549955368, -0.12885601818561554, -0.4404742419719696, 0.19641052186489105, 0.1781555712223053, -0.47063878178596497, 0.14123386144638062, 0.13067302107810974, -0.31157195568084717, -0.21944266557693481, 0.7927529215812683, 0.16525694727897644, -0.1418965458869934, -0.012288421392440796, -0.21311941742897034, -0.10852071642875671, -0.16859403252601624, 0.20207634568214417, -0.06935978680849075, -0.32460352778434753, 0.1012614369392395, -0.3541296720504761, -0.23969370126724243, 0.022804483771324158, -0.08000241219997406, 0.3311186134815216, 0.4791470170021057, -0.15564148128032684, -0.08383810520172119, -0.20159496366977692, -0.2662171721458435, -0.8263442516326904, 0.04583930969238281, -0.2475651055574417, -0.13549111783504486, -0.03287731856107712, 0.06911948323249817, -0.2565036416053772, -0.14964339137077332, -0.5030028223991394, -0.3776927590370178, 0.17773766815662384, -0.41103506088256836, -0.18582549691200256, -0.15911135077476501, -0.26813870668411255, 0.040570951998233795, 0.1505301594734192, 0.016451366245746613, -0.68861985206604, 0.10718517005443573, 0.07144187390804291, 0.0471235066652298, 0.1590246558189392, 0.6071165800094604, 0.18166372179985046, 0.18715843558311462, -0.02006259560585022, 0.06444352865219116, -0.09355171024799347, 0.477530300617218], [0.21322393417358398, -0.009745452553033829, -0.37293902039527893, -0.11271160840988159, -0.003497995436191559, 0.32027631998062134, 0.3009687662124634, -0.02725130319595337, -0.5980626940727234, 0.4814564287662506, -0.12453263998031616, -0.20347534120082855, 0.4229119122028351, -0.07269653677940369, 0.24930500984191895, -0.42864400148391724, -0.14005118608474731, 0.39951932430267334, -0.48673707246780396, -0.0037436187267303467, 0.1855761706829071, -0.6209326982498169, 0.168068990111351, -0.10908576101064682, 0.007652257569134235, 0.04824858903884888, -0.09897130727767944, 0.06750981509685516, -0.6496296525001526, -0.6801412105560303, -0.1450950652360916, -0.1859070062637329, 0.14734762907028198, 0.085042305290699, 0.5677794218063354, 0.6946508884429932, -0.010125309228897095, -0.19977198541164398, 0.24242721498012543, -0.2109370231628418, 0.6228176355361938, 0.025749381631612778, -0.26444011926651, -0.5609835982322693, 0.1718357503414154, 0.14573073387145996, -0.30295246839523315, -0.4133628010749817, -0.053690746426582336, 1.148324728012085, -0.1584208607673645, 0.3309691846370697, 0.20488886535167694, -0.40019410848617554, -0.0013972558081150055, -0.5534838438034058, 0.0695696547627449, 0.23456105589866638, 0.2834314703941345, 0.0054423511028289795, -0.20725694298744202, -0.16470514237880707, 0.2151734083890915, -0.20371153950691223], [-0.6719803810119629, -0.47645658254623413, 0.02644231915473938, 0.15439105033874512, -0.03791674226522446, 0.3039059042930603, -0.3736979365348816, 0.10761497914791107, -0.1879870891571045, -0.07102476060390472, -0.2681131362915039, 0.45584607124328613, -0.3439179062843323, -0.22031033039093018, -0.14261162281036377, -0.04653496295213699, 0.06548578292131424, 0.21765580773353577, 0.4382266104221344, -0.017318129539489746, -0.3043961822986603, 0.13689950108528137, -0.45657721161842346, 0.29258987307548523, 0.6875448822975159, -0.16928113996982574, 0.6118099093437195, 0.14859850704669952, -0.40907081961631775, 0.4688250422477722, -0.14476023614406586, 0.0957554280757904, 0.1055450364947319, -0.6781198382377625, 0.19686231017112732, -0.22541126608848572, 0.0068582165986299515, -0.0033291950821876526, -0.07450146228075027, 0.02462192066013813, -0.23031124472618103, -0.3420107364654541, 0.3775634467601776, -0.009151726961135864, -0.2742541432380676, -0.4613732397556305, 0.3932012915611267, 0.16391587257385254, 0.11575736850500107, 0.22274747490882874, 0.13436591625213623, 0.14622238278388977, 0.13086920976638794, -0.013450801372528076, -0.31246912479400635, 0.4226450026035309, -0.2429049015045166, -0.4189092516899109, -0.059156328439712524, -0.03142671659588814, 0.5161747336387634, -0.04460522532463074, -0.25240904092788696, 0.0026877708733081818], [-0.426033079624176, 0.046776145696640015, 0.3902948498725891, -0.6747675538063049, 0.08579009026288986, 0.1727089285850525, -0.06807564944028854, 0.3331928849220276, -0.37191450595855713, -0.2406536489725113, -0.6104704737663269, -0.29419535398483276, 0.29476338624954224, 0.1398172378540039, -0.460430383682251, -0.18065036833286285, -0.04776103049516678, 0.35361143946647644, -0.3287830352783203, 0.1771489977836609, 0.48905593156814575, -0.08872342109680176, 0.02719247341156006, 0.04157726839184761, 0.4983207583427429, 0.293957382440567, -0.06751558184623718, 0.1515461504459381, -0.04390104115009308, -0.2424914538860321, 0.13253529369831085, -0.18300989270210266, -0.30503714084625244, -0.777229905128479, -0.28678977489471436, 0.00908045656979084, -0.22704380750656128, -0.5104296207427979, -0.38134074211120605, 0.062320105731487274, 0.2521762251853943, 0.14656955003738403, -0.0929071456193924, 0.18555262684822083, -0.46620428562164307, 0.2721325755119324, 0.11788133531808853, -0.04157943278551102, -0.347520112991333, 0.07827913761138916, 0.35769617557525635, 0.233280211687088, -0.3549484610557556, 0.2428445816040039, -0.5879630446434021, -0.23346185684204102, -0.15714217722415924, 0.049495309591293335, -0.34313225746154785, -0.33570700883865356, -0.40273746848106384, -0.12094291299581528, 0.05728748440742493, -0.16227112710475922], [-0.09134579449892044, 0.05709349736571312, -0.15301334857940674, 0.11134503781795502, 0.21615450084209442, 0.3487946391105652, 0.4231478273868561, 0.07693269848823547, -0.3191610276699066, -0.07320722192525864, -0.1296282559633255, 0.2818959653377533, -0.21991288661956787, -0.6638348698616028, 0.14195266366004944, -0.31565552949905396, 0.6157143115997314, 0.10299193859100342, -0.29416677355766296, -0.17965014278888702, -0.1315973699092865, 0.1963244378566742, 0.27654704451560974, 0.1941557228565216, 0.4496738314628601, 0.5841525197029114, -0.08279570192098618, 0.13822497427463531, 0.2068239450454712, -0.04923512041568756, 0.2626122534275055, 0.2639338970184326, -0.21403545141220093, 0.27494141459465027, 0.020690083503723145, -0.41596361994743347, -0.03479707986116409, 0.970598042011261, 0.35300520062446594, -0.4045235514640808, -0.07119231671094894, 0.3447348475456238, 0.00012850388884544373, -0.392433226108551, 0.47611716389656067, -0.07514209300279617, -0.180348739027977, -0.3186933994293213, 0.23647548258304596, -0.4239156246185303, 0.1207626461982727, 0.25000184774398804, 0.2705381512641907, -0.19584345817565918, -0.011324316263198853, 0.3318004608154297, 0.12866544723510742, -0.4221916198730469, -0.04831232130527496, 0.32769259810447693, 0.05660726875066757, 0.030894219875335693, 0.07916688919067383, 0.48766130208969116], [0.01344342716038227, 0.32777664065361023, 0.19242992997169495, -0.4789242744445801, -0.026443228125572205, 0.30337217450141907, 0.10675591230392456, 0.12573547661304474, -0.16808158159255981, -0.5005896091461182, -0.27962005138397217, 0.1408281922340393, 0.0668858140707016, -0.2851613163948059, 0.04035884141921997, -0.0754619687795639, 0.017190568149089813, 0.1695404052734375, -0.026498666033148766, -0.1893918365240097, 0.46781623363494873, -0.04296507313847542, -0.1400250792503357, -0.2969297766685486, -0.1472587138414383, 0.14259427785873413, 0.06188378483057022, 0.45333555340766907, 0.29816704988479614, 0.12152642756700516, -0.09374085068702698, -0.06259642541408539, 0.006874777376651764, -0.20131966471672058, 0.503311276435852, -0.07068613916635513, 0.6385706663131714, -0.14980748295783997, -0.1378498673439026, 0.3293991684913635, 0.16499727964401245, -0.0790727362036705, 0.1684999018907547, 0.5299457311630249, -0.0998259037733078, 0.1551753431558609, -0.20746441185474396, -0.1081184446811676, 0.21478891372680664, 0.41341397166252136, -0.5335299372673035, -0.008393896743655205, 0.01708141341805458, -0.44533848762512207, -0.22059844434261322, 0.21024692058563232, -0.189691424369812, -0.6978368759155273, 0.36324983835220337, 0.26285263895988464, 0.02225208282470703, -0.32699844241142273, -0.13641782104969025, -0.30622386932373047], [0.012145236134529114, 0.18469277024269104, -0.1928347647190094, -0.104119211435318, 0.1539016216993332, -0.35467052459716797, 0.10993298888206482, 0.17904365062713623, 0.49604326486587524, -0.6812636852264404, 0.120128333568573, 0.28951823711395264, 0.28026703000068665, -0.027625421062111855, -0.29064464569091797, 0.07353625446557999, 0.06118325889110565, -0.5645048022270203, -0.09366673976182938, -0.18560919165611267, -0.29656365513801575, 0.06899820268154144, -0.19827832281589508, -0.129832923412323, -0.05935056135058403, -0.04982855170965195, -0.20132523775100708, 0.001418769359588623, -0.2870091497898102, -0.10367055982351303, -0.03159734606742859, 0.2787582576274872, -0.4448862075805664, 0.13060927391052246, 0.4036882519721985, -0.4981287121772766, 0.02820475772023201, -0.20733225345611572, -0.46373486518859863, -0.48225343227386475, 0.40846163034439087, -0.42927858233451843, 0.3554760813713074, -0.06405386328697205, 0.30352210998535156, -0.33658018708229065, -0.35201406478881836, -0.3046795725822449, 0.0852007269859314, -0.47908085584640503, -0.21016426384449005, 0.14545077085494995, 0.008181795477867126, -0.4192674160003662, -0.23702947795391083, -0.39109882712364197, -0.12143856287002563, -0.037260111421346664, -0.24421444535255432, -0.03194821625947952, 0.04153727740049362, 0.27036598324775696, -0.07733847945928574, 0.7144004106521606], [-0.14530976116657257, 0.47879356145858765, -0.28082790970802307, 0.07457919418811798, -0.005693081766366959, 0.14581969380378723, 0.14373281598091125, -0.00789882242679596, 0.18493998050689697, -0.48915740847587585, -0.7511025667190552, -0.19167959690093994, 0.15207752585411072, -0.11743859946727753, 0.2976648807525635, -0.6960751414299011, 0.14095959067344666, 0.1126759871840477, -0.5990433096885681, -0.20850470662117004, 0.21894142031669617, -0.07283258438110352, 0.25957125425338745, -0.12900225818157196, 0.12973031401634216, -0.6313618421554565, 0.08404254913330078, 0.029975727200508118, -0.19790035486221313, -0.1627284735441208, 0.3250296413898468, -0.17095042765140533, -0.34761789441108704, 0.03431760519742966, 0.15817362070083618, 0.5201853513717651, -0.08589023351669312, -0.318097859621048, 0.22946351766586304, 0.12275228649377823, 0.31576424837112427, -0.356078565120697, 0.29411423206329346, 0.07368922233581543, -0.12431815266609192, -1.040706992149353, 0.09760460257530212, 0.21875666081905365, 0.22099125385284424, -0.27815720438957214, 0.37605544924736023, -0.4250045716762543, -0.10559923201799393, 0.2795271575450897, 0.15571056306362152, -0.1661243736743927, -0.4816041588783264, 0.07112357020378113, 0.36716121435165405, -0.0804351419210434, -0.021201934665441513, 0.2330043613910675, -0.121218740940094, 0.06204581260681152], [0.16037477552890778, -0.3981474041938782, -0.2797030210494995, 0.06476180255413055, -0.0969059094786644, 0.207622230052948, 0.3237898349761963, 0.2668076753616333, 0.44686615467071533, -0.12110032886266708, 0.3258780837059021, -0.7182197570800781, -0.0927201583981514, 0.5967817902565002, 0.09941522777080536, 0.0811370313167572, -0.7842532396316528, 0.14189913868904114, -0.0741519033908844, -0.2941288948059082, -0.3598580062389374, -0.32655370235443115, 0.17626158893108368, -0.08552766591310501, 0.23817987740039825, -0.3404805064201355, 0.07092973589897156, -0.44620364904403687, 0.3846241533756256, -0.2517718970775604, -0.1584116518497467, 0.08555436134338379, 0.08708441257476807, 0.517781138420105, -0.19917032122612, 0.29456228017807007, -0.3648349344730377, -0.1201326921582222, -0.21041971445083618, -0.7091548442840576, 0.38594406843185425, -0.17996981739997864, -0.10963333398103714, 0.17051485180854797, -0.04571780562400818, 0.2076246738433838, 0.17590846121311188, 0.3459606468677521, -0.45952022075653076, -0.4567919671535492, -0.06369882822036743, 0.39446547627449036, 0.012446805834770203, -0.10168416798114777, -0.14191597700119019, 0.16790756583213806, 0.10381531715393066, -0.10945717245340347, 0.29725849628448486, -0.89964759349823, -0.35407426953315735, -0.15010562539100647, 0.08269110321998596, -0.11661738157272339], [0.24834367632865906, 0.04777051508426666, -0.09727299958467484, -0.5591497421264648, -0.6808395981788635, 0.40162622928619385, 0.19098448753356934, -0.13958190381526947, 0.1919131577014923, 0.22190481424331665, -0.7427517175674438, 0.25825732946395874, -0.1563369780778885, 0.05732974037528038, -0.37614065408706665, 0.10834001004695892, 0.1252833604812622, 0.2534721791744232, -0.350009948015213, -0.47396600246429443, 0.14212115108966827, -0.22043141722679138, 0.3080829381942749, 0.13334861397743225, 0.23346909880638123, -0.1562958061695099, 0.3469676375389099, -0.34509891271591187, -0.37074053287506104, 0.06507003307342529, -0.0419759675860405, -0.13381779193878174, -0.06980067491531372, 0.3117002248764038, 0.12303519994020462, -0.05003129690885544, -0.5657517313957214, -0.4852505326271057, -0.04636969789862633, -0.05428332835435867, -0.22067056596279144, -0.04795931279659271, 0.048450324684381485, 0.12767010927200317, 0.01846941001713276, -0.15748187899589539, 0.23129867017269135, -0.012872964143753052, 0.36292126774787903, 0.11218760907649994, -0.2996339201927185, -0.22021666169166565, 0.23522719740867615, 0.165056511759758, 0.32272714376449585, -0.6733089685440063, 0.16714262962341309, 0.49645036458969116, -0.2436884045600891, -0.10213737934827805, 0.07912177592515945, -0.12062899023294449, 0.03354369476437569, -0.18268683552742004], [0.3782782554626465, 0.14004123210906982, -0.047809213399887085, -0.18686062097549438, -0.03155742958188057, 0.37322109937667847, 0.33370065689086914, -0.39368778467178345, -0.09005820751190186, -0.040213096886873245, 0.4295590817928314, 0.14093300700187683, 0.43079787492752075, -0.08974944800138474, 0.13103647530078888, -0.28897717595100403, -0.14006155729293823, 0.18088261783123016, -0.34603822231292725, 0.0930536612868309, -0.3362131118774414, 0.12192666530609131, -0.31842461228370667, 0.4391450881958008, -0.00677889958024025, -0.04246709123253822, 0.1978176087141037, 0.10277238488197327, 0.017758682370185852, 0.027338050305843353, 0.09130425751209259, 0.35447898507118225, -0.1705656349658966, -0.42605873942375183, 0.5546702742576599, -0.17078804969787598, 0.10189709812402725, 0.16805046796798706, -0.07993268221616745, -0.08483672142028809, 0.39401474595069885, 0.1599605232477188, -0.08327290415763855, -0.25107622146606445, 0.4747176170349121, 0.3107990622520447, -0.25556880235671997, 0.1626460701227188, -0.1890091598033905, -0.35074320435523987, -0.46048396825790405, 0.45300519466400146, 0.3112089931964874, -0.030981507152318954, 0.37005695700645447, 0.2676835358142853, -0.14678117632865906, -0.06802568584680557, 0.1939801722764969, 0.013332933187484741, 0.3607417345046997, -0.421139121055603, -0.23372714221477509, 0.12646204233169556], [-0.48435014486312866, 0.25994277000427246, -0.4722101092338562, -0.28121015429496765, -0.04866330325603485, -0.1822797805070877, -0.2218528687953949, 0.23874406516551971, -0.2538832724094391, -0.10390598326921463, -0.17573031783103943, 0.23890675604343414, 0.05544807389378548, 0.22779297828674316, 0.04111088067293167, -0.23510628938674927, 0.17508599162101746, 0.009810477495193481, 0.26589685678482056, 0.2538756728172302, 0.6215155720710754, -0.09129293262958527, 0.42792433500289917, -0.05131123960018158, 0.3362783193588257, 0.06940268725156784, 0.21040458977222443, 0.025648703798651695, -0.09736518561840057, 0.46611371636390686, -0.29962342977523804, -0.10024643689393997, 0.6037598848342896, -0.33830490708351135, 0.41191643476486206, 0.15583737194538116, -0.08805904537439346, -0.31129562854766846, 0.030638471245765686, 0.04190438240766525, -0.19531477987766266, 0.04353126883506775, 0.0658109188079834, -0.2602647542953491, -0.5049241781234741, -0.1346999704837799, -0.14752714335918427, 0.08117587864398956, -0.27927300333976746, -0.010992683470249176, 0.13727951049804688, -0.12642231583595276, 0.187278151512146, 0.25193822383880615, -0.21921809017658234, 0.1442394256591797, -0.3724935054779053, -0.26916754245758057, 0.04688529670238495, -0.4374103546142578, 0.01856764778494835, 0.2336503267288208, -0.2574944794178009, 0.17348605394363403], [0.1638425588607788, 0.3258921802043915, 0.2626480460166931, 0.5174183249473572, -0.7500411868095398, -0.13060975074768066, -0.09467022866010666, -0.20773328840732574, 0.227431982755661, -0.14403419196605682, -0.27171316742897034, -0.599505603313446, -0.06182873994112015, 0.560052216053009, 0.05695759132504463, -0.008664057590067387, -0.5946005582809448, 0.21686610579490662, 0.0896274670958519, 0.34298211336135864, 0.10126176476478577, -0.12133599072694778, 0.14971864223480225, -0.395296573638916, 0.10506380349397659, -0.07654036581516266, -0.36926916241645813, 0.0778462216258049, -0.11460462212562561, -0.028673771768808365, 0.0033150017261505127, 0.02595438063144684, 0.16588729619979858, 0.48104748129844666, -0.15400908887386322, -0.4469758868217468, -0.0623917430639267, 0.6593207120895386, -0.13715530931949615, 0.2856752276420593, 0.011582188308238983, 0.20073051750659943, 0.3484479486942291, -0.5824081897735596, -0.1175098717212677, -0.1129034087061882, -0.3444578945636749, 0.037743955850601196, -0.42542994022369385, -0.5917745232582092, -0.11340901255607605, 0.23791438341140747, 0.20962785184383392, -0.14921721816062927, 0.27843746542930603, 0.27873533964157104, -0.05740721896290779, 0.2989434599876404, 0.11309080570936203, 0.24221017956733704, -0.3235193192958832, -0.3960352838039398, 0.43274253606796265, 0.06104732304811478], [-0.043823402374982834, -0.16997288167476654, -0.036000803112983704, -0.2622995972633362, 0.15589970350265503, -0.2537074685096741, -0.2891523838043213, 0.5141523480415344, 0.12430817633867264, -0.24908243119716644, -0.4508180618286133, -0.31200775504112244, 0.19565947353839874, -0.15181107819080353, 0.46441221237182617, 0.20590613782405853, -0.68397456407547, -0.3201240599155426, 0.1131293997168541, -0.1044500321149826, 0.21220245957374573, -0.532546877861023, -0.0759882926940918, -0.1570700705051422, -0.2990752160549164, -0.04847205430269241, 0.3506637215614319, 0.15468943119049072, -0.3063540756702423, -0.5972716808319092, -0.49111467599868774, 0.4521118104457855, 0.3844521641731262, 0.11911477893590927, 0.3417411744594574, -0.26662006974220276, 0.08062611520290375, -0.16762599349021912, -0.2160189002752304, -0.3048207759857178, 0.1252388060092926, 0.01868196576833725, 0.17578597366809845, -0.29711973667144775, -0.370379239320755, 0.42981788516044617, -0.353503942489624, 0.037329450249671936, -0.2383255511522293, -0.11843239516019821, 0.3404778838157654, -0.005423270165920258, 0.3395695388317108, 0.11797391623258591, 0.2124476134777069, 0.15317001938819885, -0.2512802481651306, 0.08165548741817474, 0.24199196696281433, 0.4065541923046112, -0.7651807069778442, -0.010391578078269958, -0.06858185678720474, 0.04349282383918762], [0.20420260727405548, -0.19879597425460815, -0.368318110704422, 0.0446372926235199, -0.5754815340042114, -0.032156117260456085, -0.37975120544433594, -0.33643752336502075, 0.17941229045391083, -0.381496787071228, -0.16604091227054596, 0.2859185039997101, -0.12035241723060608, -0.22490011155605316, -0.10436613112688065, 0.46812981367111206, -0.4269823431968689, -0.4599831700325012, -0.10475517064332962, 0.08485089242458344, 0.045798301696777344, -0.04085777699947357, 0.6090534925460815, 0.010913491249084473, -0.19016213715076447, -0.10485678911209106, 0.7400698065757751, -0.04754383862018585, 0.09401985257863998, 0.04370292276144028, -0.06431685388088226, 0.3684915006160736, 0.32562053203582764, 0.023187648504972458, 0.2932480573654175, -0.11946363747119904, -0.2554628551006317, -0.2794434726238251, 0.14410419762134552, 0.06552611291408539, 0.4542474150657654, -0.14259162545204163, 0.24630555510520935, 0.0031771883368492126, -0.18866777420043945, -0.3510861396789551, 0.6659671068191528, 0.05452835559844971, -0.4431961178779602, -0.10552811622619629, -0.707453727722168, 0.39557045698165894, -0.10302738845348358, -0.07212807238101959, 0.26481544971466064, 0.22284318506717682, -0.14536979794502258, 0.04315504431724548, 0.6183043718338013, -0.07604823261499405, -0.1034773513674736, 0.3985000550746918, -0.027867011725902557, 0.0113217793405056], [-0.20569761097431183, -0.6606528759002686, -0.2681955099105835, -0.012663712725043297, -0.6687688231468201, -0.37177830934524536, 0.13547363877296448, -0.047246500849723816, 0.03227546066045761, 0.003877021372318268, -0.49881595373153687, 0.07875241339206696, -0.14927878975868225, 0.018734097480773926, -0.09269072115421295, 0.216349259018898, -0.011812075972557068, 0.14449937641620636, -0.9643393754959106, -0.213605597615242, -0.07676556706428528, 0.06500665843486786, -0.001581728458404541, -0.6871726512908936, 0.34099504351615906, -0.04184843972325325, 0.011060923337936401, 0.36106476187705994, 0.01637173444032669, 0.23327401280403137, 0.12085546553134918, 0.5520386695861816, 0.34759217500686646, -0.3463504910469055, 0.20289987325668335, 0.2896624207496643, 0.26519107818603516, 0.672716498374939, -0.05744187533855438, 0.3819103538990021, -0.3243239223957062, 0.2089320719242096, -0.5038754940032959, 0.41016948223114014, 0.30530983209609985, -0.06207868456840515, 0.10247128456830978, -0.3516991138458252, 0.3360368609428406, -0.44825315475463867, 0.5771676898002625, 0.514220118522644, 0.4538319706916809, -0.35319817066192627, -0.27667421102523804, -0.2066497653722763, 0.0007658153772354126, -0.29263728857040405, 0.14961692690849304, 0.29413583874702454, 0.21745121479034424, 0.3810964524745941, -0.4771554470062256, 0.5354589223861694], [-0.40338826179504395, 0.171913743019104, -0.034367792308330536, -0.21921737492084503, -0.11010031402111053, -0.10498502105474472, -0.14030805230140686, 0.19589844346046448, -0.010844796895980835, -0.11219700425863266, -0.38740506768226624, 0.564605712890625, 0.14967113733291626, 0.06895560771226883, -0.4747384786605835, 0.37777137756347656, -0.06261090934276581, 0.34024834632873535, 0.3792814612388611, 0.19030258059501648, -0.10077938437461853, 0.09998033940792084, -0.10808569192886353, 0.25360438227653503, 0.3273715376853943, 0.04514323174953461, 0.1914559006690979, -0.4267135262489319, 0.12017334997653961, 0.07777285575866699, -0.10798794031143188, -0.20011669397354126, 0.09805189818143845, 0.3386855125427246, -0.24003951251506805, -0.1556588113307953, 0.0009043831378221512, 0.16248974204063416, 0.26936015486717224, 0.1239115372300148, 0.027678877115249634, -0.06317826360464096, -0.5075331330299377, -0.20672568678855896, -0.03756920248270035, 0.11049051582813263, -0.24375110864639282, 0.19717958569526672, -0.10431540012359619, -0.043812647461891174, -0.3173674941062927, 0.25247132778167725, 0.13708840310573578, 0.03797078877687454, 0.4367799758911133, -0.54946368932724, -0.2962638735771179, 0.03309238329529762, 0.27568355202674866, -0.07643184065818787, 0.16009998321533203, -0.19765740633010864, -0.03033864125609398, -0.10601978003978729], [0.3372296094894409, -0.11103515326976776, -0.1743701994419098, -0.26750004291534424, -0.3989110589027405, 0.041585080325603485, -0.31318312883377075, -0.1102847307920456, 0.1635209172964096, 0.10037809610366821, 0.328380286693573, -0.17376694083213806, 0.052094295620918274, 0.010807729326188564, 0.05003456398844719, -0.26855552196502686, 0.190138041973114, -0.4727822244167328, -0.3331781327724457, 0.020098721608519554, 0.09468021988868713, 0.1432703286409378, 0.36985117197036743, 0.33078593015670776, -0.6535542011260986, 0.3172798454761505, 0.3167392313480377, 0.04682360216975212, -0.2243964970111847, -0.4111616909503937, -0.07049830257892609, 0.2712399959564209, 0.4971317946910858, 0.007649924606084824, 0.3073537349700928, -0.08245506137609482, 0.0615900456905365, -0.03748409450054169, -0.024719199165701866, 0.3455251455307007, 0.05797717720270157, -0.14232440292835236, -0.004895709455013275, -0.005276203155517578, -0.12989148497581482, 0.22773876786231995, 0.12934914231300354, -0.24188454449176788, 0.10428747534751892, -0.2789197862148285, 0.19157204031944275, -0.39193782210350037, -0.040654510259628296, 0.28708526492118835, -0.2299661636352539, 0.1612876057624817, -0.10991168022155762, -0.2550889551639557, -0.18069136142730713, -0.1796935498714447, -0.513542652130127, -0.03691026195883751, 0.34686076641082764, 0.11977151781320572], [-0.3339312672615051, 0.45970356464385986, -0.34304678440093994, 0.7993027567863464, 0.45126327872276306, -0.48977380990982056, -0.39967992901802063, 0.029922589659690857, 0.056199342012405396, -0.06872963160276413, 0.13733655214309692, -0.20625396072864532, -0.32003548741340637, 0.08332522213459015, 0.08991312980651855, -0.010139701887965202, 0.07312038540840149, 0.12476270645856857, -0.3261813223361969, 0.28794190287590027, -0.8476582169532776, 0.13355109095573425, 0.13704600930213928, -0.2731713354587555, 0.12184783816337585, 0.12691938877105713, 0.14771103858947754, 0.22200565040111542, 0.3915649652481079, 0.09561751037836075, 0.1362435221672058, 0.03861290216445923, -0.09120793640613556, 0.5449824333190918, -0.19602563977241516, 0.007330033928155899, -0.23370850086212158, 0.1839536726474762, 0.3470611572265625, 0.4844062030315399, 0.3049505352973938, -0.22531884908676147, 0.12161317467689514, -0.0437222421169281, -0.2029043287038803, -0.48603734374046326, -0.4956892728805542, -0.051279112696647644, -0.07429517060518265, 0.046910494565963745, 0.3562929928302765, 0.04497885704040527, -0.2274547815322876, -0.19347211718559265, 0.20324760675430298, 0.2786678671836853, -0.33159106969833374, -0.2906823456287384, 0.17494146525859833, -0.22873562574386597, -0.20968036353588104, 0.2349543571472168, 0.12087902426719666, -0.08093766868114471], [-0.04332384467124939, -0.6409854888916016, -0.5116058588027954, 0.35146233439445496, 0.29786598682403564, -0.16867193579673767, -0.02002899721264839, 0.298557847738266, -0.41633903980255127, 0.4884496033191681, 0.05754736810922623, -0.4546397924423218, -0.16774982213974, -0.049385614693164825, 0.17920707166194916, 0.456687331199646, -0.2860882878303528, -0.08754045516252518, 0.35256803035736084, -0.03383538872003555, 0.024561326950788498, -0.09639240801334381, 0.057116374373435974, -0.6210167407989502, 0.24337252974510193, 0.6183382868766785, -0.3572884798049927, 0.5006699562072754, 0.11254692822694778, 0.16190895438194275, -0.15467244386672974, 0.07913598418235779, 0.07664510607719421, 0.48731300234794617, 0.36521318554878235, -0.3869818449020386, -0.37877994775772095, -0.19392427802085876, 0.25085824728012085, -0.4392838776111603, 0.566771924495697, -0.4906429946422577, 0.6153628826141357, -0.35140669345855713, 0.04357586055994034, -0.10547147691249847, -0.07518959045410156, -5.804002285003662e-05, -0.16951055824756622, -0.11159667372703552, 0.15151260793209076, -0.35338789224624634, -0.0264408178627491, -0.148111492395401, -0.2999383509159088, 0.24514439702033997, -0.0761537030339241, -0.30200907588005066, 0.03188641369342804, 0.2780962288379669, -0.20009177923202515, -0.009991887956857681, 0.1987438201904297, 0.20414595305919647], [-0.11344768851995468, 0.037213996052742004, 0.07645213603973389, -0.29726463556289673, -0.21837450563907623, -0.3102700412273407, 0.4876450300216675, 0.2782815098762512, 0.523793637752533, -0.0380750447511673, 0.07878463715314865, -0.02174723893404007, 0.413254052400589, 0.0409109890460968, -0.2946406304836273, 0.1918422430753708, 0.018465561792254448, 0.4109274446964264, 0.2512161433696747, -0.0029489509761333466, -0.38562411069869995, 0.3160994052886963, -0.09962090104818344, -0.05003713443875313, -0.534599244594574, -0.03460127115249634, 0.3452037572860718, 0.014209628105163574, 0.10809828341007233, 0.26731446385383606, -0.23724164068698883, 0.4520038366317749, 0.0916234701871872, -0.02154332399368286, 0.16736340522766113, 0.07535380125045776, 0.2879842519760132, 0.2994195520877838, -0.3311246335506439, 0.2508161962032318, -0.2552454471588135, 0.09842546284198761, 0.3228360414505005, -0.04728180170059204, -0.346460223197937, -0.2986046373844147, 0.07725889980792999, 0.6584601402282715, 0.40866219997406006, 0.23175261914730072, 0.026830067858099937, -0.1925266981124878, -0.159384086728096, -0.07292349636554718, -0.4072880744934082, 0.15795177221298218, -0.211582213640213, 0.018816612660884857, 0.024663113057613373, -0.20186465978622437, -0.028977997601032257, 0.06152302026748657, 0.4415278732776642, 0.3175819218158722], [-0.10069984197616577, 0.15253618359565735, -0.013777881860733032, -0.2215508073568344, -0.09749540686607361, 0.15445266664028168, 0.13961102068424225, -0.01636626198887825, -0.06649941951036453, -0.29395467042922974, -0.06915511190891266, 0.06566224992275238, -0.10102567076683044, 0.3729727864265442, -0.4442135691642761, 0.14788316190242767, 0.049599435180425644, -0.3671645522117615, -0.4676358699798584, 0.18527841567993164, 0.45703956484794617, -0.20817211270332336, 0.69441819190979, -0.17016470432281494, -0.026939034461975098, 0.24739471077919006, 0.1621752381324768, 0.07269597053527832, -0.44985660910606384, -0.3851794898509979, -0.09450695663690567, 0.3268565535545349, -0.1135878786444664, 0.10524901747703552, 0.2508217692375183, 0.09085904061794281, -0.43039941787719727, 0.03849712014198303, 0.16428367793560028, 0.3072493076324463, -0.09096184372901917, 0.11540347337722778, -0.31730571389198303, 0.4791538119316101, 0.18246635794639587, 0.16194374859333038, -0.03358364850282669, -0.2589176297187805, -0.03041868284344673, 0.04696802794933319, -0.49436697363853455, 0.07699567824602127, -0.26190635561943054, 0.42080792784690857, 0.4073422849178314, 0.3897782862186432, -0.4302956759929657, 0.6922367215156555, 0.4604126214981079, 0.3338938057422638, -0.04460223764181137, 0.6198087334632874, 0.3823479413986206, 0.4634227752685547], [0.0521116778254509, -0.8365641832351685, -0.5758912563323975, 0.32364219427108765, -0.13623106479644775, 0.2775813937187195, -0.5545118451118469, 0.1314275562763214, 0.07328369468450546, 0.19232115149497986, 0.017199713736772537, -0.17322024703025818, 0.18416306376457214, -0.1775657683610916, -0.044050075113773346, -0.1046760082244873, -0.11562779545783997, -0.3828243017196655, -0.5273317694664001, 0.16345010697841644, 0.022387251257896423, -0.27349913120269775, 0.012594446539878845, -0.12215566635131836, -0.4977560043334961, -0.2985515892505646, -0.2938692569732666, 0.3110867738723755, 0.1571817845106125, 0.17362001538276672, 0.2468181699514389, 0.034323662519454956, -0.02419610507786274, 0.20141416788101196, -0.07379701733589172, -0.5063188076019287, -0.18379400670528412, -0.1215275302529335, 0.4889363646507263, -0.002567458897829056, -0.43546852469444275, 0.44871214032173157, 0.017951060086488724, 0.1206800639629364, 0.22361646592617035, -0.18091167509555817, -0.00014845654368400574, 0.0777437835931778, 0.018666241317987442, 0.20693659782409668, 0.5489859580993652, -0.22082823514938354, 0.12897096574306488, -0.2574445605278015, -0.119831383228302, 0.4383687973022461, 0.008105449378490448, 0.4502548575401306, -0.14071409404277802, -0.1545800119638443, 0.1838490515947342, -0.29214030504226685, -0.2654407024383545, 0.06372714042663574], [0.22739484906196594, -0.14871980249881744, 0.2684107720851898, 0.16356785595417023, -0.7788918018341064, -0.07760343700647354, -0.11572817713022232, -0.4107540547847748, -0.1540185809135437, -0.641309916973114, 0.07645341008901596, 0.5271052122116089, 0.7423768043518066, 0.0056190937757492065, -0.29574882984161377, -0.23529261350631714, -0.15209193527698517, 0.27056974172592163, 0.5898262858390808, 0.050281405448913574, -0.1483023464679718, 0.46464210748672485, 0.2274188995361328, -0.02094661071896553, 0.03586405888199806, 0.13783128559589386, -0.0032422542572021484, -0.2665620446205139, -0.13746881484985352, 0.08659514784812927, -0.2577618956565857, 0.2771122455596924, 0.13006961345672607, -0.4152092933654785, 0.28552472591400146, -0.07285882532596588, -0.26745012402534485, -0.3629775047302246, -0.0976802334189415, -0.3110462427139282, -0.0708964392542839, -0.0734790563583374, 0.26642537117004395, 0.23167017102241516, -0.34658074378967285, -0.13233627378940582, -0.10275212675333023, -0.5095159411430359, 0.45420897006988525, 0.031154662370681763, 0.23905938863754272, 0.17878538370132446, -0.5436517596244812, 0.5532526969909668, 0.17135821282863617, 0.04633156210184097, 0.40198150277137756, 0.06088363379240036, -0.02753337472677231, 0.08341477811336517, 0.5062556266784668, -0.33993449807167053, -0.07245244085788727, -0.19542226195335388], [-0.4194960296154022, 0.04586528241634369, 0.016108021140098572, -0.08588044345378876, -0.3650049865245819, 0.04576842114329338, -0.19095569849014282, -0.14909665286540985, 0.08982531726360321, -0.012750284746289253, -0.23160246014595032, -0.16904187202453613, -0.33992403745651245, 0.4553859233856201, -0.20369002223014832, 0.3188962936401367, -0.10788905620574951, 0.6322768926620483, -0.11241081357002258, 0.27229130268096924, -0.15008100867271423, -0.06401288509368896, -0.12308336794376373, 0.2782001197338104, -0.10449587553739548, 0.40527716279029846, 0.3068815767765045, -0.665181040763855, -0.10847603529691696, 0.15690815448760986, 0.4445452094078064, 0.11438998579978943, -0.038596827536821365, 0.205117329955101, -0.17551814019680023, 0.20125876367092133, -0.5106390714645386, -0.4102558493614197, 0.133724182844162, 0.28337958455085754, 0.12868230044841766, -0.1167699471116066, 0.04231290519237518, -0.22112852334976196, 0.33396196365356445, 0.038455717265605927, -0.03188944607973099, -0.5658971071243286, -0.6021795868873596, -0.30173438787460327, 0.2477615773677826, 0.23017962276935577, 0.18832993507385254, -0.25583750009536743, 0.33787423372268677, -0.2301238477230072, -0.20499441027641296, 0.6337200999259949, -0.09020574390888214, 0.08604639768600464, 0.32266974449157715, -0.007546218112111092, -0.07688622176647186, -0.22730377316474915], [-0.403649240732193, 0.32277733087539673, -0.04393123462796211, 0.17693747580051422, 0.08918497711420059, -0.09635452926158905, -0.1463930755853653, -0.1221940666437149, 0.038313306868076324, 0.11985195428133011, 0.4966285526752472, -0.14397010207176208, 0.27117231488227844, 0.6117904186248779, 0.1823185682296753, -0.19250835478305817, -0.5109755396842957, 0.10431328415870667, -0.32030531764030457, 0.6484596133232117, -0.3083209991455078, 0.3562775254249573, 0.03498183935880661, -0.27757570147514343, 0.7444785833358765, 0.38101351261138916, -0.384890615940094, -0.1624334156513214, 0.16565071046352386, -0.4082653224468231, 0.1854347437620163, 0.1980721652507782, 0.2574307322502136, 0.21019203960895538, 0.0019380711019039154, 0.11264563351869583, 0.01923307776451111, 0.21469731628894806, 0.45045205950737, 0.2825546860694885, -0.22664803266525269, -0.4101669192314148, -0.25490736961364746, 0.09461329877376556, 0.41666871309280396, 0.3092862367630005, -0.0013240724802017212, 0.010691557079553604, 0.26018932461738586, 0.31513965129852295, 0.0532061792910099, 0.3565424382686615, -0.2793785333633423, -0.5954325199127197, 0.4607671797275543, 0.1958768218755722, -0.379422128200531, 0.14571359753608704, -0.05655967444181442, -0.03264572098851204, -0.6119699478149414, -0.1991572082042694, 0.15123151242733002, 0.10254859924316406], [-0.12843987345695496, 0.12470681220293045, 0.11414968967437744, -0.07780838757753372, -0.3139778971672058, -0.24561163783073425, 0.0752907246351242, 0.517699658870697, 0.08956937491893768, 0.01571178436279297, 0.2186099886894226, 0.5436395406723022, 0.23906636238098145, 0.11300642043352127, 0.3745814859867096, -0.17294418811798096, -0.17178653180599213, 0.17931334674358368, -0.04052053391933441, -0.32704585790634155, 0.38890066742897034, -0.5384464859962463, -0.38734889030456543, -0.2967374920845032, -0.07266873121261597, -0.2528623938560486, 0.2528282701969147, 0.14819234609603882, 0.09790307283401489, -0.08876800537109375, -0.6891577243804932, 0.13286548852920532, 0.13998250663280487, 0.14394941926002502, 0.3831879794597626, -0.07834158837795258, 0.2931351661682129, -0.5842746496200562, -0.22938209772109985, -0.3979964852333069, 0.5137134194374084, -0.07487714290618896, 0.46124374866485596, 0.1067901998758316, -0.11396373063325882, -0.3334731459617615, 0.32617032527923584, 0.47715747356414795, -0.1607707142829895, 0.15084895491600037, -0.11646959185600281, -0.12013590335845947, -0.21609817445278168, -0.3874228596687317, -0.23399782180786133, -0.1391770988702774, -0.8936102986335754, -0.043325040489435196, -0.8236169219017029, 0.053176410496234894, 0.14976957440376282, 0.30528539419174194, -0.06485652923583984, -0.19436103105545044], [-0.2180589884519577, -0.0396222323179245, 0.4680209159851074, -0.09282557666301727, -0.32880595326423645, 0.09884148091077805, -0.044874273240566254, 0.24030691385269165, 0.020540326833724976, -0.1949193775653839, -0.33280056715011597, -0.30140697956085205, 0.08791647851467133, 0.10070676356554031, 0.11048753559589386, -0.596113383769989, 0.28803205490112305, 0.11338703334331512, -0.17114439606666565, -0.2737694978713989, -0.3968878984451294, 0.02731984853744507, 0.09308275580406189, 0.4447169303894043, -0.5068077445030212, -0.0676937848329544, -0.43674683570861816, 0.018930424004793167, -0.286977082490921, 0.013715073466300964, 0.04437156021595001, 0.03196446970105171, 0.16427163779735565, 0.04519834369421005, 0.5041936635971069, -0.14157947897911072, -0.021510694175958633, 0.32060086727142334, -0.2260228991508484, -0.6749904751777649, -0.013773411512374878, 0.08753593266010284, 0.1763160079717636, 0.11317665874958038, 0.006148098967969418, 0.2502826750278473, -0.07175040245056152, -0.10365717858076096, 0.08036097884178162, 0.044116757810115814, -0.11937621235847473, -0.13179729878902435, 0.2748485207557678, -0.09350942075252533, 0.2777280807495117, -0.26913541555404663, -0.7585296034812927, -0.12792769074440002, -0.0931619331240654, -0.39856842160224915, -0.13676291704177856, -0.3365004360675812, 0.2930191159248352, -0.09549134969711304], [-0.16923397779464722, 0.3933151364326477, -0.1856037974357605, -0.5999502539634705, 0.2602746784687042, -0.20587673783302307, -0.11314216256141663, 0.08851291239261627, 0.23154447972774506, 0.16300246119499207, -0.2984538674354553, 0.15053945779800415, 0.028750695288181305, 0.12488970160484314, -0.4237139821052551, -0.09545519948005676, -0.284495085477829, 0.32375994324684143, 0.08601783961057663, -0.5204930901527405, -0.22782890498638153, -0.5957212448120117, -0.2880949378013611, -0.1479811668395996, 0.3308465778827667, 0.6642447710037231, -0.4656263589859009, -0.04506397619843483, -0.25459641218185425, 0.6171845197677612, -0.17423082888126373, -0.23071011900901794, -0.21772079169750214, 0.08513636887073517, -0.36324256658554077, 0.09120833873748779, 0.08487091958522797, 0.47941312193870544, 0.032190803438425064, 0.30952659249305725, -0.08624543249607086, 0.14299696683883667, -0.26165083050727844, -0.24379363656044006, -0.14501842856407166, -0.44235366582870483, -0.11681441217660904, -0.005350515246391296, 0.5818825960159302, -0.12779805064201355, -0.4334965944290161, -0.2512492537498474, 0.41464653611183167, 0.4183572232723236, 0.015440031886100769, 0.1875247061252594, -0.18366314470767975, 0.050272390246391296, 0.19027410447597504, 0.32655400037765503, 0.14644742012023926, -0.5686931014060974, -0.06279174238443375, -0.044811733067035675], [0.2515772581100464, 0.522231936454773, 0.1386733055114746, 0.08558361232280731, -0.17724104225635529, 0.0072687119245529175, -0.11837154626846313, -0.08369146287441254, 0.28687745332717896, -0.0763971135020256, -0.18998722732067108, 0.3069717288017273, -0.7906099557876587, -0.3592272996902466, 0.4475812017917633, 0.2039335072040558, -0.10265231877565384, 0.013662101700901985, 0.14633211493492126, -0.08916134387254715, -0.09834913909435272, 0.012289047241210938, -0.0549369752407074, -0.194007009267807, -0.11593717336654663, 0.018902502954006195, 0.30948275327682495, 0.5037825703620911, -0.017772428691387177, 0.04169800505042076, 0.24049112200737, -0.1491878479719162, -0.05208156257867813, 0.2746771275997162, 0.08940401673316956, -0.35243406891822815, 0.259188175201416, 0.29544827342033386, 0.024163320660591125, 0.09167580306529999, -0.058560967445373535, -0.09076870232820511, 0.09088419377803802, 0.17996641993522644, 0.5007006525993347, 0.16168101131916046, 0.4234669506549835, 0.2448403239250183, -0.4874981641769409, -0.26107558608055115, -0.12065611779689789, -0.12099001556634903, 0.44034716486930847, 0.5306313037872314, 0.315400093793869, 0.09618905186653137, -0.08848494291305542, -0.07073445618152618, 0.06870515644550323, -0.10119923204183578, -0.09496235102415085, 0.1846720427274704, -0.25802966952323914, 0.282839834690094], [-0.03801640123128891, 0.3025188446044922, -0.2258194237947464, -0.045854825526475906, 0.1671227216720581, 0.06371669471263885, 0.31226304173469543, -0.05506137013435364, 0.22833755612373352, -0.21640312671661377, -0.09726593643426895, -0.18968699872493744, 0.11717479676008224, 0.009442493319511414, 0.23549272119998932, -0.519743800163269, -0.2728837728500366, 0.4222155809402466, 0.30757924914360046, -0.18102088570594788, 0.5647203922271729, 0.08132362365722656, -0.0786699503660202, 0.37323594093322754, 0.40552425384521484, 0.16702932119369507, -0.44518810510635376, 0.3919216990470886, 0.2053956240415573, 0.7948759198188782, 0.42312026023864746, 0.2784419059753418, -0.359655499458313, 0.13344672322273254, 0.25715380907058716, 0.21424397826194763, 0.1303534358739853, 0.1368863582611084, -0.34936317801475525, -0.5500362515449524, -0.1395055055618286, -0.36490702629089355, 0.1442129760980606, 0.04513970762491226, 0.29284924268722534, -0.29219844937324524, -0.26238688826560974, 0.0014564916491508484, 0.6421307921409607, -0.28235676884651184, 0.22155335545539856, -0.4355567395687103, 0.0676710307598114, 0.4907885193824768, 0.1324574053287506, 0.5170224905014038, -0.38423633575439453, -0.508675754070282, 0.3671969175338745, 0.3757859170436859, -0.2062871754169464, 0.3311544954776764, 0.10396527498960495, -0.24557319283485413], [0.07170197367668152, -0.07417092472314835, -0.21261340379714966, 0.27418798208236694, -0.4066231846809387, 0.3055165410041809, 0.22474533319473267, 0.005745794624090195, -0.10024192929267883, 0.14435169100761414, -0.2378057837486267, 0.20525000989437103, -0.2665737271308899, 0.10182097554206848, 0.24160133302211761, -0.3135237395763397, 0.08007372170686722, 0.2883218824863434, -0.7733861804008484, -0.2153819501399994, -0.5655341744422913, 0.4115638732910156, 0.35567018389701843, 0.16719090938568115, -0.011077746748924255, 0.12248372286558151, 0.36286020278930664, -0.08851050585508347, -0.15464259684085846, -0.20936891436576843, 0.2092466950416565, -0.379334956407547, -0.30487582087516785, 0.5513700842857361, -0.2084985226392746, 0.23006214201450348, 0.04794154316186905, 0.12750837206840515, -0.17445433139801025, -0.25359052419662476, 0.16405253112316132, 0.04218657314777374, 0.14920607209205627, 0.1135743111371994, 0.10136621445417404, 0.0953838974237442, -0.39687228202819824, -0.15767346322536469, -0.14634548127651215, 0.12631313502788544, 0.23576956987380981, 0.5641294121742249, -0.5475940108299255, -0.5033888816833496, -0.10401849448680878, -0.0941314622759819, 0.30701810121536255, 0.08598864078521729, 0.16359202563762665, -0.12711596488952637, 0.1831195056438446, 0.27681246399879456, 0.15456871688365936, 0.11700762808322906], [-0.3240451514720917, -0.9118468761444092, 0.10486523061990738, 0.46622177958488464, 1.0510132312774658, 0.054708339273929596, 0.6384678483009338, -0.10331585258245468, -0.5351744890213013, 0.3431288003921509, -0.21053628623485565, -0.2996915578842163, -0.37919971346855164, -0.31465035676956177, -0.1765218824148178, -0.12442031502723694, 0.08849532902240753, 0.2087031900882721, 0.17178875207901, -0.4280603229999542, -0.5867810249328613, 0.6285966634750366, -0.5110312104225159, 0.36148345470428467, 0.23181626200675964, -0.42301321029663086, 0.16436922550201416, -0.11316858977079391, -0.23598863184452057, -0.039966288954019547, 0.18112657964229584, 0.04159633815288544, 0.3842257261276245, -0.3021525740623474, -0.8543945550918579, -0.41229379177093506, 0.4048343300819397, 0.3350575268268585, -0.2049073725938797, 0.5709329843521118, -0.13896743953227997, 0.19358181953430176, 0.8864586353302002, -0.046412933617830276, -0.1620827615261078, 0.017148789018392563, -0.3002300262451172, 0.25518280267715454, 0.34584495425224304, -0.15795797109603882, -0.21235524117946625, 0.15368370711803436, -0.18104007840156555, 0.2603495419025421, -0.19338896870613098, 0.04686064273118973, -0.26095375418663025, 0.26251640915870667, -0.23105484247207642, -0.3130374550819397, -0.07846931368112564, 0.12643826007843018, 0.2931648790836334, -0.25778988003730774], [-0.0443713515996933, -0.4190739691257477, 0.003375500440597534, 0.4054797887802124, 0.3416312038898468, 0.2137356996536255, 0.21604439616203308, 0.6285843849182129, -0.09698761254549026, -0.18401247262954712, -0.03400298207998276, -0.5017297267913818, 0.053407177329063416, -0.7586808800697327, 0.08048391342163086, 0.22428712248802185, -0.100908562541008, 0.2165995091199875, -0.34212929010391235, 0.10902544111013412, -0.25354450941085815, 0.31708478927612305, 0.3642120957374573, 0.15606284141540527, 0.09937179833650589, -0.10840064287185669, 0.3251044452190399, -0.14094775915145874, 0.37586262822151184, -0.0010872408747673035, 0.16899031400680542, -0.019650062546133995, 0.6195764541625977, 0.10449236631393433, -0.14309808611869812, 0.48242664337158203, -0.030507124960422516, 0.27876564860343933, 0.29209259152412415, -0.1034502387046814, 0.1561824083328247, 0.15902520716190338, 0.6465951800346375, 0.047586098313331604, 0.2666070759296417, -0.21081720292568207, -0.4563835859298706, -0.01089952141046524, 0.07665589451789856, 0.24062973260879517, -0.17309367656707764, -0.29874658584594727, 0.09853719919919968, -0.6291391849517822, -0.4393901824951172, -0.325435996055603, 0.390483558177948, -0.5263908505439758, 0.1636221706867218, -0.05092918127775192, -0.16452549397945404, 0.3987714648246765, 0.11508429795503616, -0.4162198007106781], [0.5916754603385925, 0.40199950337409973, 0.14990858733654022, 0.21910244226455688, 0.3004198670387268, -0.3259497284889221, 0.11338669061660767, 0.22845789790153503, -0.5811316967010498, 0.038677945733070374, -0.13554146885871887, 0.17550258338451385, -0.20829851925373077, 0.367157518863678, 0.04758364334702492, 0.6702398657798767, -0.009656809270381927, -0.10367508232593536, -0.3341534733772278, -0.056809909641742706, -0.28823062777519226, 0.07628273963928223, 0.40644896030426025, -0.36780956387519836, -0.2582749128341675, -0.2714299261569977, -0.36739182472229004, -0.2516806125640869, -0.3396603465080261, 0.29515013098716736, -0.2064482718706131, 0.08172215521335602, 0.1602138727903366, 0.23753783106803894, -0.028371460735797882, 0.14649979770183563, 0.14512945711612701, 0.2336815595626831, 0.04617787525057793, -0.2534419298171997, -0.09840156137943268, -0.2776084244251251, -0.252735435962677, 0.37667882442474365, -0.07426925003528595, 0.23047447204589844, -0.1807962954044342, 0.7745779752731323, -0.20521244406700134, -0.17691592872142792, -0.014106005430221558, -0.06714364141225815, 0.21691925823688507, 0.12513311207294464, 0.08089914917945862, -0.47667399048805237, 0.5970576405525208, 0.11252885311841965, -0.12697604298591614, -0.006695603020489216, -0.19707660377025604, 0.11878164112567902, -0.2845919728279114, -0.3753131031990051], [-0.08765760809183121, 0.19684815406799316, 0.1610046625137329, -0.12431579828262329, -0.49486178159713745, -0.17372065782546997, -0.006663590669631958, -0.15366137027740479, 0.5703237056732178, -0.46751561760902405, 0.625534176826477, 0.14185339212417603, 0.20824530720710754, -0.062000952661037445, 0.000684516504406929, 0.24341750144958496, 0.6326389908790588, -0.13230198621749878, 0.26348716020584106, -0.45999136567115784, -0.1222684234380722, -0.12400207668542862, 0.39276638627052307, -0.09465017169713974, -0.5393144488334656, -0.06427959352731705, 0.19779916107654572, 0.3369816243648529, 0.18440577387809753, -0.06123754754662514, 0.10780320316553116, -0.26345884799957275, 0.18657967448234558, 0.03541462868452072, -0.39309751987457275, 0.2881271243095398, -0.5652496814727783, -0.3522561192512512, 0.1893319934606552, 0.1002780944108963, 0.19000525772571564, -0.5395604372024536, -0.7426388263702393, 0.7738618850708008, 0.14917612075805664, -0.19664138555526733, -0.07329018414020538, 0.037597253918647766, 0.05119290202856064, 0.03442326933145523, -0.13887840509414673, -0.5694671869277954, -0.175286665558815, -0.13449569046497345, -0.6080604195594788, 0.20888559520244598, -0.07703647017478943, 0.28203436732292175, -0.2674378752708435, 0.41409459710121155, 0.04342842847108841, -0.1410108506679535, -0.2463005781173706, 0.17567461729049683], [0.012435510754585266, 0.011574573814868927, -0.12023639678955078, -0.15197911858558655, -0.20176184177398682, 0.28253331780433655, 0.03600706905126572, 0.09153987467288971, 0.167911097407341, -0.37628668546676636, 0.7178642153739929, -0.24142315983772278, 0.20598502457141876, -0.10357171297073364, 0.23814958333969116, 0.1356687843799591, -0.0604974627494812, -0.2672348618507385, 0.100953608751297, 0.1375727504491806, -0.2243233323097229, 0.4015576243400574, 0.2379601001739502, 0.40380531549453735, 0.36579346656799316, -0.11360053718090057, -0.13307687640190125, -0.18910939991474152, -0.2596392035484314, -0.467961847782135, 0.09971599280834198, -0.15645989775657654, 0.01649123802781105, 0.15033996105194092, -0.2835066318511963, 0.5788646936416626, -0.2659871280193329, 0.23391368985176086, 0.14530184864997864, -0.9085810780525208, 0.2847471535205841, 0.034939542412757874, -0.684909462928772, -0.07188993692398071, -0.5310661792755127, -0.189065620303154, 0.2563668191432953, -0.4846353828907013, 0.04678337648510933, 0.22526602447032928, 0.27930259704589844, -0.1338874101638794, 0.1213470846414566, -0.09581711143255234, -0.37701624631881714, 0.0013019852340221405, 0.4727708399295807, -0.19624143838882446, -0.1073649451136589, 0.45679527521133423, -0.13937145471572876, -0.06729893386363983, 0.06243154779076576, 0.22309544682502747], [0.30955567955970764, 0.3251422643661499, -0.13334967195987701, -0.05506786331534386, -0.017184868454933167, 0.43438220024108887, -0.2525199353694916, 0.6046253442764282, 0.15161719918251038, -0.24204649031162262, -0.469462513923645, 0.4760323762893677, -0.27687594294548035, -0.39713287353515625, -0.2920728921890259, 0.17502249777317047, -0.035039931535720825, -0.4121163487434387, -0.08030295372009277, -0.5424569845199585, -0.05032958835363388, -0.05019872635602951, 0.1768348515033722, 0.04381219297647476, 0.3335731327533722, -0.09560146182775497, -0.049992673099040985, -0.22764861583709717, -0.10035748034715652, -0.26208776235580444, -0.26824450492858887, 0.2047976851463318, 0.3272906541824341, 0.24591153860092163, 0.4265027344226837, -0.2560057044029236, -0.06811632215976715, -0.3703118860721588, 0.43755874037742615, 0.35443487763404846, 0.004165139049291611, 0.10475792735815048, -0.46530404686927795, 0.03886151686310768, 0.15945708751678467, 0.10624097287654877, -0.2133263498544693, -0.20191361010074615, 0.21263901889324188, -0.2692045271396637, 0.3292786478996277, 0.1459030658006668, 0.32995057106018066, -0.02596559002995491, 0.07939455658197403, 0.9665188193321228, -0.1983838826417923, 0.25653403997421265, -0.41603347659111023, -0.24875468015670776, 0.06693720817565918, -0.405947208404541, -0.45426708459854126, 0.07536834478378296], [0.6974326968193054, 0.11501146852970123, -0.14236512780189514, 0.35212501883506775, 0.3993748128414154, -0.34307411313056946, 0.16357830166816711, 0.02054605633020401, -0.08710797876119614, 0.4436277747154236, -0.47344034910202026, 0.2548072040081024, 0.27560320496559143, 0.05783746391534805, -0.2095518410205841, 0.37329503893852234, -0.16746467351913452, 0.37141698598861694, -0.11903086304664612, -0.20275849103927612, 0.39888468384742737, -0.23950760066509247, 0.4403053820133209, 0.03778491169214249, -0.7401436567306519, 0.2953301966190338, 0.27675387263298035, -0.44841939210891724, 0.381753146648407, 0.2745351791381836, 0.33386391401290894, -0.12623992562294006, 0.07330769300460815, -0.02626606822013855, 0.09502817690372467, 0.0810404047369957, -0.30747756361961365, 0.07283223420381546, 0.06001734733581543, -0.22132232785224915, -0.019932888448238373, -0.40109485387802124, 0.0847472995519638, -0.009180501103401184, 0.1998376101255417, -0.03981293737888336, -0.659166157245636, 0.17084068059921265, 0.5324185490608215, 0.004489034414291382, -0.300254225730896, -0.05842366814613342, 0.024019602686166763, 0.17892666161060333, -0.1955697238445282, -0.01154932752251625, -0.4054813086986542, 0.04531371593475342, 0.034923531115055084, 0.13699626922607422, 0.19142374396324158, -0.07841294258832932, 0.14294539391994476, 0.09229221194982529], [0.08272102475166321, -0.7038584351539612, -0.2878602147102356, -0.08297818154096603, -0.2701619863510132, -0.810558021068573, 0.08774982392787933, 0.3487492799758911, 0.1601780354976654, 0.20802032947540283, -0.383205771446228, 0.12170570343732834, 0.3807695209980011, 0.10120940208435059, 0.26563316583633423, -0.4771476686000824, 0.5679073929786682, -0.2951810956001282, -0.2215772271156311, 0.34128379821777344, -0.061395615339279175, 0.5017274618148804, -0.17011529207229614, -0.18546852469444275, 0.2970789968967438, 0.16503582894802094, -0.30399590730667114, -0.16752266883850098, 0.16971217095851898, 0.2240905910730362, 0.39338403940200806, -0.09300389885902405, -0.03751418739557266, -0.11273104697465897, -0.14247474074363708, -0.18285813927650452, 0.11366210877895355, 0.2751299738883972, 0.40509289503097534, -0.004374749958515167, -0.22795061767101288, 0.01921762526035309, 0.2742109000682831, -0.20259302854537964, -0.47058963775634766, 0.12281718850135803, 0.07259306311607361, -0.0816335678100586, 0.5850318670272827, -0.15596961975097656, -0.5375543832778931, -0.4081979990005493, -0.00964655727148056, -0.24280515313148499, 0.04007454216480255, 0.08793579041957855, 0.32790783047676086, -0.17654061317443848, -0.3204009532928467, 0.2523813545703888, 0.026341406628489494, 0.26090294122695923, 0.09341458976268768, -0.40153980255126953], [-0.3265952467918396, -0.2033909559249878, 0.13428007066249847, 0.04352729395031929, -0.19289910793304443, -0.0077219754457473755, -0.2457314133644104, 0.25826317071914673, -0.4040977358818054, -0.3371010720729828, -0.11478441208600998, -0.04542117565870285, 0.020756378769874573, 0.023617401719093323, 0.17994791269302368, -0.3478737473487854, 0.16873879730701447, 0.05075644701719284, -0.022895999252796173, 0.11919037997722626, -0.045703232288360596, -0.46656137704849243, -0.07069189846515656, 0.07207850366830826, -0.4276506006717682, -0.37688589096069336, 0.15920352935791016, 0.03068484365940094, -0.0757693350315094, 0.020890064537525177, -0.28029754757881165, -0.30485716462135315, 0.21427269279956818, 0.0350375697016716, 0.005016116425395012, -0.2013099640607834, 0.22253888845443726, 0.27067041397094727, -0.03545123338699341, 0.2801244258880615, 0.04940629377961159, -0.2399478256702423, 0.08799991756677628, -0.41121914982795715, -0.09700363129377365, -0.1940629631280899, 0.2062259316444397, 0.04499998688697815, 0.03181329742074013, 0.446884423494339, 0.5341023206710815, 0.44007420539855957, -0.09147216379642487, 0.12111997604370117, 0.008363373577594757, 0.4223083257675171, 0.4108179211616516, 0.3299230933189392, 0.29804766178131104, 0.07539407163858414, 0.43437808752059937, 0.13371163606643677, -0.41659924387931824, 0.13314923644065857], [0.43787530064582825, 0.12331783026456833, 0.05607392638921738, 0.1636401265859604, -0.11757756024599075, -0.03081493079662323, 0.4070424735546112, -0.09598886221647263, 0.6796503067016602, 0.11154124140739441, 0.25696712732315063, -0.15570864081382751, 0.002668231725692749, 0.25309833884239197, 0.29706427454948425, 0.43688952922821045, -0.08411619812250137, 0.04519825428724289, 0.21241098642349243, -0.2978009283542633, 0.4332337975502014, -0.41392073035240173, -0.23634594678878784, 0.06719604879617691, -0.07704656571149826, -0.3059387803077698, -0.3520253896713257, -0.016536861658096313, -0.07818886637687683, 0.124122753739357, -0.22745640575885773, -0.01576787605881691, 0.10348112136125565, 0.3239138722419739, -0.2045784890651703, -0.0992710143327713, 0.4813135266304016, 0.4740237891674042, -0.010792022570967674, -0.350567102432251, 0.44437047839164734, -0.14999698102474213, 0.24455389380455017, -0.1579267531633377, -0.24187949299812317, 0.3811987638473511, 0.06876897811889648, -0.19837234914302826, -0.10567041486501694, -0.14470341801643372, -0.3561088740825653, 0.20717526972293854, -0.053715527057647705, -0.11713933944702148, 0.508047342300415, -0.36668339371681213, -0.027727581560611725, -0.009739786386489868, -0.2099478840827942, -0.14557507634162903, 0.33616316318511963, -0.2136288583278656, -0.6894912123680115, 0.03448242321610451], [-0.3095814287662506, 0.16004163026809692, 0.1288454830646515, -0.31700363755226135, -0.10299886763095856, 0.0634646862745285, 0.03192303702235222, 0.531956672668457, -0.2573142647743225, 0.23573976755142212, -0.13312792778015137, -0.06892021000385284, 0.11691367626190186, 0.04927855730056763, 0.04096623510122299, 0.14854633808135986, -0.05701741576194763, 0.11059971898794174, -0.3184840679168701, 0.2957138419151306, 0.23098433017730713, 0.0822032243013382, -0.02490462362766266, 0.16982972621917725, -0.5066619515419006, -0.12418249249458313, 0.02360091172158718, 0.4240196943283081, -0.0900815948843956, 0.44780635833740234, 0.025023456662893295, 0.20858530700206757, -0.10597660392522812, 0.5069249868392944, 0.057261984795331955, -0.5132158398628235, 0.15370604395866394, -0.0398261696100235, -0.3314043879508972, 0.12709152698516846, 0.024866975843906403, -0.3926258981227875, -0.1979520320892334, -0.2244868129491806, 0.4670364558696747, -0.031809207051992416, -0.04513273015618324, -0.15593591332435608, -0.6460584402084351, 0.8033848404884338, -0.33660653233528137, 0.0452447347342968, 0.504851222038269, 0.3230404853820801, -0.08545154333114624, 0.6686252951622009, -0.2231239676475525, -0.6160100102424622, 0.4983352720737457, 0.176646888256073, -1.034010410308838, -0.2141994833946228, 0.6353512406349182, -0.3666413128376007], [0.2000611424446106, -0.13539429008960724, 0.18402037024497986, 0.0869041159749031, 0.1381703019142151, -0.18110093474388123, 0.6150718331336975, -0.11708672344684601, -0.28065091371536255, 0.06876818835735321, 0.10001598298549652, 0.7694393992424011, 0.06183093786239624, -0.2972564995288849, 0.05034518986940384, -0.24174891412258148, 0.14565514028072357, 0.1687711626291275, -0.3614898920059204, 0.2763811945915222, -0.2105122059583664, 0.22859713435173035, -0.24359899759292603, 0.013071998953819275, -0.052810072898864746, 0.24511533975601196, -0.44454532861709595, -0.2310824692249298, -0.5827755928039551, 0.6776725053787231, -0.10277082771062851, -0.36902517080307007, 0.2550589144229889, 0.5525732040405273, -0.04571535065770149, -0.0027993610128760338, 0.2009153664112091, 0.31491637229919434, -0.6014207601547241, 0.08332375437021255, 0.031236402690410614, 0.04008758068084717, -0.12461793422698975, -0.058958642184734344, -0.06337468326091766, 0.007831510156393051, 0.1794642210006714, -0.09247071295976639, 0.620281457901001, -0.12617608904838562, 0.7598564028739929, 0.00498904287815094, 0.07149748504161835, 0.004153653979301453, 0.11596262454986572, -0.0026647672057151794, -0.0019687190651893616, 0.1374697983264923, -0.2338705062866211, 0.48319563269615173, 0.27104493975639343, 0.06681103259325027, 0.0913139209151268, 0.255049467086792], [0.2392396181821823, 0.1353726089000702, -0.07604313641786575, 0.02869732677936554, -0.15475238859653473, 0.18481305241584778, 0.2603442370891571, 0.1548074334859848, 0.3195337653160095, 0.5245175957679749, -0.06259593367576599, 0.09169960021972656, -0.20198743045330048, 0.3312709331512451, 0.4030953347682953, 0.018444962799549103, -0.24339143931865692, 0.8155254125595093, 0.14093856513500214, 0.08584826439619064, -0.27971959114074707, -0.20301805436611176, -0.03952890634536743, -0.04598117619752884, -0.6140971779823303, 0.4078511893749237, -0.13296939432621002, 0.3361099660396576, 0.19589515030384064, -0.18368124961853027, -0.6976630687713623, 0.32725659012794495, -0.09721506386995316, 0.16923721134662628, -0.019773408770561218, -0.5472119450569153, -0.018550921231508255, 0.12363414466381073, 0.37742912769317627, 0.13779674470424652, -0.19471383094787598, -0.12387360632419586, 0.2707568109035492, 0.09839538484811783, -0.12271783500909805, -0.1678522527217865, 0.5262842178344727, -0.0032300949096679688, -0.07527737319469452, -0.5239646434783936, 0.0016071945428848267, -0.14525018632411957, -0.1474923938512802, -0.43266576528549194, 0.10396099835634232, -0.07633636891841888, 0.519700825214386, -0.4299994111061096, -0.17434942722320557, -0.17475679516792297, -0.2805419862270355, -0.20931656658649445, -0.029008448123931885, 0.042293328791856766], [-0.5355319380760193, -0.21280966699123383, 0.5691577196121216, 0.07250277698040009, 0.050326086580753326, 0.3265613317489624, 0.17893047630786896, 0.15594661235809326, 0.32807591557502747, 0.2283509075641632, 0.06062319129705429, 0.08655194938182831, 0.4850511848926544, -0.3901776373386383, 0.01962433010339737, -0.3380892872810364, -0.04987160861492157, 0.060374148190021515, -0.11817772686481476, 0.07848087698221207, -0.13775333762168884, 0.1430976837873459, 0.537558913230896, -0.3099731504917145, -0.03303556889295578, 0.023000821471214294, -0.27850741147994995, 0.08666090667247772, -0.49010181427001953, 0.10110082477331161, -0.08820414543151855, -0.1719304621219635, -0.08328384906053543, -0.04654722660779953, 0.002953961491584778, -0.033933140337467194, 0.02781318500638008, -0.30433666706085205, -0.8063784241676331, -0.21821050345897675, 0.20576244592666626, -0.34549856185913086, 0.08922494202852249, 0.2527782917022705, 0.11132729798555374, -0.05824519693851471, -0.03216429427266121, -0.019483907148241997, -0.6633999347686768, 0.03694988787174225, -0.2025916874408722, -0.31980204582214355, 0.2787838280200958, 0.5628830194473267, 0.007988065481185913, 0.18026074767112732, 0.10919422656297684, 0.37599658966064453, 0.30383896827697754, 0.001460932195186615, -0.398994505405426, -0.15248870849609375, 0.4601540267467499, -0.14581452310085297], [0.02438218891620636, -0.03940637409687042, -0.2885811924934387, -0.1365850418806076, 0.2847297191619873, 0.019889287650585175, -0.2672482132911682, 0.033671971410512924, -0.027673624455928802, -0.11095575988292694, -0.782712459564209, 0.20819982886314392, 0.05598882958292961, -0.001622963696718216, 0.47670531272888184, -0.39363861083984375, 0.1605299860239029, 0.03270285576581955, 0.031195618212223053, -0.13348183035850525, 0.04011605307459831, 0.02978847175836563, -0.38954123854637146, 0.14186909794807434, -0.4260321259498596, 0.07617224007844925, 0.34532681107521057, 0.2987052798271179, -0.2749059498310089, 0.42990338802337646, -0.16318871080875397, -0.35948798060417175, -0.13253247737884521, -0.3928544223308563, -0.43716490268707275, 0.1098615974187851, 0.29208168387413025, 0.4474567770957947, 0.12543824315071106, -0.0025544539093971252, 0.32015782594680786, 0.3381190896034241, 0.14682099223136902, 0.3586866557598114, -0.5287730693817139, -0.5849136114120483, -0.11431239545345306, 0.07221828401088715, 0.00240529328584671, -0.3188176155090332, 0.2505989670753479, 0.37767723202705383, -0.3514547049999237, -0.20997148752212524, -0.26346132159233093, -0.849417507648468, 0.07067486643791199, 0.010841064155101776, -0.47556066513061523, -0.32433319091796875, 0.24020051956176758, -0.26111286878585815, -0.12404820322990417, -0.2146400511264801], [0.11397349089384079, 0.09031489491462708, -0.6734788417816162, -0.25849369168281555, -0.05738329142332077, -0.4393131732940674, -0.4034052789211273, -0.010829182341694832, 0.280787855386734, 0.19459682703018188, 0.34839412569999695, 0.3705123960971832, -0.6841521859169006, 0.17694728076457977, 0.32098153233528137, 0.33375874161720276, -0.15149222314357758, -0.5981263518333435, 0.3530620336532593, 0.14348605275154114, 0.11029421538114548, -0.1107197105884552, -0.09999729692935944, 0.1531243622303009, -0.36393365263938904, -0.27231118083000183, -0.15180976688861847, 0.25403308868408203, -0.407296746969223, -0.18655723333358765, 0.3118891417980194, 0.09764435887336731, 0.09317715466022491, -0.1487051248550415, -0.1054786890745163, 0.0704292580485344, 0.18342632055282593, -0.2405843585729599, -0.24105840921401978, -0.33203065395355225, -0.1624830812215805, 0.18605585396289825, -0.2921175956726074, -0.31615394353866577, -0.1084107831120491, 0.036842554807662964, 0.13518990576267242, 0.054776616394519806, 0.16752612590789795, -0.5671038627624512, -0.3062532842159271, -0.2065953016281128, 0.6686462163925171, -0.24555794894695282, -0.1700746715068817, 0.15931062400341034, -0.187814861536026, 0.04111210256814957, -0.25165629386901855, 0.8631153106689453, -0.05257644131779671, 0.18234381079673767, -0.622432291507721, 0.035547152161598206], [-0.46473750472068787, -0.6144392490386963, 0.5225828289985657, 0.1097433939576149, 0.18319639563560486, 0.2902602553367615, -0.09350419044494629, 0.008643142879009247, 0.04322842136025429, 0.27022889256477356, 0.4612584710121155, -0.041771695017814636, 0.23585021495819092, 0.1437995433807373, 0.3201183080673218, 0.3275429308414459, -0.05600909888744354, -0.16322608292102814, 0.13565152883529663, -0.2821800708770752, 0.2931060791015625, 0.8765228390693665, 0.10120716691017151, -0.4828128218650818, 0.11819382011890411, 0.5351358652114868, 0.220161572098732, 0.06254582107067108, -0.4159851372241974, -0.19866380095481873, 0.09534202516078949, -0.10169319808483124, 0.5916637182235718, -0.4211847186088562, -0.47476738691329956, -0.39606016874313354, -0.0424358956515789, 0.11109223961830139, -0.37758153676986694, -0.3064202070236206, 0.005889236927032471, 0.21271660923957825, 0.13355086743831635, 0.0020684748888015747, 0.3374314308166504, -0.04036221653223038, 0.02934214472770691, -0.2172982394695282, 0.03693222999572754, -0.17211143672466278, 0.11497584730386734, -0.1348394751548767, -0.01647862046957016, -0.2781863212585449, -0.24784772098064423, 0.3024808168411255, -0.2618483006954193, 0.20765671133995056, -0.05776429921388626, 0.05927679315209389, 0.006454013288021088, -0.13280633091926575, -0.45001062750816345, 0.126846581697464], [-0.3215477466583252, -0.04301139712333679, 0.04209965467453003, 0.20957107841968536, 0.011372625827789307, 0.16034412384033203, 0.42238306999206543, 0.05803295969963074, -0.1942746341228485, 0.131456196308136, -0.03507821261882782, 0.17583464086055756, -0.18267440795898438, 0.14186474680900574, 0.37138044834136963, 0.02406361699104309, 0.27708083391189575, 0.10554569959640503, 0.01793786883354187, -0.018850184977054596, -0.19541406631469727, 0.08699783682823181, 0.4621849060058594, 0.19412623345851898, 0.011042539030313492, -0.16394107043743134, 0.5671514868736267, -0.47654539346694946, -0.06153174489736557, 0.035281240940093994, -0.14593900740146637, 0.041504353284835815, -0.7122418284416199, 0.14382128417491913, 0.07737845182418823, 0.31597447395324707,