{"layers": [{"type": "linear", "weight": [[0.18460190296173096, -0.24011625349521637, -0.08754636347293854, -0.0725986659526825, -0.31685197353363037, -0.026273611932992935, -0.20886357128620148, -0.17555813491344452, 0.10126195102930069, -0.42061832547187805, -0.14816927909851074, -0.03907356411218643, 0.24474027752876282, 0.21137307584285736, -0.17405998706817627, -0.18316833674907684, -0.2402881681919098, 0.10253652930259705, -0.33114370703697205, -0.01885990984737873, 0.17357277870178223], [-0.12821875512599945, 0.09371909499168396, -0.02406679466366768, 0.06408891081809998, -0.16515707969665527, -0.19866539537906647, 0.1590493768453598, -0.15990032255649567, 0.288627028465271, 0.43867015838623047, -0.02405839040875435, 0.16553954780101776, 0.04543551430106163, 0.06913390010595322, 0.0839470699429512, -0.060994453728199005, -0.18913497030735016, -0.033171072602272034, 0.2214173972606659, 0.03685927018523216, 0.12398751080036163], [0.34395480155944824, -0.035859230905771255, -0.13931095600128174, -0.02228674478828907, -0.2740306854248047, 0.093924380838871, 0.24650029838085175, -0.2764272391796112, 0.03835761919617653, 0.24341924488544464, 0.027221839874982834, -0.20656682550907135, -0.24621477723121643, 0.10434044897556305, -0.30222752690315247, -0.26522737741470337, 0.3484366834163666, 0.026962073519825935, -0.265019029378891, -0.06451785564422607, -0.04687429219484329], [-0.15160158276557922, -0.07730723917484283, -0.05927370861172676, -0.07602005451917648, -0.1325215846300125, -0.40167883038520813, 0.21478742361068726, 0.15451842546463013, -0.3165249824523926, 0.2732345163822174, 0.3619173467159271, 0.11672688275575638, -0.08304315060377121, 0.05413496121764183, -0.050258852541446686, 0.24628078937530518, 0.07028765976428986, 0.19643835723400116, -0.25626930594444275, -0.01784510537981987, 0.30195268988609314], [-0.10224799066781998, 0.16404379904270172, -0.11884039640426636, 0.23255367577075958, 0.17988625168800354, -0.11336934566497803, 0.25965985655784607, 0.10095362365245819, 0.11755833029747009, -0.2778809070587158, 0.14311078190803528, -0.03703915700316429, -0.10194368660449982, 0.23361684381961823, -0.06450533121824265, -0.15915538370609283, -0.14368553459644318, -0.011387784965336323, 0.08941534906625748, -0.0853370875120163, -0.03902233764529228], [0.21084925532341003, 0.2665087580680847, 0.029989412054419518, -0.18695786595344543, 0.04319894686341286, -0.039764534682035446, 0.004205397330224514, 0.007294346112757921, 0.15464983880519867, 0.15851916372776031, 0.13514825701713562, 0.03284416347742081, -0.06860443204641342, 0.08346927165985107, -0.21752512454986572, 0.27234381437301636, 0.18076655268669128, 0.022257689386606216, 0.2162606567144394, 0.06033066287636757, 0.2344200611114502], [0.09058625251054764, 0.05153368040919304, -0.04629829153418541, -0.17151689529418945, 0.20421260595321655, -0.07687370479106903, -0.01815393753349781, -0.008665778674185276, 0.06123557314276695, 0.17284539341926575, -0.2071647197008133, 0.12937988340854645, -0.04499376565217972, 0.16204941272735596, 0.5954819917678833, 0.1901506781578064, -0.05128275603055954, 0.006330522708594799, -0.11748810112476349, 0.10127665102481842, 0.18245279788970947], [0.05234881862998009, -0.23981045186519623, 0.21500641107559204, -0.12521366775035858, 0.19299452006816864, -0.3506900370121002, -0.31773558259010315, 0.06306177377700806, 0.18692076206207275, -0.38251492381095886, -0.17328791320323944, 0.27245160937309265, -0.2950872480869293, 0.29986444115638733, 0.15688472986221313, -0.3131577670574188, 0.45176178216934204, 0.038437262177467346, -0.06178369000554085, 0.04979301244020462, 0.320025235414505], [0.17016224563121796, 0.22622007131576538, 0.35158538818359375, 0.19648860394954681, -0.12027138471603394, -0.017151521518826485, -0.036855533719062805, -0.23239965736865997, -0.17154428362846375, -0.10912618041038513, 0.005961162503808737, -0.0067479913122951984, -0.00018859031843021512, 0.15719161927700043, 0.08262818306684494, -0.14241351187229156, 0.033227503299713135, -0.22190283238887787, 0.09931119531393051, -0.18501043319702148, 0.159837007522583], [0.1633656769990921, 0.2243451178073883, -0.19621632993221283, -0.4064564108848572, -0.060752373188734055, -0.17911390960216522, 0.023814305663108826, 0.2153664529323578, 0.05893683806061745, -0.34743496775627136, 0.1973268985748291, -0.24929215013980865, 0.008574402891099453, -0.12180443108081818, 0.12508632242679596, 0.1771436333656311, -0.0639493465423584, -0.15692856907844543, -0.12112770229578018, 0.183269202709198, 0.06260701268911362], [-0.17834456264972687, 0.352802574634552, -0.08749675005674362, -0.049130573868751526, -0.08753907680511475, -0.25197577476501465, 0.13380166888237, -0.20329423248767853, 0.3052675127983093, -0.22024910151958466, -0.2719566822052002, -0.07738176733255386, 0.43408453464508057, -0.04677363857626915, -0.029755931347608566, -0.01322752982378006, 0.20688866078853607, 0.1506403237581253, -0.18321898579597473, 0.3512781858444214, 0.0027652711141854525], [-0.1251336932182312, 0.27847445011138916, -0.30119389295578003, -0.0601833313703537, 0.022872356697916985, 0.17730334401130676, 0.044151920825242996, 0.03685523569583893, -0.16016368567943573, 0.19896359741687775, -0.2599252462387085, -0.12309132516384125, -0.3201364576816559, -0.08825422078371048, 0.1696566790342331, -0.003500364487990737, -0.03581791743636131, 0.10871686041355133, -0.07091276347637177, -0.127260223031044, 0.10937491059303284], [-0.04487597569823265, 0.1534901261329651, -0.056080009788274765, 0.17922653257846832, 0.15351057052612305, 0.26032429933547974, -0.2785411477088928, 0.08248746395111084, 0.07373567670583725, 0.08084986358880997, -0.012785209342837334, 0.31058090925216675, 0.0013938207412138581, 0.15835514664649963, -0.11531440913677216, -0.0944833904504776, 0.06141548603773117, 0.09317389130592346, -0.11543985456228256, 0.06169668212532997, 0.06924629956483841], [-0.13528256118297577, -0.08933642506599426, -0.031156256794929504, 0.1926729679107666, 0.20524044334888458, -0.11037688702344894, 0.016099989414215088, -0.0267406664788723, 0.012795545160770416, 0.11833859980106354, 0.062457695603370667, 0.07711111754179001, 0.2754008173942566, -0.39321306347846985, 0.004071288742125034, -0.3190292418003082, -0.009268141351640224, 0.3808010518550873, 0.05750955268740654, 0.01322401873767376, 0.1453256607055664], [0.242921844124794, -0.22101415693759918, 0.3594628870487213, 0.04999937117099762, -0.16309604048728943, 0.12599162757396698, 0.10680343210697174, 0.19301463663578033, 0.277522474527359, 0.2301565408706665, 0.1297089010477066, 0.0696922093629837, 0.22153609991073608, 0.11264028400182724, 0.470021516084671, 0.10400979965925217, 0.0005116331158205867, 0.07764317095279694, 0.2396268993616104, 0.12542885541915894, 0.0948476791381836], [-0.15771442651748657, -0.15459594130516052, -0.04799146205186844, -0.4581453204154968, 0.1368611454963684, 0.15434731543064117, 0.3523387014865875, -0.07569743692874908, -0.25757095217704773, 0.20985013246536255, 0.032747991383075714, 0.2461140900850296, 0.29252687096595764, 0.17946752905845642, 0.027756042778491974, 0.010806655511260033, -0.060363102704286575, 0.33762845396995544, -0.18674126267433167, -0.007024222984910011, -0.22216710448265076], [0.30466458201408386, 0.34978100657463074, -0.005074437707662582, 0.1316918581724167, 0.042639896273612976, 0.008026143535971642, -0.1607024073600769, 0.3157818615436554, -0.031781718134880066, 0.05082942917943001, -0.014637446962296963, -0.08404485881328583, -0.26461777091026306, 0.1303654909133911, -0.20081840455532074, -0.008236877620220184, 0.08067446947097778, 0.334378182888031, -0.2102280706167221, -0.0037390103098005056, 0.24030113220214844], [0.16516292095184326, -0.24958357214927673, -0.07211434841156006, 0.06517575681209564, 0.016124313697218895, 0.06816016882658005, -0.010739372111856937, 0.08797311037778854, -0.027639873325824738, 0.2666690945625305, -0.2702506482601166, -0.23626992106437683, 0.33219337463378906, -0.07757934927940369, 0.12318115681409836, 0.16425979137420654, -0.0821893960237503, 0.21587638556957245, 0.10743124037981033, 0.14220400154590607, 0.21352066099643707], [0.22348281741142273, -0.04180458188056946, 0.03220745921134949, 0.13041891157627106, -0.16082316637039185, 0.143840491771698, 0.008716548793017864, 0.05961139500141144, 0.0982978567481041, -0.22020691633224487, -0.03905779868364334, -0.0380038246512413, 0.3322092890739441, 0.2749116122722626, -0.1469002068042755, 0.31254643201828003, 0.18297864496707916, -0.13493332266807556, 0.02847912535071373, 0.3392813801765442, 0.0835011675953865], [-0.09042458236217499, -0.0844324380159378, -0.3367048501968384, 0.1485218107700348, 0.35551342368125916, -0.08455782383680344, -0.05315680429339409, -0.19033385813236237, 0.2263319194316864, 0.1398347169160843, 0.15972155332565308, -0.21285557746887207, 0.06972973048686981, 0.028273988515138626, -0.03744688257575035, -0.16207483410835266, -0.05517475679516792, -0.19533610343933105, -0.054322898387908936, 0.19993679225444794, 0.25947681069374084], [0.06616972386837006, 0.10444876551628113, -0.1283605843782425, 0.11256427317857742, -0.18825243413448334, 0.2609851062297821, -0.22539864480495453, -0.008565637283027172, -0.49277278780937195, 0.06065317988395691, -0.24677464365959167, 0.28210392594337463, 0.06963334232568741, -0.09157774597406387, -0.2187269777059555, -0.012225459329783916, 0.08807452023029327, 0.13662542402744293, -0.02348482608795166, 0.1792086660861969, 0.007434144150465727], [0.0489545576274395, 0.008903298527002335, -0.08848291635513306, -0.054690465331077576, -0.19229143857955933, 0.10322608053684235, -0.054064925760030746, 0.04932218790054321, -0.12344610691070557, -0.14450930058956146, 0.10482162237167358, 0.0861186683177948, 0.012796434573829174, -0.12839044630527496, -0.13875792920589447, -0.16806110739707947, -0.11982499808073044, 0.20162607729434967, 0.10965247452259064, 0.5018908977508545, -0.0034782742150127888], [0.12920010089874268, 0.05737685784697533, -0.12330212444067001, 0.4821450114250183, 0.16135501861572266, -0.12164757400751114, -0.16864807903766632, 0.08756966888904572, 0.040540698915719986, -0.04746291786432266, -0.11274881660938263, 0.10081138461828232, 0.10931967198848724, -0.010633748024702072, 0.06567741185426712, -0.22697646915912628, -0.05015569552779198, 0.17196571826934814, 0.001319279195740819, 0.22958159446716309, -0.3075070083141327], [-0.18919631838798523, -0.10856655985116959, -0.32909971475601196, 0.1917852759361267, -0.015206309966742992, 0.015439588576555252, -0.11536851525306702, 0.12718568742275238, 0.1420678049325943, 0.11903700232505798, -0.13338859379291534, -0.29943403601646423, 0.08827553689479828, 0.18218576908111572, 0.10384780168533325, -0.09515753388404846, 0.17584891617298126, -0.01865328475832939, 0.27412450313568115, -0.4296157956123352, -0.027222193777561188], [0.09438446164131165, -0.16496005654335022, -0.04247581958770752, 0.048467569053173065, -0.040651921182870865, 0.02730107307434082, 0.2017148733139038, -0.20835529267787933, 0.23300722241401672, -0.32102566957473755, 0.2009405493736267, 0.10892311483621597, -0.2080780267715454, -0.27524903416633606, -0.23249150812625885, 0.11385663598775864, 0.22255194187164307, 0.16389669477939606, 0.39487579464912415, -0.09487074613571167, -0.05929270759224892], [0.1521448791027069, -0.005504049360752106, 0.22532783448696136, -0.15705755352973938, 0.15016573667526245, -0.05337957292795181, -0.17210331559181213, -0.09158506244421005, -0.12569352984428406, -0.03594459965825081, 0.1784653514623642, 0.30138522386550903, -0.1702018827199936, -0.14934438467025757, 0.13212445378303528, 0.3270758092403412, 0.031210459768772125, 0.10930489748716354, 0.050342150032520294, 0.1302771121263504, -0.23432178795337677], [-0.13217774033546448, -0.09230322390794754, -0.19990526139736176, -0.04507273808121681, -0.15685327351093292, -0.31212854385375977, 0.18353435397148132, 0.043028295040130615, -0.27667710185050964, 0.1291522979736328, -0.12349045276641846, -0.17937742173671722, 0.19210676848888397, -0.6427854299545288, 0.12870411574840546, -0.2377716302871704, 0.027625640854239464, -0.022291526198387146, 0.014066598378121853, 0.052034761756658554, 0.2101030796766281], [-0.12572869658470154, 0.25384703278541565, -0.0329006053507328, 0.13449178636074066, -0.20051626861095428, 0.2719683349132538, 0.27535322308540344, -0.2763102948665619, 0.10956164449453354, -0.04483836889266968, -0.0839213877916336, 0.32915163040161133, -0.05008090287446976, -0.17384998500347137, 0.007724829018115997, -0.11443433165550232, -1.9443858036538586e-05, -0.33557915687561035, -0.18942959606647491, 0.27665963768959045, 0.0366094745695591], [-0.04973066970705986, 0.1828315407037735, -0.20502997934818268, -0.21476736664772034, 0.015620698221027851, 0.16239196062088013, 0.001076410640962422, -0.13123850524425507, -0.05168187990784645, -0.31454628705978394, -0.03614535927772522, -0.1022762805223465, 0.0018225847743451595, -0.14345255494117737, 0.30086687207221985, -0.3425822854042053, -0.1278505027294159, 0.1000046581029892, 0.23159542679786682, 0.035332195460796356, -0.28059303760528564], [0.12010544538497925, -0.21749156713485718, -0.08712263405323029, -0.20589488744735718, -0.1961449384689331, 0.02833925187587738, -0.14608100056648254, 0.31759774684906006, 0.07148050516843796, -0.08825026452541351, -0.04383857548236847, 0.23996762931346893, 0.042627692222595215, -0.12687574326992035, -0.2500952482223511, -0.3810075521469116, -0.2641621530056, -0.09445284307003021, 0.36524635553359985, 0.04880145937204361, 0.11785461008548737], [-0.07322346419095993, -0.24084195494651794, -0.13479207456111908, -0.03461693599820137, 0.43090230226516724, 0.11783202737569809, 0.13771525025367737, -0.06381937116384506, -0.2635877728462219, -0.05669263005256653, -0.14548802375793457, -0.02308894321322441, 0.14829547703266144, -0.03430144116282463, -0.19849039614200592, -0.22643831372261047, -0.1031845360994339, -0.03812927380204201, 0.025775710120797157, -0.16444732248783112, 0.15837380290031433], [-0.21000191569328308, -0.03024645335972309, -0.23440994322299957, -0.16199998557567596, 0.22694309055805206, -0.10702227056026459, 0.21430186927318573, 0.12683416903018951, -0.07256213575601578, -0.02982858568429947, -0.34632450342178345, 0.10610047727823257, -0.05901467427611351, 0.12033923715353012, -0.19498781859874725, 0.23410449922084808, 0.04557107016444206, -0.1950211524963379, 0.1143159419298172, 0.24136929214000702, -0.1734994798898697], [-0.36919528245925903, 0.22074994444847107, -0.4405186176300049, 0.05180712789297104, -0.005953765939921141, 0.21481461822986603, 0.04371689260005951, -0.023678330704569817, -0.01136791706085205, -0.33835369348526, 0.24500827491283417, -0.015766805037856102, 0.21791376173496246, -0.027617301791906357, 0.25719162821769714, -0.20984214544296265, -0.05113627016544342, 0.08133564889431, -0.05107199773192406, 0.047973036766052246, -0.010552093386650085], [0.21241892874240875, -0.28870731592178345, -0.0897725522518158, 0.11183637380599976, -0.11133415251970291, 0.29492613673210144, -0.1608731746673584, 0.27517908811569214, 0.1345304697751999, -0.00673179654404521, 0.035216834396123886, 0.029435107484459877, 0.11336325109004974, -0.21312294900417328, 0.12852789461612701, 0.22793377935886383, -0.04764939472079277, -0.10582716017961502, -0.17819520831108093, 0.01771210879087448, 0.0817905068397522], [-0.06674284487962723, -0.2182462364435196, -0.1828044354915619, -0.0939292386174202, 0.3213003873825073, -0.06218155100941658, -0.07994026690721512, 0.2120916098356247, -0.20296312868595123, -0.17024530470371246, 0.12998539209365845, 0.17516838014125824, 0.05710317939519882, -0.03631032258272171, -0.19703365862369537, -0.24956539273262024, -0.05931534618139267, -0.02830883488059044, 0.049960311502218246, 0.22817416489124298, 0.050378505140542984], [0.15650732815265656, 0.26656630635261536, -0.015109071508049965, 0.12824362516403198, 0.1626565009355545, -0.19329306483268738, 0.020782774314284325, 0.22601425647735596, 0.0310805793851614, -0.06898250430822372, -0.07606587558984756, -0.01576307602226734, 0.11081594228744507, -0.10658539086580276, -0.010660456493496895, -0.14941860735416412, -0.22279709577560425, -0.10293682664632797, 0.08999854326248169, -0.09268959611654282, 0.03544232249259949], [0.45414891839027405, -0.08909863233566284, 0.00945665966719389, 0.24307432770729065, 0.017352920025587082, 0.11686806380748749, 0.0614459365606308, -0.3505811095237732, -0.10718154162168503, 0.05672451853752136, 0.15860320627689362, -0.06647190451622009, -0.2150210738182068, 0.06349670141935349, 0.05797574669122696, -0.27541449666023254, -0.2206980586051941, 0.40579521656036377, -0.08445257693529129, 0.1996932178735733, 0.2553040087223053], [-0.02314198948442936, 0.16751162707805634, -0.1566333770751953, -0.017334213480353355, -0.0277162604033947, -0.25874796509742737, 0.24577906727790833, 0.18610988557338715, -0.03894320875406265, 0.30318599939346313, 0.0671970397233963, 0.1793752759695053, 0.2640264928340912, 0.327021062374115, -0.15372028946876526, -0.1269637793302536, 0.17152224481105804, -0.10517451912164688, 0.12006430327892303, 0.0494534969329834, -0.14138223230838776], [0.08956856280565262, -0.4104413390159607, -0.10692884027957916, 0.1502106636762619, -0.23516002297401428, -0.41725847125053406, 0.17019549012184143, 0.07492168247699738, -0.044903650879859924, -0.0960191860795021, 0.11471313238143921, -0.25113072991371155, -0.08371855318546295, 0.2574612498283386, -0.07990994304418564, 0.09654723107814789, -0.12560458481311798, -0.020276859402656555, -0.06946827471256256, 0.12391706556081772, -0.20598424971103668], [0.16011656820774078, 0.16542688012123108, -0.17400451004505157, -0.06184772774577141, 0.10897152125835419, -0.09667178988456726, -0.17381276190280914, -0.1254209727048874, -0.16834333539009094, -0.06615102291107178, 0.376105397939682, 0.15391455590724945, 0.40632009506225586, -0.1553821712732315, -0.06594138592481613, 0.1873481720685959, -0.24292688071727753, 0.09250341355800629, -0.07957731932401657, -0.4589068293571472, -0.22085919976234436], [0.18456584215164185, 0.12157968431711197, 0.16259659826755524, 0.1517181545495987, 0.060334671288728714, -0.1997508704662323, -0.08043050020933151, -0.03170517459511757, 0.30213162302970886, 0.10475396364927292, 0.06456277519464493, -0.026482880115509033, -0.0032025373075157404, -0.18462078273296356, -0.04803222045302391, -0.010047107934951782, -0.04684748873114586, -0.014888930134475231, -0.4080621004104614, -0.23143596947193146, -0.06888830661773682], [0.29121682047843933, 0.029064472764730453, -0.23533646762371063, -0.303616464138031, -0.21445614099502563, -0.1237403079867363, -0.21245193481445312, -0.017618026584386826, -0.07801766693592072, -0.06666025519371033, -0.09638860821723938, 0.14053462445735931, 0.37400561571121216, 0.07636305689811707, 0.25298428535461426, -0.34397369623184204, 0.2656650245189667, 0.029588686302304268, 0.13727933168411255, -0.3594647943973541, -0.20086698234081268], [-0.34670501947402954, 0.12501119077205658, -0.0007744061294943094, 0.10179312527179718, -0.28816500306129456, 0.31108200550079346, 0.026541665196418762, 0.34579211473464966, 0.013556289486587048, -0.21183030307292938, 0.39181700348854065, -0.0690787136554718, -0.09922653436660767, 0.188081756234169, 0.04887119680643082, -0.04620980843901634, -0.15011249482631683, 0.08252409100532532, 0.11589657515287399, -0.16314084827899933, 0.3466752767562866], [-0.21342451870441437, -0.32554343342781067, -0.2100330889225006, 0.02847793698310852, -0.21487641334533691, 0.04802600294351578, -0.2521058917045593, -0.15725773572921753, -0.08414400368928909, 0.1391938030719757, 0.2935701608657837, 0.2820596396923065, -0.01169718336313963, 0.25053033232688904, 0.09969519823789597, 0.05123137682676315, 0.2867092788219452, -0.24593129754066467, -0.1105136051774025, -0.10201003402471542, -0.008352640084922314], [-0.1305798888206482, 0.12976330518722534, 0.034531477838754654, 0.16338440775871277, 0.09114675968885422, -0.13393397629261017, -0.10532218217849731, -0.25573647022247314, -0.2266620695590973, -0.06253858655691147, -0.010136826895177364, 0.3033857047557831, 0.13700515031814575, 0.046254176646471024, 0.05442521721124649, 0.08802282065153122, 0.032022424042224884, -0.3272102177143097, 0.01288529671728611, 0.03727395832538605, 0.37117302417755127], [-0.13825799524784088, -0.08299761265516281, -0.14387992024421692, -0.04299056902527809, -0.232488751411438, 0.11810512840747833, 0.15297695994377136, 0.138179749250412, 0.016919046640396118, -0.09450720995664597, -0.13924454152584076, 0.16835568845272064, 0.01982215978205204, -0.02374197170138359, 0.2206876575946808, -0.13290905952453613, 0.031969647854566574, 0.21815776824951172, -0.03270426020026207, -0.10131853073835373, 0.23145096004009247], [-0.2819347381591797, -0.1707860827445984, 0.3580467402935028, 0.022969214245676994, 0.2649295926094055, 0.21300426125526428, -0.1320137083530426, -0.032119717448949814, -0.014773138798773289, 0.10829347372055054, 0.08305390179157257, -0.16202223300933838, 0.17682749032974243, 0.3346238136291504, 0.012157435528934002, 0.07554975897073746, -0.026271022856235504, -0.09885737299919128, -0.37516337633132935, -0.04642897844314575, 0.12267374247312546], [0.0033043709117919207, 0.12692657113075256, -0.4040478765964508, 0.14838287234306335, -0.0850541889667511, -0.17635133862495422, -0.06544575840234756, -0.1596999317407608, 0.035839129239320755, -0.0874219536781311, 0.15447311103343964, 0.08493975549936295, 0.12187758088111877, 0.021210456266999245, 0.15614555776119232, 0.5102723836898804, -0.11480848491191864, 0.11256803572177887, -0.10226676613092422, -0.04862768203020096, 0.18631592392921448], [-0.26092803478240967, -0.12594753503799438, -0.1829327940940857, -0.2634666860103607, -0.18197974562644958, 0.10065235197544098, -0.22191640734672546, 0.10303296893835068, 0.04315759986639023, -0.07102338969707489, -0.050806593149900436, -0.13100175559520721, -0.16046522557735443, -0.2851458787918091, -0.10614769160747528, -0.0756516084074974, 0.22415144741535187, -0.033977046608924866, -0.10769118368625641, 0.030065948143601418, 0.07331260293722153], [0.2811514437198639, 0.10229870676994324, 0.07671423256397247, -0.41745683550834656, 0.24609139561653137, 0.40352964401245117, 0.33140552043914795, 0.046080201864242554, 0.18096879124641418, 0.09611359983682632, 0.08260122686624527, -0.04387868568301201, 0.1383160501718521, -0.030720459297299385, -0.12236934155225754, 0.08561558276414871, 0.026452407240867615, -0.21592456102371216, 0.07118731737136841, -0.09656419605016708, 0.34401509165763855], [-0.07427459955215454, -0.0019379239529371262, -0.0008635082049295306, -0.018416205421090126, 0.04084084555506706, -0.0012421214487403631, -0.09372603893280029, 0.3066202402114868, 0.12795472145080566, 0.005709594581276178, 0.11233822256326675, -0.0264861099421978, 0.20684143900871277, -0.020580649375915527, -0.40096941590309143, 0.10560958087444305, 0.10851938277482986, 0.07391572743654251, -0.04603740572929382, -0.07155180722475052, 0.08041250705718994], [0.004951824434101582, 0.027449246495962143, -0.05945701152086258, 0.07610078901052475, 0.2720489203929901, 0.1280195415019989, -0.11297400295734406, 0.2818004786968231, 0.10387915372848511, -0.11784295737743378, -0.18520498275756836, -0.02194797992706299, 0.07708468288183212, -0.2918100357055664, 0.014689318835735321, 0.09760655462741852, 0.1437775045633316, -0.012195157818496227, -0.30139192938804626, -0.07762375473976135, -0.17518125474452972], [0.11067871004343033, 0.13582728803157806, -0.16576942801475525, 0.029873792082071304, -0.07235529273748398, -0.00437568873167038, -0.12773454189300537, -0.20144978165626526, -0.13455697894096375, -0.00820207316428423, -0.138982355594635, 0.05114356055855751, 0.20415684580802917, -0.21049576997756958, -0.2097851037979126, -0.0032737792935222387, 0.03085099533200264, -0.28613126277923584, 0.1298971176147461, -0.2670643627643585, 0.20219780504703522], [0.17304174602031708, -0.07757661491632462, -0.022327063605189323, 0.027866994962096214, 0.34911438822746277, 0.0021966577041894197, 0.1529768854379654, -0.16849319636821747, 0.0314197801053524, -0.2872786521911621, 0.14760196208953857, -0.07304801791906357, -0.0549522303044796, -0.036454081535339355, 0.058077484369277954, -0.037130869925022125, 0.5501621961593628, 0.30782264471054077, 0.12638241052627563, -0.057046882808208466, 0.17029236257076263], [0.19302910566329956, 0.0022015604190528393, -0.040117088705301285, -0.04123508930206299, -0.10660910606384277, -0.18536803126335144, 0.3076428771018982, 0.26021870970726013, -0.002541119931265712, -0.24996398389339447, -0.39659637212753296, 0.34614062309265137, -0.1584153175354004, -0.14024865627288818, 0.00746405404061079, -0.22889959812164307, -0.25839483737945557, 0.0002742782235145569, -0.3014014959335327, -0.23573511838912964, 0.11984801292419434], [0.19843119382858276, 0.024805089458823204, -0.45740577578544617, -0.14995253086090088, 0.10714905709028244, -0.05348529666662216, -0.19949233531951904, -0.02207377552986145, 0.3567165434360504, 0.2995186746120453, 0.19569556415081024, 0.31996360421180725, -0.25224241614341736, 0.07735472172498703, 0.03220411762595177, 0.07878009229898453, -0.11869840323925018, -0.03940180689096451, 0.06951653212308884, 0.05025366693735123, 0.07645101845264435], [0.41120633482933044, -0.32017529010772705, -0.16213177144527435, 0.4468608498573303, 0.013745221309363842, 0.1784667670726776, 0.40307876467704773, 0.0884348526597023, -0.0021915752440690994, -0.16035550832748413, -0.011584128253161907, 0.13731257617473602, -0.14760929346084595, -0.122782401740551, 0.15664267539978027, 0.018344398587942123, 0.26754212379455566, -0.38971543312072754, -0.21805158257484436, -0.024859173223376274, -0.12392596900463104], [-0.14587944746017456, -0.0367271825671196, 0.4393228590488434, 0.1524258852005005, -0.12724265456199646, -0.2371845245361328, -0.08998481929302216, 0.1648632138967514, -0.04421320557594299, 0.036356788128614426, 0.1754000037908554, 0.13391666114330292, -0.09243185073137283, -0.3170537054538727, -0.023958148434758186, -0.04404514282941818, 0.1725272834300995, -0.1361234337091446, 0.03499993681907654, 0.041327472776174545, 0.11290725320577621], [0.3207608461380005, -0.13498535752296448, -0.07407517731189728, 0.1912737786769867, 0.18219344317913055, -0.019821196794509888, 0.26901209354400635, 0.17434853315353394, -0.23766422271728516, -0.19515691697597504, 0.19601188600063324, 0.12112141400575638, -0.14271698892116547, -0.06564192473888397, 0.15853287279605865, -0.14172673225402832, -0.09987404942512512, -0.1761571764945984, 0.044456399977207184, 0.03193223848938942, 0.017154503613710403], [0.16807428002357483, -0.3204290270805359, 0.2106674313545227, -0.1529664546251297, 0.05849156528711319, -0.11347702145576477, -0.13820591568946838, -0.2124028354883194, 0.017202062532305717, -0.04234742373228073, -0.0458824522793293, -0.0965610072016716, -0.2654457986354828, 0.171434223651886, -0.1492060124874115, 0.007516945246607065, -0.5194311738014221, -0.17597338557243347, 0.0013139165239408612, -0.02153576724231243, 0.06160135939717293], [-0.10567446798086166, -0.09322631359100342, 0.028868844732642174, 0.2965449094772339, -0.03899400681257248, -0.003780931234359741, 0.039180364459753036, -0.09589629620313644, 0.04857049882411957, -0.03960641846060753, -0.39474037289619446, 0.1591256856918335, -0.23758719861507416, 0.25988009572029114, -0.06498808413743973, 0.653077244758606, -0.04201725125312805, 0.3129895031452179, 0.293928861618042, -0.2337660938501358, 0.06331486254930496], [-0.16142313182353973, -0.05017358809709549, -0.04248728230595589, 0.09221591055393219, 0.07637117058038712, 0.05873766168951988, -0.00921893771737814, -0.13845503330230713, 0.1526937633752823, -0.10627985745668411, -0.02573772892355919, 0.20858854055404663, 0.32898250222206116, -0.16686192154884338, -0.14527928829193115, -0.10999652743339539, -0.08328038454055786, 0.05604471638798714, 0.17756623029708862, 0.012388472445309162, 0.0027993563562631607], [0.0913262888789177, 0.20787642896175385, -0.173455610871315, 0.1169714704155922, 0.024631498381495476, 0.04843810200691223, -0.29579493403434753, 0.13924868404865265, -0.1286676526069641, 0.2281073033809662, 0.06825067102909088, -0.12168612331151962, -0.1109561175107956, 0.009781640954315662, 0.10106199979782104, -0.13416670262813568, 0.006414264906197786, -0.11579108983278275, 0.0916762501001358, 0.22811098396778107, -0.25445860624313354], [0.11588673293590546, -0.1353863626718521, -0.08268015086650848, 0.010751006193459034, 0.04414725676178932, -0.09493784606456757, -0.2714855968952179, -0.14940933883190155, -0.3963069021701813, -0.11681994050741196, -0.06161365285515785, -0.37658095359802246, -0.0625925287604332, 0.04092920944094658, 0.12544052302837372, 0.12471742182970047, 0.09053921699523926, -0.20327062904834747, 0.24919062852859497, 0.16581659018993378, 0.25077518820762634]], "bias": [-0.013138987123966217, 0.019587846472859383, -0.017480572685599327, 0.021019767969846725, -0.00431700749322772, -0.0116501459851861, 0.003262181533500552, -0.04020228609442711, -0.014881405048072338, 0.03339141607284546, 0.002214091597124934, 0.0406721867620945, -0.006547237280756235, 0.0353664830327034, -0.02440876141190529, 0.028576873242855072, -0.02621898055076599, -0.006177928764373064, -0.018718114122748375, 0.005859690718352795, 0.012162483297288418, 0.0018072319217026234, 0.013819146901369095, -2.1967563952784985e-05, -0.03236979991197586, -0.0226693544536829, 0.04385869577527046, 0.053276799619197845, 0.03801102191209793, -0.002551317447796464, 0.02273724041879177, 0.02341294474899769, 0.03670350834727287, 0.012572386302053928, -0.01350174006074667, 0.020735731348395348, -0.021401522681117058, 0.03731023892760277, -0.044812582433223724, 0.019543055444955826, -0.021116668358445168, 0.0077731432393193245, -0.005142415873706341, -0.047693993896245956, -0.0046602822840213776, 0.0329250767827034, -0.030624672770500183, 0.04295383393764496, -0.0068270014598965645, 0.018307650461792946, 0.005340996198356152, 0.03522158041596413, 0.0425533801317215, -0.00222961837425828, 0.028082819655537605, 0.029154406860470772, -0.0041894991882145405, -0.02254837192595005, -0.02408871240913868, -0.010144596919417381, 0.005290403496474028, 0.019937599077820778, -0.037641726434230804, -0.009506521746516228]}, {"type": "tanh"}, {"type": "linear", "weight": [[-0.3731394112110138, -0.007200525142252445, -0.02209262177348137, 0.015125726349651814, -0.27477139234542847, 0.019534070044755936, -0.24833694100379944, 0.12570039927959442, -0.1376650482416153, 0.025965657085180283, -0.3328405022621155, 0.18500541150569916, -0.012776393443346024, 0.0531546026468277, 0.22448936104774475, 0.1013343334197998, 0.0512256845831871, 0.25971683859825134, 0.21527796983718872, 0.03206633776426315, 0.4027509093284607, 0.07350600510835648, 0.20363546907901764, -0.2280946522951126, 0.17233403027057648, 0.2504774034023285, -0.07323990762233734, 0.08269152790307999, 0.06743711233139038, -0.2483227550983429, -0.1218249574303627, -0.2244141399860382, -0.22477082908153534, -0.2900617718696594, -0.34179753065109253, -0.026170343160629272, -0.16507811844348907, -0.195232555270195, 0.16758227348327637, -0.07289071381092072, -0.03023969568312168, -0.1343497931957245, 0.06046127527952194, 0.030623044818639755, -0.04059905186295509, 0.2823759615421295, 0.05158066004514694, -0.030590223148465157, -0.22721615433692932, -0.2185392826795578, -0.12282384186983109, 0.20059025287628174, 0.07119657844305038, 0.04248705133795738, -0.20233304798603058, 0.22819598019123077, 0.046609848737716675, 0.09639239311218262, 0.3333018124103546, -0.023525604978203773, -0.16235913336277008, -0.22920124232769012, 0.0505928210914135, -0.07124877721071243], [0.04873490706086159, -0.06685414165258408, -0.10517456382513046, -0.21796831488609314, 0.14457686245441437, -0.08305086940526962, -0.08881726115942001, 0.10124615579843521, -0.133405402302742, 0.1592528373003006, -0.11672957986593246, 0.07801452279090881, -0.18457955121994019, -0.1479819267988205, -0.022326339036226273, 0.32305577397346497, -0.0878753587603569, -0.18843047320842743, -0.49851563572883606, -0.0017895966302603483, 0.1722439080476761, 0.014242042787373066, 0.039267659187316895, 0.09554670751094818, 0.22611552476882935, 0.1776057779788971, -0.30193251371383667, 0.11764296144247055, 0.08134622126817703, -0.0015830418560653925, 0.13665831089019775, 0.2638603448867798, -0.15488989651203156, 0.30033737421035767, -0.23046287894248962, -0.19063405692577362, 0.04043188691139221, -0.36997881531715393, 0.09548800438642502, -0.15707598626613617, 0.03897787630558014, -0.033701442182064056, 0.057748645544052124, 0.11972104012966156, -0.05095544829964638, -0.02990671433508396, 0.0396246463060379, 0.26055052876472473, 0.25510185956954956, 0.08341048657894135, -0.0898624137043953, 0.047070760279893875, 0.1567114293575287, 0.2880486845970154, -0.13635721802711487, -0.3108542263507843, -0.13752955198287964, -0.2777543365955353, 0.0462958961725235, -0.09384232014417648, -0.23407503962516785, 0.22565479576587677, 0.17755815386772156, 0.23230783641338348], [-0.2614626884460449, 0.014919016510248184, -0.16192160546779633, 0.17694860696792603, 0.08086034655570984, 0.07107482850551605, 0.33330678939819336, -0.028133809566497803, 0.07523983716964722, 0.13801604509353638, 0.2675187587738037, -0.009534401819109917, -0.15118345618247986, 0.1882573366165161, 0.02923959121108055, 0.289422869682312, 0.2107972949743271, 0.21201489865779877, -0.23714691400527954, -0.06601274013519287, 0.23448292911052704, 0.16436438262462616, 0.05824563279747963, -0.12326252460479736, -0.12705190479755402, 0.109009750187397, 0.13281755149364471, -0.2987072467803955, 0.24087920784950256, 0.017016874626278877, -0.28725317120552063, -0.324686735868454, 0.07142271846532822, 0.15221384167671204, -0.1672804057598114, 0.2042389214038849, 0.12571923434734344, 0.4397411346435547, -0.06667519360780716, 0.009875881485641003, 0.06400031596422195, 0.2583179771900177, -0.21068929135799408, 0.15889379382133484, 0.012191934511065483, 0.038897205144166946, 0.015100161544978619, 0.05655485764145851, 0.0736003965139389, 0.3086244463920593, 0.09425844997167587, 0.10584580153226852, -0.2543160617351532, -0.15951862931251526, -0.2767167389392853, -0.26641833782196045, 0.022519193589687347, -0.14748764038085938, 0.008663086220622063, 0.16540981829166412, -0.2786710560321808, 0.10882168263196945, -0.08795143663883209, -0.06061152368783951], [-0.2732134461402893, -0.05840571969747543, 0.11414610594511032, 0.19567660987377167, -0.145172581076622, 0.3198342025279999, 0.15722525119781494, 0.1148611530661583, 0.07020813971757889, -0.13403329253196716, -0.10511430352926254, -0.31254854798316956, -0.139145165681839, -0.14900924265384674, -0.07637615501880646, 0.25348961353302, -0.20827826857566833, 0.09015663713216782, 0.3110724091529846, 0.13325048983097076, -0.0077236248180270195, 0.08877389132976532, 0.06652253866195679, -0.011425293050706387, -0.18901732563972473, 0.021271508187055588, -0.26378950476646423, -0.09659366309642792, -0.25191015005111694, -0.03457393869757652, -0.06734887510538101, 0.3535301089286804, 0.4995426535606384, 0.012892685830593109, -0.3778553307056427, 0.17232565581798553, 0.20235992968082428, -0.1956229954957962, 0.055254414677619934, -0.2517108619213104, 0.3039102852344513, -0.18745467066764832, -0.29751017689704895, 0.2698986828327179, -0.12136510014533997, -0.10969052463769913, 0.2244569957256317, 0.1353408694267273, -0.1142108142375946, 0.0018375738291069865, -0.03700212761759758, -0.16341525316238403, -0.09639709442853928, 0.11786860227584839, 0.1071193590760231, 0.014573403634130955, -0.04655231162905693, 0.13916939496994019, -0.13168789446353912, 0.0644441694021225, 0.18111056089401245, -0.09896092861890793, 0.15334875881671906, -0.02767646312713623], [0.002807938028126955, -0.20633575320243835, 0.19701974093914032, -0.018980499356985092, 0.19547434151172638, -0.03152760490775108, 0.15799495577812195, -0.13840483129024506, -0.07439713925123215, -0.1187841072678566, -0.07298679649829865, -0.23922735452651978, 0.12707656621932983, 0.06891563534736633, 0.11848469823598862, -0.07563835382461548, -0.19046568870544434, -0.05080559104681015, 0.2059841752052307, -0.08618209511041641, 0.006584377493709326, -0.1283618062734604, 0.06321490556001663, 0.32092738151550293, 0.1906811147928238, 0.13179275393486023, 0.28003495931625366, -0.11967030167579651, 0.13772709667682648, 0.005562768783420324, 0.24723614752292633, -0.16471333801746368, 0.12045182287693024, 0.2019139975309372, -0.13213036954402924, 0.24604329466819763, -0.4524591267108917, -0.20567409694194794, -0.21409228444099426, -0.04325468838214874, 0.15235134959220886, 0.06591930985450745, -0.023087210953235626, 0.32074329257011414, 0.24717479944229126, 0.1048067957162857, -0.4084365963935852, 0.26545408368110657, 0.025754136964678764, -0.13311992585659027, 0.06393983960151672, 0.15582647919654846, 0.18670500814914703, -0.3607092797756195, 0.062218960374593735, -0.28661417961120605, 0.275076299905777, 0.05419135093688965, 0.20534725487232208, -0.1376389116048813, -0.11287101358175278, 0.0768444612622261, -0.09888102114200592, 0.006738774012774229], [-0.004066190682351589, 0.08408405631780624, 0.12331923097372055, 0.17461788654327393, -0.5099072456359863, 0.3378184139728546, -0.07380016893148422, 0.0910051092505455, -0.09973543137311935, 0.05570955201983452, 0.22307565808296204, -0.03586462140083313, -0.19511066377162933, -0.15516534447669983, 0.13782687485218048, 0.022716201841831207, -0.09505309164524078, 0.05522102490067482, -0.2508663237094879, -0.25788700580596924, -0.12683230638504028, -0.11974776536226273, 0.02990506961941719, -0.013267351314425468, 0.05356617271900177, -0.1381329596042633, -0.2365674376487732, 0.00895637646317482, -0.14259925484657288, -0.14733366668224335, -0.07691558450460434, 0.12633439898490906, -0.2458111047744751, 0.362920880317688, -0.12989512085914612, -0.10677507519721985, -0.13872425258159637, -0.013161113485693932, 0.19706086814403534, -0.025043709203600883, 0.26486876606941223, 0.05203527212142944, 0.24310430884361267, 0.09538573771715164, 0.12621444463729858, 0.11228813230991364, -0.21676746010780334, -0.22862614691257477, 0.12300488352775574, 0.1359955072402954, 0.16844335198402405, -0.025928208604454994, -0.2903895378112793, -0.42203229665756226, 0.10932059586048126, 0.22026826441287994, -0.34410911798477173, 0.20248839259147644, 0.11784269660711288, -0.11927493661642075, 0.0932038426399231, 0.04973183199763298, -0.01590050756931305, -0.07875413447618484], [0.06871537864208221, 0.04600146785378456, 0.282646119594574, 0.23671987652778625, -0.09296727925539017, -0.1254461705684662, -0.24608930945396423, 0.07940853387117386, -0.03194113075733185, -0.05361302196979523, -0.15153101086616516, -0.10490573942661285, -0.24633677303791046, -0.10666067153215408, 0.20476208627223969, 0.1899806559085846, -0.009542406536638737, -0.36142703890800476, -0.056027378886938095, 0.30351030826568604, 0.038300756365060806, 0.16480368375778198, 0.043292801827192307, 0.1807965785264969, 0.09613389521837234, 0.11561047285795212, 0.33657577633857727, 0.03498890623450279, 0.07833969593048096, -0.035582564771175385, -0.13134720921516418, -0.031844280660152435, 0.17443275451660156, 0.04130580648779869, 0.09423447400331497, -0.07274498790502548, -0.08063612878322601, 0.054118867963552475, 0.22483883798122406, 0.27088069915771484, -0.047278378158807755, 0.48165982961654663, 0.20823420584201813, 0.14707428216934204, 0.1309737265110016, -0.020642945542931557, 0.05187581107020378, -0.05741611123085022, 0.10195226967334747, 0.36233294010162354, -0.15276435017585754, 0.12520843744277954, -0.004121007863432169, 0.2360823154449463, 0.346426784992218, 0.05151300132274628, 0.3352201581001282, 0.2504608929157257, -0.12647651135921478, 0.04640476405620575, -0.1593482792377472, -0.23902542889118195, -0.014405796304345131, 0.2642785906791687], [0.050156161189079285, -0.016288841143250465, 0.26435551047325134, 0.05343911051750183, -0.09798700362443924, 0.04872090369462967, -0.3683137595653534, -0.16828683018684387, -0.24482513964176178, 0.011184778064489365, -0.11576196551322937, 0.05648190528154373, -0.2779451608657837, 0.3402061462402344, -0.3445877134799957, 0.3114817142486572, -0.06330796331167221, 0.10384727269411087, -0.20710177719593048, -0.2582968473434448, 0.14313462376594543, 0.19502116739749908, 0.06381142139434814, 0.33652326464653015, 0.02467055805027485, 0.16268965601921082, 0.08309042453765869, -0.1434618979692459, 0.24439206719398499, 0.3221709132194519, 0.2208925187587738, 0.04027483984827995, 0.22452689707279205, -0.1648525893688202, 0.13026730716228485, -0.07237762212753296, -0.06695054471492767, 0.3777669370174408, -0.02906230464577675, 0.023362521082162857, 0.05084225535392761, -0.19438035786151886, -0.1573551446199417, -0.2957439422607422, 0.3391457796096802, 0.035558972507715225, 0.02725188247859478, 0.10240234434604645, 0.0920347273349762, -0.40042126178741455, 0.04483341798186302, 0.08831249922513962, 0.012496932409703732, -0.025379180908203125, 0.14884863793849945, 0.07016604393720627, -0.0963137298822403, 0.08282137662172318, -0.2812778353691101, -0.14232489466667175, -0.17650747299194336, 0.11603613197803497, -0.16637742519378662, -0.12918877601623535], [-0.3931523859500885, 0.1027098298072815, 0.2422432154417038, 0.10970498621463776, 0.2588654160499573, 0.03568723797798157, 0.2663561999797821, 0.2697434425354004, 0.19549024105072021, 0.2756197452545166, -0.36471685767173767, 0.06687700003385544, 0.25623011589050293, 0.030130302533507347, 0.19779548048973083, -0.09825663268566132, 0.025308115407824516, 0.08969643712043762, -0.19130082428455353, 0.05649717524647713, -0.12904523313045502, 0.02415769174695015, 0.2166072428226471, -0.030672814697027206, 0.37127140164375305, -0.10029537975788116, 0.09256855398416519, 0.016451766714453697, -0.006281218491494656, 0.14252977073192596, 0.018871435895562172, 0.10610564053058624, -0.15553119778633118, -0.2633363902568817, -0.052876655012369156, -0.15493300557136536, 0.05670204386115074, 0.11102060973644257, 0.2173999547958374, 0.09252466261386871, 0.05237806960940361, -0.128983274102211, 0.07950858026742935, 0.09712457656860352, 0.316943883895874, -0.13979333639144897, 0.0759708359837532, 0.1321386992931366, -0.21510964632034302, 0.20542891323566437, 0.17038582265377045, -0.007932005450129509, 0.12785567343235016, -0.16481302678585052, -0.07881885021924973, -0.1357163041830063, -0.3393532633781433, 0.1626127064228058, -0.3393196165561676, -0.0015603017527610064, 0.3193499743938446, 0.036832571029663086, 0.21330943703651428, -0.05485270917415619], [-0.06329461932182312, -0.010153142735362053, -0.27129513025283813, 0.08441215008497238, 0.23146675527095795, 0.14426133036613464, 0.07940032333135605, 0.12237913906574249, -0.20456978678703308, 0.050080325454473495, -0.21844083070755005, 0.05192122608423233, -0.10717076808214188, -0.13638174533843994, 0.0986957922577858, -0.020706748589873314, -0.054769642651081085, -0.3529738187789917, 0.09238597005605698, 0.04361041635274887, 0.24034056067466736, 0.10757219791412354, -0.06653059273958206, 0.17482849955558777, -0.3307962417602539, 0.03637811541557312, 0.18684354424476624, -0.3170720636844635, -0.11321724206209183, -0.12459474802017212, -0.25677916407585144, -0.2566766142845154, -0.1672205924987793, 0.22131457924842834, -0.010173622518777847, -0.3337984085083008, -0.21126623451709747, -0.05593346059322357, -0.17864878475666046, 0.01430355291813612, 0.024704182520508766, -0.257745623588562, 0.06856237351894379, 0.2405541092157364, -0.022805655375123024, 0.22188076376914978, 0.12419711798429489, -0.3748975694179535, -0.04049842059612274, -0.30608874559402466, 0.19952857494354248, -0.33673977851867676, -0.0208000298589468, -0.020855968818068504, 0.04793853312730789, 0.02663923054933548, -0.23737949132919312, -0.06470676511526108, -0.39160290360450745, 0.12631675601005554, 0.1218683123588562, 0.04266171157360077, 0.2025478184223175, -0.028140950947999954], [-0.050079260021448135, -0.0500061959028244, -0.006201510783284903, -0.06889603286981583, 0.23277133703231812, 0.33438557386398315, -0.13318873941898346, 0.2666948735713959, 0.2496875375509262, -0.48647138476371765, 0.14934439957141876, -0.05833689123392105, 0.10743154585361481, -0.1872788518667221, -0.22338473796844482, 0.08563543856143951, 0.0692138522863388, -0.021645190194249153, 0.15576812624931335, 0.3344959318637848, 0.27662795782089233, 0.08827395737171173, -0.028408287093043327, 0.018709257245063782, 0.14298748970031738, 0.14644058048725128, 0.13953615725040436, 0.045091547071933746, 0.17144928872585297, 0.21628104150295258, 0.3440108895301819, -0.20504219830036163, -0.06322906166315079, 0.12595674395561218, 0.22971001267433167, -0.19108828902244568, 0.011767694726586342, 0.12694361805915833, 0.33217015862464905, -0.19693686068058014, 0.09799729287624359, -0.06316079199314117, 0.11414080113172531, -0.09879925101995468, -0.29515722393989563, -0.00967495795339346, -0.28814563155174255, -0.054555196315050125, 0.0637354701757431, 0.1456819623708725, 0.12708158791065216, -0.023221105337142944, -0.09767234325408936, 0.18264593183994293, -0.00807740818709135, -0.18672017753124237, -0.13933703303337097, 0.11686152964830399, 0.08465050905942917, -0.3037145733833313, -0.06526549905538559, -0.13003213703632355, -0.0840146467089653, -0.28281405568122864], [-0.18735697865486145, 0.059917110949754715, 0.28410041332244873, 0.1904558539390564, -0.0632786974310875, -0.11547117680311203, -0.08208232372999191, -0.06514659523963928, 0.1083923950791359, -0.2834995985031128, -0.4115360677242279, -0.11531492322683334, -0.3842279016971588, 0.1428871750831604, 0.07494327425956726, 0.04952985420823097, 0.008077186532318592, 0.05572667345404625, -0.050475772470235825, -0.0051993392407894135, -0.05811997875571251, -0.16777752339839935, -0.09212245047092438, -0.17776648700237274, -0.15624670684337616, -0.1204519048333168, -0.21045799553394318, -0.1949080526828766, -0.05501164495944977, 0.2765188217163086, -0.1589561551809311, -0.3397613763809204, -0.396353155374527, 0.06536690145730972, 0.36104753613471985, 0.013887658715248108, 0.2673571705818176, -0.38822141289711, 0.004825313109904528, 0.19222626090049744, 0.12397687137126923, 0.0430334135890007, -0.22679360210895538, 0.10435112565755844, 0.04366980493068695, -0.35302844643592834, -0.173308864235878, 0.021816642954945564, 0.0020131594501435757, -0.02014901489019394, 0.15706874430179596, -0.12878704071044922, 0.07007518410682678, 0.06227125972509384, -0.0802515372633934, 0.04969875141978264, 0.021035734564065933, -0.26950803399086, 0.15792261064052582, -0.2647898495197296, 0.025396160781383514, -0.22127677500247955, 0.17235499620437622, 0.022826626896858215], [0.14140845835208893, -0.21124029159545898, 0.019170673564076424, 0.24278046190738678, -0.2098371535539627, 0.12971171736717224, -0.038409147411584854, 0.24781380593776703, -0.15886060893535614, -0.08645457029342651, -0.04745037481188774, 0.1229514479637146, 0.523426353931427, -0.03870686888694763, 0.20192399621009827, 0.39544859528541565, 0.01663805916905403, -0.20931920409202576, -0.015689831227064133, -0.11829657107591629, -0.0021318141371011734, 0.08149444311857224, 0.029951434582471848, -0.01771598868072033, -0.28776484727859497, -0.10172922164201736, -0.2113342434167862, -0.000763119722250849, -0.33867502212524414, 0.2858875095844269, 0.23827607929706573, -0.1739296317100525, -0.217768594622612, -0.035197269171476364, -0.028859000653028488, 0.18798595666885376, -0.034637805074453354, 0.033347439020872116, -0.30812498927116394, -0.13512560725212097, -0.03090149536728859, 0.43830975890159607, 0.03093702532351017, -0.16520200669765472, -0.05132655054330826, -0.019449742510914803, 0.24087241291999817, 0.07993020117282867, -0.0855608582496643, -0.02847267873585224, 0.18989717960357666, 0.09082476794719696, 0.31424039602279663, -0.04027479514479637, -0.002104824176058173, -0.18910929560661316, -0.1569054126739502, 0.08172581344842911, -0.11352916061878204, 0.07731495052576065, -0.11859404295682907, -0.11851620674133301, -0.09489838033914566, -0.09666141122579575], [0.06442029774188995, 0.004973696544766426, -0.3566010594367981, 0.04880879446864128, -0.15076914429664612, 0.16593119502067566, -0.24456878006458282, 0.31809911131858826, 0.14289303123950958, -0.17879152297973633, 0.08155129849910736, 0.17153699696063995, 0.01854362152516842, 0.02986033819615841, 0.281596839427948, 0.06035073846578598, -0.26724129915237427, 0.2091374695301056, -0.16796039044857025, 0.2178129106760025, -0.06208488717675209, -0.2242889106273651, 0.15075144171714783, 0.34699246287345886, -0.01460252795368433, -0.2516668736934662, 0.09045440703630447, -0.11139636486768723, 0.3458115756511688, -0.2185969054698944, 0.09633392840623856, -0.1231088936328888, -0.0981900542974472, 0.0024062716402113438, 0.13788054883480072, 0.296515554189682, -0.08318435400724411, 0.06356953829526901, -0.07374490797519684, 0.17893926799297333, 0.04319941624999046, -0.20532625913619995, -0.38154637813568115, -0.17426340281963348, 0.13259488344192505, 0.050932448357343674, 0.20585514605045319, 0.03326600790023804, -0.13458381593227386, -0.029209965839982033, -0.09918717294931412, -0.05148731544613838, -0.08902607858181, 0.13442131876945496, 0.22756145894527435, -0.24431075155735016, -0.04968484863638878, 0.039114810526371, 0.18100489675998688, 0.0001303248427575454, 0.1458492875099182, 0.17170770466327667, 0.1740780919790268, 0.35674768686294556], [0.11568474769592285, -0.02429351583123207, -0.40212684869766235, -0.13844293355941772, 0.07784093916416168, -0.20214584469795227, -0.05221020057797432, 0.041300222277641296, 0.07459563761949539, -0.17811985313892365, -0.507897138595581, -0.10128816962242126, 0.18250630795955658, 0.0093047134578228, -0.11901059746742249, -0.12036588042974472, 0.2906169891357422, 0.07591133564710617, -0.23088717460632324, -0.06908705830574036, 0.08137321472167969, -0.10186359286308289, 0.26227661967277527, 0.17248468101024628, 0.13776865601539612, 0.06816509366035461, -0.2928631603717804, -0.06214151158928871, -0.14973513782024384, -0.010079598985612392, -0.04455510526895523, 0.20826150476932526, -0.024036329239606857, 0.11400488018989563, 0.06462512910366058, 0.2881336212158203, -0.1561666578054428, 0.22030115127563477, 0.04616902768611908, -0.08772888779640198, 0.1431022584438324, 0.23311948776245117, -0.01654732972383499, 0.43238112330436707, -0.003364525269716978, -0.1557348370552063, -0.0014267967781051993, -0.13475647568702698, -0.2373848557472229, -0.05079661309719086, 0.23824873566627502, -0.22166122496128082, -0.26313841342926025, 0.2590377926826477, -0.0011058354284614325, 0.3560979962348938, -0.024866143241524696, 0.10713707655668259, 0.02605413645505905, -0.0896809995174408, -0.022166820243000984, 0.0024733515456318855, -0.24211743474006653, 0.02292119711637497], [0.15742304921150208, -0.004615103360265493, 0.40468084812164307, 0.16891081631183624, 0.02837836556136608, -0.18681609630584717, 0.265838623046875, 0.1696859449148178, 0.12214833498001099, 0.13491038978099823, 0.10555344074964523, 0.09885992854833603, -0.01621750369668007, 0.13020943105220795, -0.10735262185335159, 0.1178068071603775, 0.04792196676135063, 0.13713683187961578, 0.2507397532463074, -0.011324199847877026, -0.15160499513149261, -0.17391128838062286, -0.21572242677211761, 0.13154694437980652, -0.1323947012424469, -0.10818517953157425, 0.04852095991373062, 0.21010616421699524, 0.1851940006017685, -0.30434173345565796, -0.15135927498340607, 0.022046852856874466, 0.1388884335756302, 0.25197702646255493, 0.04014464467763901, -0.04148261621594429, -0.3112582266330719, 0.09596354514360428, -0.13004373013973236, 0.05290082097053528, -0.09608735889196396, 0.06122860312461853, -0.12562008202075958, 0.17859582602977753, -0.08343690633773804, 0.11739560216665268, 0.11992352455854416, -0.027424229308962822, -0.23363928496837616, -0.0799020305275917, -0.019750161096453667, 0.43616095185279846, 0.022739682346582413, 0.4007711112499237, -0.059370942413806915, 0.059779904782772064, -0.6061436533927917, -0.1503150463104248, -0.12367162853479385, -0.3424151539802551, -0.17479847371578217, 0.0852218046784401, -0.1264425814151764, -0.07629155367612839], [0.30971890687942505, -0.07062575966119766, -0.1144694909453392, 0.010620392858982086, -0.07745528966188431, 0.294575959444046, -0.25673407316207886, 0.16284911334514618, 0.1711052805185318, 0.26470109820365906, -0.13219720125198364, -0.19875451922416687, 0.2735111117362976, -0.006711211986839771, -0.19437658786773682, -0.014858963899314404, 0.14132899045944214, -0.0797303095459938, -0.006078146863728762, -0.2704213559627533, -0.11199437081813812, 0.0636247992515564, -0.1449153870344162, 0.09930644184350967, 0.10960818082094193, -0.15830709040164948, 0.2541297376155853, -0.2066052109003067, 0.054669540375471115, -0.12184605747461319, 0.09298387914896011, -0.33323991298675537, 0.20047590136528015, -0.2517347037792206, 0.04697778448462486, -0.06330426782369614, 0.12419134378433228, -0.3218109607696533, 0.07878848165273666, -0.15729205310344696, 0.4256812632083893, -0.06484009325504303, 0.034442394971847534, 0.017616190016269684, 0.16594946384429932, -0.05162020027637482, 0.05987417697906494, -0.14147503674030304, 0.03889479115605354, 0.3174973130226135, 0.059622421860694885, 0.2924670875072479, -0.010903283953666687, 0.1463245451450348, -0.15501536428928375, 0.30524662137031555, 0.17807573080062866, -0.3405551314353943, -0.03818077966570854, -0.0023287946823984385, -0.17775793373584747, 0.11220010370016098, 0.11920463293790817, -0.002136288210749626], [-0.18534156680107117, -0.017102075740695, -0.006264214403927326, -0.3889082670211792, -0.413394033908844, 0.1313963234424591, 0.10878996551036835, -0.11948215216398239, -0.011536825448274612, -0.08752848207950592, 0.013513976708054543, 0.08820024132728577, 0.02697685919702053, 0.01638941466808319, -0.09088847041130066, -0.04367432743310928, -0.1464482545852661, -0.3137758672237396, 0.03274257853627205, 0.009973930194973946, -0.08635745197534561, 0.10616584122180939, -0.3944958746433258, -0.08126857876777649, 0.20967373251914978, -0.20864851772785187, 0.06776785850524902, -0.4693443179130554, 0.2271706908941269, 0.2023078352212906, 0.010001102462410927, 0.1759653389453888, -0.087250716984272, -0.08170739561319351, -0.0703434869647026, -0.051291849464178085, 0.010441521182656288, 0.13342203199863434, -0.13403773307800293, -0.21057674288749695, -0.29524141550064087, -0.02988247759640217, 0.13787434995174408, 0.3266383409500122, 0.16554538905620575, 0.20021845400333405, 0.2522677779197693, 0.16516824066638947, -0.2071649134159088, 0.14812681078910828, 0.03828008472919464, -0.06818428635597229, -0.0922522321343422, 0.07401099801063538, 0.11156713962554932, -0.010364821180701256, -0.06655909866094589, -0.2167537957429886, 0.17594850063323975, -0.3005566895008087, 0.07151465117931366, -0.21807123720645905, -0.08016149699687958, 0.05258982256054878], [-0.011875104159116745, -0.20150820910930634, 0.16989807784557343, 0.09801565110683441, -0.16298872232437134, 0.007577663287520409, 0.03139147162437439, 0.2164808064699173, -0.03796585276722908, 0.12781691551208496, -0.1109270453453064, -0.22157500684261322, -0.09246411174535751, 0.3618908226490021, 0.13425622880458832, 0.012790600769221783, 0.11157434433698654, -0.039870794862508774, -0.205012708902359, 0.1257069855928421, 0.03941671550273895, 0.10891153663396835, -0.09705602377653122, 0.1566290259361267, 0.21380911767482758, -0.07269347459077835, -0.22002831101417542, -0.14297442138195038, 0.09072505682706833, -0.4379611909389496, -0.03493945673108101, 0.09089790284633636, 0.42285048961639404, -0.2097538262605667, 0.2396133691072464, -0.15977835655212402, -0.12286888062953949, -0.03674503415822983, -0.24256715178489685, -0.009884916245937347, -0.022577736526727676, 0.06600499153137207, 0.253906786441803, -0.2660205364227295, -0.3462955057621002, -0.05897793546319008, -0.25168561935424805, -0.11851511150598526, -0.1184181347489357, 0.05528213083744049, 0.02130558341741562, -0.3865959644317627, 0.11920729279518127, -0.060589227825403214, -0.012337695807218552, -0.2957494854927063, 0.025507992133498192, -0.2125520408153534, 0.17686370015144348, 0.0006432547233998775, 0.047258101403713226, 0.10845868289470673, -0.15848134458065033, -0.21635177731513977], [0.03060123510658741, -0.35487526655197144, 0.1493098884820938, 0.07086702436208725, 0.019765960052609444, 0.09525487571954727, -0.25304195284843445, 0.0030156560242176056, 0.04102524742484093, -0.1605682522058487, -0.07044841349124908, 0.3501260280609131, 0.08784984052181244, -0.2823011577129364, 0.36833056807518005, -0.21591322124004364, -0.10049986839294434, -0.046982645988464355, 0.08091110736131668, -0.3538433313369751, -0.20618730783462524, -0.19582626223564148, -0.13309447467327118, 0.08597912639379501, -0.016120878979563713, 0.3121476471424103, -0.4283835291862488, 0.033869531005620956, 0.004868809133768082, -0.2877761423587799, -0.14925724267959595, -0.07333064824342728, 0.06372292339801788, 0.022203795611858368, -0.25712189078330994, -0.09046217054128647, 0.38985681533813477, 0.2658356726169586, 0.2204977124929428, 0.02885214053094387, -0.10354252904653549, -0.0918116495013237, -0.08935238420963287, 0.21510766446590424, 0.08873867988586426, 0.04803919792175293, -0.10380436480045319, -0.05690007284283638, 0.013019787147641182, 0.00454667117446661, 0.22431257367134094, -0.0435599610209465, -0.10913623869419098, 0.1442149430513382, -0.24256788194179535, -0.2083779275417328, 0.25275924801826477, -0.15754669904708862, -0.2571152448654175, -0.0980549231171608, 0.3475399911403656, -0.16604389250278473, -0.05197293683886528, -0.10963983088731766], [-0.39129820466041565, -0.12548001110553741, -0.25419002771377563, 0.04908095672726631, -0.10969129204750061, 0.011362260207533836, -0.17233556509017944, -0.2713642418384552, -0.24025939404964447, 0.15333379805088043, 0.3704337179660797, 0.04829925298690796, -0.16211290657520294, -0.0032366523519158363, -0.05019868165254593, -0.09303121268749237, -0.026317071169614792, -0.08788695931434631, 0.062391649931669235, -0.03936963900923729, -0.006357441656291485, 0.2541029751300812, 0.07334605604410172, 0.2811949551105499, 0.08864867687225342, -0.14374758303165436, 0.4023304581642151, 0.1457902044057846, 0.26773616671562195, -0.07655704766511917, 0.05204341560602188, 0.13047142326831818, 0.1143452599644661, 0.15368294715881348, 0.15709394216537476, 0.4015387296676636, 0.01953037828207016, -0.4449049234390259, 0.20104187726974487, 0.06641505658626556, -0.1754494458436966, 0.2596653401851654, 0.003212273819372058, -0.18360434472560883, -0.09521961957216263, -0.2080078423023224, 0.03858847916126251, 0.04515216872096062, -0.22763356566429138, -0.10660681128501892, 0.411769837141037, 0.08068006485700607, 0.13213799893856049, 0.06306938827037811, -0.2503989338874817, -0.023797065019607544, -0.1374627947807312, -0.038527194410562515, -0.28733715415000916, -0.06839659810066223, 0.019288964569568634, 0.03204517811536789, -0.219456747174263, -0.12048991769552231], [0.16651290655136108, 0.026029132306575775, -0.035148732364177704, -0.08400323987007141, -0.3070635497570038, 0.2784925699234009, 0.09574775397777557, -0.03225582838058472, 0.020867599174380302, -0.05369977280497551, -0.11138386279344559, 0.047891147434711456, -0.11638989299535751, 0.39135876297950745, 0.1400737762451172, -0.3453563153743744, -0.022548900917172432, 0.21398352086544037, -0.21262295544147491, 0.13365939259529114, 0.026127537712454796, 0.21975569427013397, -0.08476097881793976, -0.09046132117509842, 0.2143983095884323, 0.15006697177886963, 0.13127465546131134, 0.19872215390205383, -0.13771449029445648, 0.21928972005844116, -0.07000036537647247, -0.10774730890989304, 0.1607818901538849, 0.15952861309051514, 0.22834943234920502, 0.21258434653282166, -0.0656442940235138, -0.04822154343128204, -0.10366523265838623, -0.026785744354128838, 0.00314989872276783, -0.04827239364385605, -0.03150412440299988, 0.20371997356414795, 0.040030587464571, 0.3041050136089325, 0.20976166427135468, -0.16364355385303497, 0.5269048810005188, 0.019168714061379433, 0.09819596260786057, 0.02812819555401802, 0.3985872268676758, 0.39113402366638184, -0.14842170476913452, -0.13714444637298584, -0.016126660630106926, 0.20639386773109436, 0.008560390211641788, 0.01051232311874628, 0.18654881417751312, 0.01329035870730877, -0.05339960381388664, -0.08040440827608109], [0.11524060368537903, -0.002072808798402548, 0.12134358286857605, 0.04718143865466118, -0.2248600423336029, 0.19722193479537964, 0.16038410365581512, 0.03716851398348808, 0.11906954646110535, 0.251968115568161, -0.14568106830120087, 0.02089507132768631, 0.03878309577703476, -0.25272274017333984, -0.2738315165042877, -0.14876778423786163, 0.2487678974866867, -0.22773541510105133, 0.06122424453496933, 0.04253954812884331, 0.13041217625141144, -0.22385545074939728, 0.1432991921901703, 0.06594395637512207, -0.14333441853523254, 0.4224308133125305, 0.01632649637758732, -0.25062814354896545, -0.20887607336044312, 0.04442477226257324, -0.1645290106534958, 0.31744441390037537, -0.04467490315437317, -0.08562999963760376, 0.16177545487880707, 0.07038839906454086, -0.2946782410144806, -0.05284065753221512, 0.13161474466323853, 0.19278815388679504, -0.12089624255895615, -0.04815952852368355, -0.30304697155952454, -0.31515055894851685, -0.11596224457025528, 0.14695915579795837, -0.039246391505002975, 0.1445804238319397, 0.1414767950773239, 0.05664149299263954, 0.3906528651714325, 0.24433985352516174, -0.15744714438915253, -0.033523108810186386, -0.13487356901168823, -0.15667080879211426, 0.07045084238052368, -0.05698190629482269, 0.20516523718833923, -0.018474625423550606, 0.17666831612586975, -0.10980823636054993, 0.23416413366794586, 0.11635682731866837], [0.052088137716054916, 0.3085392713546753, -0.12521514296531677, -0.012158556841313839, 0.009891572408378124, -0.00999379064887762, 0.05752144008874893, 0.48111870884895325, -0.01711435057222843, 0.10230235755443573, -0.07519028335809708, 0.21033130586147308, -0.05613117292523384, -0.37405258417129517, -0.037196021527051926, -0.07401886582374573, -0.1806100606918335, 0.279483437538147, -0.11360669881105423, -0.1181085854768753, -0.14284777641296387, 0.26999425888061523, 0.050669822841882706, 0.023059530183672905, 0.1964154988527298, -0.18596278131008148, 0.13814370334148407, -0.07210330665111542, -0.3042115271091461, 0.18337734043598175, -0.12044016271829605, -0.028204428032040596, 0.30758291482925415, 0.16145053505897522, 0.13588175177574158, -0.01905633881688118, 0.12672008574008942, -0.19241878390312195, -0.1605139523744583, 0.17665721476078033, -0.27834904193878174, -0.04539989307522774, 0.07229932397603989, -0.0495685413479805, 0.1217012032866478, 0.04632388427853584, -0.3106476962566376, 0.1798204481601715, -0.05382528901100159, -0.25632864236831665, 0.014576093293726444, 0.12033786624670029, -0.2395419031381607, 0.1638534963130951, 0.14188487827777863, -0.16913676261901855, 0.2526331841945648, -0.050202999264001846, 0.0982857421040535, 0.008784663863480091, -0.39865121245384216, -0.1614542007446289, -0.10545862466096878, -0.32476186752319336], [0.13648082315921783, 0.27574336528778076, 0.17474016547203064, 0.20426620543003082, -0.005247339606285095, -0.017862172797322273, 0.3326653242111206, -0.04487839713692665, -0.10197347402572632, -0.31743648648262024, -0.056201692670583725, 0.3965212404727936, 0.062032341957092285, -0.0752701386809349, -0.1157572865486145, -0.213926300406456, -0.16782990097999573, -0.1234186589717865, -0.14835840463638306, 0.0821172371506691, -0.11786381900310516, -0.013223208487033844, 0.17574428021907806, 0.32424548268318176, 0.17121681571006775, 0.07692901045084, -0.10722830891609192, -0.04053276404738426, 0.13569457828998566, 0.030019374564290047, -0.26557400822639465, -0.039493378251791, 0.15066495537757874, -0.06924012303352356, -0.04853984713554382, 0.0171064380556345, 0.14036671817302704, -0.026008814573287964, -0.005318383686244488, -0.3752358555793762, 0.14306436479091644, 0.0008241262403316796, -0.0002924068830907345, -0.22240768373012543, -0.14670728147029877, 0.08686891943216324, 0.1433430165052414, -0.1444542557001114, -0.1600056141614914, 0.030379848554730415, 0.05264440178871155, -0.16934536397457123, 0.07806120812892914, -0.2768809497356415, -0.3614693582057953, 0.12820850312709808, -0.09864839911460876, 0.013324784114956856, -0.004854300059378147, -0.017747025936841965, -0.29370632767677307, -0.3413335680961609, 0.03173224627971649, 0.3838790953159332], [0.11497460305690765, 0.28482821583747864, -0.08009923249483109, 0.07361587882041931, -0.11507583409547806, 0.12228716909885406, 0.10975977778434753, -0.04839660972356796, -0.07635762542486191, -0.2517772912979126, 0.014001879841089249, -0.10135891288518906, -0.0009995311265811324, 0.07720184326171875, 0.10159307718276978, -0.047204628586769104, 0.037447597831487656, 0.06323377788066864, 0.37364035844802856, -0.2955390512943268, 0.22566922008991241, -0.010969594120979309, 0.4312407672405243, -0.10844951122999191, 0.12117508798837662, -0.2413424849510193, -0.1694432944059372, 0.24567757546901703, 0.14027157425880432, -0.12600600719451904, -0.11458230018615723, 0.06965930014848709, 0.00397798977792263, -0.03384259715676308, 0.2614081799983978, -0.34010767936706543, -0.27855154871940613, -0.03586800396442413, 0.02622397243976593, -0.40838244557380676, -0.19191716611385345, 0.17922274768352509, -0.060639556497335434, 0.08684973418712616, 0.21577143669128418, -0.22292666137218475, 0.30821946263313293, 0.024007203057408333, 0.22297680377960205, -0.0330844484269619, 0.013163144700229168, 0.017760684713721275, -0.22494198381900787, -0.06620434671640396, 0.029041916131973267, -0.28202879428863525, 0.14793400466442108, -0.2621968686580658, -0.257571280002594, -0.06019296497106552, 0.06297832727432251, 0.02362898364663124, 0.16236110031604767, -0.016852328553795815], [-0.027639348059892654, 0.08432865887880325, -0.06297843903303146, -0.176006481051445, -0.005318645387887955, -0.1591741144657135, 0.09393016248941422, -0.2674344480037689, 0.32096007466316223, -0.16083838045597076, 0.10530459135770798, 0.23990745842456818, -0.17969033122062683, -0.13098958134651184, 0.05570470169186592, 0.04587286710739136, -0.05367204546928406, -0.21924087405204773, 0.12147291004657745, -0.13287867605686188, 0.1272801011800766, -0.1291319876909256, -0.04727502167224884, 0.10109247267246246, 0.2921275496482849, 0.12340138107538223, -0.014017252251505852, 0.09760809689760208, -0.08578740060329437, -0.014085928909480572, -0.06589015573263168, -0.045782070606946945, 0.10349869728088379, -0.1702881157398224, -0.2393333613872528, 0.2950361371040344, -0.14936913549900055, 0.012639223597943783, -0.32555460929870605, 0.41228199005126953, 0.4021834433078766, 0.050986338406801224, 0.18860206007957458, -0.19934885203838348, 0.017371920868754387, -0.1861528605222702, 0.4076853096485138, -0.1648109406232834, 0.06184428557753563, 0.032250676304101944, 0.05663541704416275, -0.007763799745589495, -0.09670831263065338, -0.05551685020327568, 0.14533168077468872, -0.14560571312904358, -0.19361963868141174, -0.07820375263690948, -0.034977905452251434, -0.08872062712907791, -0.15884272754192352, 0.05035911127924919, 0.2761460542678833, -0.5247153043746948], [0.12409410625696182, 0.4150245487689972, -0.17601680755615234, 0.29845893383026123, 0.008315233513712883, 0.19552206993103027, 0.18797585368156433, -0.021394481882452965, 0.2597706913948059, -0.050961755216121674, -0.11067407578229904, 0.07901207357645035, -0.20094680786132812, 0.22643819451332092, -0.0706346333026886, -0.06827162951231003, -0.07597295939922333, -0.13599517941474915, 0.2579960823059082, -0.18839947879314423, 0.03659266605973244, 0.10218792408704758, -0.46052590012550354, 0.2692510485649109, 0.05880600959062576, 0.012345482595264912, -0.45368170738220215, -0.028395406901836395, -0.021531444042921066, 0.13325519859790802, 0.09821018576622009, -0.048242513090372086, -0.1902497261762619, -0.14262908697128296, -0.05897216871380806, 0.0953701063990593, 0.03117651492357254, -0.08134092390537262, 0.4443267583847046, 0.010224111378192902, -0.10228780657052994, 0.07048669457435608, 0.17360185086727142, 0.14994361996650696, -0.038751691579818726, 0.10399888455867767, -0.17524005472660065, -0.008800539188086987, -0.21607044339179993, -0.12068814784288406, -0.01431554090231657, 0.05669374763965607, 0.09224849939346313, 0.08263576030731201, 0.012433595955371857, -0.12611737847328186, 0.07199174910783768, 0.1757165491580963, 0.014019000343978405, 0.32369452714920044, -0.041385114192962646, 0.3761312663555145, 0.06561862677335739, 0.1323949545621872], [0.0603918619453907, 0.053481824696063995, 0.033746395260095596, 0.03382451832294464, 0.37145689129829407, -0.06765802204608917, -0.17199189960956573, 0.04719505086541176, -0.050134144723415375, -0.2729729115962982, -0.18209293484687805, -0.2438008040189743, -0.03421061113476753, -0.08559548854827881, 0.07663441449403763, 0.03509212285280228, 0.057873111218214035, -0.08270735293626785, -0.055232495069503784, -0.17046599090099335, -0.28274407982826233, 0.21011365950107574, -0.1297752857208252, -0.06905139982700348, 0.1761203110218048, -0.42862817645072937, -0.02424243651330471, -0.21258190274238586, -0.052602652460336685, -0.057837311178445816, -0.4194018244743347, 0.0019207840086892247, -0.15945608913898468, -0.20510032773017883, -0.43249210715293884, -0.066055066883564, -0.18847469985485077, 0.02256353199481964, 0.25192105770111084, -0.01214410737156868, -0.0955551490187645, -0.039423245936632156, -0.24996337294578552, -0.16960081458091736, -0.3826090693473816, 0.046758897602558136, 0.22551116347312927, 0.05343534052371979, 0.35019248723983765, -0.06162452697753906, 0.29462507367134094, 0.12427964061498642, 0.02138499915599823, -0.026762165129184723, 0.07614085078239441, -0.06868383288383484, -0.005317543167620897, 0.17987047135829926, 0.20165450870990753, -0.08992323279380798, 0.09507588297128677, 0.06221340596675873, -0.2412194311618805, -0.007348818704485893], [0.17809440195560455, -0.10501287132501602, -0.11100573092699051, 0.23404823243618011, -0.04829397052526474, 0.1383015364408493, 0.2805071771144867, -0.3236350119113922, 0.13995753228664398, 0.40731263160705566, -0.06713977456092834, 0.21271435916423798, 0.017849408090114594, 0.015491808764636517, 0.030283860862255096, 0.21823611855506897, -0.4142911732196808, -0.1311761885881424, -0.014831660315394402, 0.0811132937669754, -0.052169155329465866, 0.2832629084587097, 0.3729080259799957, 0.11356762051582336, 0.08151469379663467, -0.13997724652290344, 0.05144328996539116, 0.12765303254127502, 0.11951281875371933, 0.04730379953980446, 0.03451189771294594, -0.024440551176667213, -0.19817614555358887, 0.08480551093816757, 0.06626740843057632, -0.07729193568229675, -0.07481932640075684, 0.2829470634460449, 0.10481496900320053, 0.08670233935117722, 0.1140422597527504, -0.12288698554039001, -0.09050527960062027, 0.11204631626605988, -0.4182264506816864, -0.11359497904777527, -0.06965003907680511, 0.09319297224283218, -0.010980331338942051, -0.024986019358038902, -0.04188927263021469, 0.06904545426368713, 0.184898242354393, 0.050686247646808624, 0.1591864824295044, 0.25562456250190735, 0.3577660918235779, -0.27142518758773804, 0.18997159600257874, -0.13606849312782288, 0.11074873059988022, -0.11290831118822098, -0.0809359923005104, -0.33312922716140747], [0.05470532178878784, -0.24275103211402893, 0.06256324052810669, 0.1883019506931305, 0.12783688306808472, -0.026331724599003792, 0.05851434916257858, -0.14059552550315857, 0.18044081330299377, 0.08035305887460709, 0.09858638048171997, -0.07025609165430069, 0.08021463453769684, -0.11439436674118042, 0.3647812604904175, -0.11572543531656265, -0.369541734457016, 0.14752885699272156, -0.13161134719848633, 0.11628919094800949, 0.06037035584449768, -0.349776029586792, -0.12276752293109894, -0.0010341607267037034, -0.22440026700496674, 0.01997404359281063, -0.1071266457438469, -0.2492629736661911, 0.020597632974386215, 0.08817123621702194, -0.21586093306541443, 0.056227024644613266, -0.07704851031303406, -0.28290969133377075, 0.22308595478534698, 0.03091398812830448, -0.2484426200389862, -0.16160084307193756, 0.3079797029495239, -0.2713526487350464, 0.07680779695510864, -0.018045635893940926, 0.30510571599006653, -0.009445883333683014, 0.11276423186063766, 0.06349390745162964, 0.23620226979255676, 0.39314159750938416, 0.2241039276123047, -0.11672085523605347, 0.003811569418758154, -0.2524397075176239, -0.3137478828430176, 0.21722902357578278, -0.16739852726459503, 0.16865819692611694, -0.16587011516094208, 0.05806031450629234, -0.0798327848315239, 0.21016812324523926, -0.20948968827724457, -0.01941182091832161, -0.16060666739940643, -0.2153991460800171], [0.14967545866966248, 0.055680859833955765, 0.3347080945968628, -0.503546416759491, 0.01635320484638214, 0.018170678988099098, 0.06236555427312851, -0.13295522332191467, 0.037237994372844696, 0.08950884640216827, -0.012238914147019386, 0.00907820649445057, 0.00825498066842556, 0.10701000690460205, 0.2466394454240799, 0.11045046150684357, 0.21299049258232117, 0.1334553062915802, 0.10681480914354324, 0.08938854187726974, 0.008961960673332214, 0.07434308528900146, 0.281315416097641, 0.2400994598865509, 0.04239840805530548, -0.0038503743708133698, -0.20569074153900146, -0.41533228754997253, -0.2099149525165558, -0.14260490238666534, -0.05071674659848213, -0.39393457770347595, -0.02941269800066948, 0.1787465214729309, -0.06565698236227036, 0.27638542652130127, 0.23588567972183228, 0.003664834424853325, 0.15855246782302856, -0.24171268939971924, -0.2635374069213867, -0.052921246737241745, 0.3534977436065674, -0.11157451570034027, -0.21363794803619385, -0.14848174154758453, -0.044880885630846024, 0.12179185450077057, 0.048833247274160385, -0.07310980558395386, 0.08849038928747177, 0.17799444496631622, -0.1603604257106781, 0.09065565466880798, 0.2458544373512268, 0.1239994689822197, -0.09523166716098785, 0.012102624401450157, -0.08825676143169403, 0.1292463093996048, 0.1980045884847641, -0.042205456644296646, 0.32341668009757996, 0.06478958576917648], [0.013518568128347397, 0.11686660349369049, 0.1845383644104004, 0.10187816619873047, 0.13435772061347961, -0.12112091481685638, 0.2345331311225891, 0.09772879630327225, -0.3397177755832672, 0.1252356618642807, -0.41237226128578186, -0.06663694977760315, 0.05921297147870064, -0.099312424659729, 0.030093185603618622, -0.09563842415809631, 0.006367295980453491, 0.15824325382709503, 0.0929122269153595, -0.10592031478881836, -0.01931138150393963, 0.11856257170438766, -0.10020354390144348, 0.18359073996543884, -0.11032180488109589, 0.13051870465278625, -0.12722112238407135, -0.025027869269251823, 0.294258713722229, -0.12863337993621826, 0.5075075626373291, 0.03543158993124962, -0.32395410537719727, -0.043264757841825485, 0.10704253613948822, 0.06746246665716171, 0.4167609214782715, -0.28115594387054443, -0.023678263649344444, 0.07132652401924133, 0.011138586327433586, 0.016154566779732704, -0.0011777173494920135, 0.09779047966003418, -0.17780926823616028, 0.18854981660842896, 0.38764485716819763, -0.1915687620639801, 0.2731495201587677, 0.15927447378635406, 0.02297399193048477, -0.01454103458672762, -0.5233233571052551, -0.050719004124403, 0.08195501565933228, -0.06274569779634476, 0.06983564049005508, 0.17318375408649445, 0.22278699278831482, 0.0637054443359375, 0.14423106610774994, -0.14160624146461487, -0.10957662761211395, -0.15879850089550018], [0.15498977899551392, 0.31186437606811523, -0.08689283579587936, -0.03289244323968887, -0.2541538178920746, -0.2585715055465698, -0.08338387310504913, -0.24341367185115814, 0.19188512861728668, -0.28081563115119934, -0.27208593487739563, 0.05617517605423927, -0.053335241973400116, 0.0816795751452446, -0.06316522508859634, 0.03831513971090317, -0.32524070143699646, 0.20552745461463928, -0.20351874828338623, 0.14045962691307068, 0.06248360499739647, -0.01086635421961546, 0.0884789526462555, -0.018050042912364006, -0.3657349944114685, -0.06673919409513474, 0.38911405205726624, 0.026103876531124115, 0.040374595671892166, -0.09908692538738251, 0.2688847482204437, 0.051116395741701126, 0.164725199341774, -0.12042621523141861, -0.38875290751457214, -0.11789587885141373, -0.09850269556045532, -0.040763210505247116, -0.03486185520887375, -0.042483169585466385, -0.17305757105350494, 0.38372328877449036, -0.05276726186275482, -0.12754933536052704, -0.03340175375342369, 0.34922489523887634, -0.25489541888237, 0.10587178170681, -0.0807572528719902, 0.22500930726528168, 0.16832315921783447, -0.015456349588930607, 0.013865649700164795, -0.031330134719610214, -0.08823983371257782, 0.006295482628047466, -0.19205741584300995, -0.27784839272499084, -0.23674865067005157, 0.044707491993904114, 0.1761389970779419, 0.19965164363384247, 0.08877085894346237, -0.2801315188407898], [0.1526946723461151, -0.054427966475486755, 0.07302677631378174, -0.06473304331302643, -0.03306378796696663, -0.13694226741790771, -0.05422716960310936, 0.4341815412044525, -0.07281150668859482, -0.03753499314188957, -0.17510323226451874, 0.17384347319602966, -0.3767944574356079, -0.04759303480386734, 0.11974147707223892, -0.2901489734649658, 0.19923065602779388, -0.30571335554122925, 0.04818705841898918, -0.23702041804790497, 0.09226735681295395, -0.102169468998909, 0.17719906568527222, -0.3549463152885437, -0.07839877903461456, 0.010219407267868519, 0.13544635474681854, 0.06096505746245384, 0.26878294348716736, 0.1371319741010666, 0.054679449647665024, 0.02601601555943489, 0.014934895560145378, -0.010008248500525951, 0.12590542435646057, 0.4056869149208069, 0.07770882546901703, -0.017818940803408623, 0.1425861269235611, -0.2531999945640564, 0.1290181428194046, -0.31527361273765564, -0.011058730073273182, 0.04057180881500244, -0.2341357320547104, 0.09150239080190659, -0.15460674464702606, 0.17951200902462006, -0.017719261348247528, 0.24075892567634583, -0.0041044121608138084, 0.06740366667509079, 0.2110302597284317, -0.1257345974445343, 0.4874691665172577, 0.001518604694865644, -0.02421645261347294, -0.19911415874958038, -0.0975344106554985, 0.24924524128437042, -0.13945578038692474, 0.027524102479219437, -0.282614529132843, -0.09393369406461716], [0.3952025771141052, -0.03233515843749046, 0.3326455056667328, -0.19472229480743408, 0.24508972465991974, 0.3525570333003998, -0.1443108767271042, -0.20515860617160797, 0.11835190653800964, -0.017988255247473717, 0.0651160329580307, 0.1946084201335907, 0.06567469239234924, 0.05758685618638992, -0.024173833429813385, 0.04301677644252777, -0.18013878166675568, 0.167225643992424, 0.08799250423908234, -0.06449204683303833, 0.08253201097249985, 0.22807635366916656, 0.3878468871116638, -0.23378336429595947, -0.13673898577690125, 0.12186338752508163, 0.16610729694366455, -0.07543469220399857, 0.11991547048091888, 0.11212720721960068, -0.10518740862607956, 0.11187414079904556, 0.07460253685712814, -0.03752262145280838, -0.038812167942523956, -0.09500065445899963, 0.11324529349803925, -0.3173442482948303, -0.08583557605743408, 0.2743322253227234, -0.056922804564237595, 0.012673201970756054, 0.09359851479530334, 0.1370096206665039, 0.10660021007061005, -0.17237724363803864, 0.008695250377058983, -0.2684811055660248, -0.19754411280155182, 0.11164303869009018, 0.19550751149654388, -0.1479162871837616, 0.060201603919267654, 0.05611782893538475, 0.11279954016208649, -0.132282093167305, -0.16928507387638092, -0.0009461230365559459, 0.3178170919418335, 0.1059131771326065, -0.14097042381763458, 0.2682688534259796, -0.40078219771385193, 0.21689577400684357], [0.09518076479434967, -0.3851543664932251, 0.047902025282382965, -0.3985549807548523, 0.005675791762769222, -0.08460532128810883, 0.1590634435415268, 0.28258016705513, -0.07143985480070114, -0.15233713388442993, -0.003966103307902813, -0.06205131486058235, -0.1908647119998932, 0.3332802951335907, -0.08181753009557724, -0.11489076912403107, -0.07986904680728912, -0.23154892027378082, 0.12059131264686584, -0.098970927298069, -0.03054155968129635, 0.04790160804986954, 0.3403794467449188, 0.12947623431682587, -0.16833026707172394, -0.42533406615257263, -0.09107034653425217, -0.13458797335624695, -0.02116313762962818, 0.17409704625606537, 0.10323900729417801, 0.1365782916545868, -0.054937418550252914, 0.10766701400279999, -0.05688846483826637, -0.11169159412384033, -0.03040754236280918, 0.0017613766249269247, 0.368205189704895, 0.29888132214546204, 0.16971975564956665, 0.06847424805164337, -0.021092286333441734, -0.11055857688188553, 0.18328602612018585, 0.14846156537532806, -0.055264465510845184, -0.19832460582256317, -0.05322619900107384, 0.03965790942311287, -0.26397743821144104, 0.10171885788440704, -0.051164403557777405, 0.17618854343891144, -0.39238643646240234, -0.12915152311325073, 0.051869746297597885, 0.04383573681116104, 0.11834598332643509, 0.3257123529911041, -0.05565614253282547, -0.2854308485984802, 0.03134498745203018, -0.17718815803527832], [-0.24011167883872986, -0.033819809556007385, 0.11919928342103958, 0.14047878980636597, -0.035953301936388016, -0.21773689985275269, -0.09515854716300964, -0.05735804885625839, 0.27505719661712646, -0.1909533590078354, -0.14616239070892334, 0.48443061113357544, 0.231159046292305, 0.13734731078147888, -0.21330448985099792, 0.32930988073349, 0.0736260786652565, 0.03308648243546486, 0.14033694565296173, -0.1072726771235466, -0.0567355640232563, 0.11002068966627121, -0.15534742176532745, -0.060837678611278534, 0.15148396790027618, -0.0845964178442955, 0.30945199728012085, -0.15088145434856415, -0.12054482847452164, -0.4105387330055237, 0.00559141905978322, 0.34568217396736145, -0.17886188626289368, 0.2605033814907074, 0.20801953971385956, 0.06354346126317978, 0.07704716175794601, -0.008565002121031284, 0.08640950173139572, -0.24146422743797302, 0.1677040159702301, -0.04661628231406212, -0.01936100609600544, 0.024288009852170944, 0.16916145384311676, -0.023373855277895927, -0.12526176869869232, -0.028620047494769096, 0.3628186881542206, -0.1324090212583542, 0.04270348697900772, -0.08694402873516083, 0.09264910966157913, 0.03406688570976257, 0.08416065573692322, -0.040507152676582336, 0.009149672463536263, -0.03876906633377075, 0.2005864530801773, 0.4933393895626068, 0.06083923950791359, -0.12626221776008606, 0.008403666317462921, 0.01718074455857277], [0.06565354019403458, -0.29519203305244446, -0.10617927461862564, 0.37656646966934204, 0.17439986765384674, 0.04541269317269325, 0.17842985689640045, -0.08876311033964157, -0.16358549892902374, -0.06754562258720398, -0.1350628286600113, -0.07994388043880463, -0.11822709441184998, 0.06828893721103668, -0.3279713988304138, -0.08653727918863297, 0.13565322756767273, 0.20895707607269287, -0.20729592442512512, 0.12393291294574738, -0.3059178590774536, -0.1454419046640396, 0.04016288369894028, -0.21863244473934174, 0.05388635769486427, 0.10391438007354736, 0.07410433888435364, 0.043257974088191986, 0.029559649527072906, 0.1293453723192215, 0.0026146292220801115, -0.15414275228977203, -0.014579473063349724, 0.26217710971832275, -0.3077973425388336, 0.0826682299375534, -0.006241791415959597, -0.11109805107116699, 0.21654962003231049, -0.21789230406284332, 0.024145621806383133, -0.03755505755543709, 0.390483021736145, -0.32137173414230347, 0.2451000064611435, 0.07268203049898148, 0.13655608892440796, -0.22573088109493256, -0.1669611632823944, -0.12053585797548294, -0.010237740352749825, 0.10207466781139374, -0.013527418486773968, 0.18183563649654388, 0.3948240876197815, -0.21079671382904053, 0.19219890236854553, -0.2679389417171478, 0.16417236626148224, 0.007518582511693239, 0.18147987127304077, -0.19081664085388184, 0.05044730007648468, -0.007909823209047318], [-0.06672936677932739, 0.07065489888191223, -0.16938146948814392, 0.040831830352544785, -0.001906731748022139, -0.06056661158800125, -0.1441476047039032, -0.3234193027019501, -0.2106853872537613, 0.007176125422120094, -0.1748986691236496, 0.22704151272773743, -0.08577273786067963, -0.0598478838801384, 0.02076122537255287, 0.040318094193935394, -0.06033945456147194, 0.12582477927207947, 0.15018731355667114, 0.25486990809440613, -0.10686176270246506, -0.12994647026062012, 0.06387615948915482, -0.040505439043045044, 0.009266658686101437, -0.06418707221746445, -0.01582546904683113, -0.3461076617240906, -0.5847489237785339, -0.14629100263118744, 0.10013780742883682, -0.0038683931343257427, 0.07519788295030594, -0.0518173947930336, 0.2909589111804962, 0.01720610074698925, -0.005064181983470917, 0.07183768600225449, 0.27828744053840637, 0.013512923382222652, 0.16963930428028107, -0.08369378000497818, 0.02475757524371147, 0.11557360738515854, -0.09894204884767532, 0.11941897869110107, 0.2118840515613556, -0.12089575827121735, -0.0587930753827095, 0.16340331733226776, -0.35726314783096313, 0.25277164578437805, 0.029802031815052032, -0.2940269708633423, -0.1372893899679184, -0.386822909116745, -0.12521237134933472, -0.10125428438186646, -0.20488280057907104, -0.29776135087013245, -0.0805065855383873, 0.2050359845161438, -0.3322249948978424, 0.041220635175704956], [0.19604630768299103, -0.06934996694326401, 0.04570210725069046, -0.007918988354504108, -0.09367334842681885, 0.2973034679889679, -0.10289973765611649, 0.09806464612483978, 0.2611071765422821, 0.031412236392498016, -0.49045783281326294, -0.011639691889286041, -0.19555571675300598, -0.19835717976093292, -0.035332247614860535, 0.14329667389392853, 0.16652116179466248, -0.08548630028963089, 0.15952815115451813, 0.37404412031173706, -0.05476749688386917, -0.027886465191841125, -0.12457083910703659, -0.010690715163946152, -0.07339667528867722, -0.2715829908847809, -0.004876057151705027, 0.32852327823638916, 0.11276112496852875, -0.007893219590187073, -0.04175691306591034, -0.0198659747838974, -0.016387736424803734, 0.13704733550548553, -0.16058839857578278, 0.24995483458042145, 0.047167710959911346, 0.16295532882213593, -0.08787726610898972, 0.05768737196922302, -0.14075711369514465, -0.10830041766166687, 0.34526002407073975, 0.04598383605480194, 0.100337453186512, -0.13596679270267487, 0.17894500494003296, 0.15827785432338715, 0.18658609688282013, -0.29258573055267334, -0.05934252217411995, -0.09640173614025116, -0.24334388971328735, -0.41111454367637634, -0.5574190616607666, 0.029077870771288872, -0.05709018558263779, -0.10067670792341232, -0.07014891505241394, 0.04977869614958763, 0.11201883852481842, 0.050517018884420395, -0.14538101851940155, 0.12635593116283417], [-0.13103598356246948, 0.3500516712665558, -0.15579374134540558, -0.16675415635108948, -0.054063841700553894, 0.09837295860052109, 0.08941738307476044, -0.11328399181365967, -0.060410771518945694, 0.12310617417097092, 0.083509162068367, -0.0160874892026186, 0.025548143312335014, 0.008261187933385372, -0.04250963777303696, 0.3028944432735443, 0.11948951333761215, 0.0019259426044300199, 0.2311941236257553, 0.21586191654205322, -0.5023316740989685, -0.296577125787735, 0.2675767242908478, -0.2463580071926117, -0.07410528510808945, -0.05110275372862816, -0.22199848294258118, -0.1600533425807953, 0.38871335983276367, -0.17174400389194489, 0.0861646831035614, 0.06786901503801346, 0.031732622534036636, -0.0720428079366684, -0.01868131011724472, -0.04915469512343407, -0.04604894667863846, 0.038307804614305496, -0.16890445351600647, 0.2238016575574875, 0.2374948114156723, -0.018192371353507042, 0.22746022045612335, -0.04242606461048126, 0.020881298929452896, 0.2712067663669586, -0.14070890843868256, 0.026327507570385933, 0.1629456728696823, -0.08421578258275986, 0.40734031796455383, -0.08732284605503082, 0.22336018085479736, 0.22580935060977936, -0.045889947563409805, -0.06596562266349792, 0.18234041333198547, 0.13327641785144806, -0.3353367745876312, -0.060561273247003555, -0.2969200909137726, -0.04506155103445053, -0.09088750183582306, -6.866396870464087e-05], [-0.033227402716875076, 0.1115991622209549, 0.3157758116722107, -0.05858509987592697, -0.1811167448759079, -0.1292831301689148, 0.07654730975627899, 0.30312204360961914, 0.13001315295696259, -0.03648516535758972, 0.13326899707317352, -0.27832064032554626, -0.11374898999929428, -0.05567282810807228, 0.14234550297260284, 0.21929994225502014, 0.1116737350821495, 0.06467173248529434, -0.026649978011846542, 0.038073934614658356, -0.14220313727855682, -0.3080918490886688, 0.03262609988451004, 0.2682996392250061, 0.03580545261502266, 0.1540890336036682, 0.21214106678962708, 0.045342329889535904, -0.3418433666229248, 0.10142897814512253, 0.10530759394168854, 0.10925069451332092, -0.3770284354686737, -0.07440080493688583, -0.12725158035755157, 0.022373327985405922, 0.09907782077789307, 0.04393984004855156, 0.3114413619041443, -0.20824116468429565, -0.3085833787918091, -0.261791467666626, -0.0660366490483284, 0.18126992881298065, 0.0035825809463858604, -0.020994998514652252, 0.34196388721466064, -0.4162323772907257, -0.08141858130693436, -0.052188143134117126, 0.18963727355003357, -0.3262765109539032, 0.10947369039058685, -0.024607649073004723, -0.12011347711086273, 0.017032818868756294, 0.39796027541160583, -0.2199036031961441, 0.08461180329322815, 0.06001042574644089, -0.1981174200773239, 0.20136357843875885, -0.10780176520347595, -0.13028347492218018], [-0.08212962001562119, 0.13977399468421936, 0.15796057879924774, 0.048259954899549484, 0.363890677690506, 0.11305591464042664, -0.36662793159484863, -0.14952898025512695, -0.0021248478442430496, 0.09732576459646225, -0.014652427285909653, 0.1654028296470642, -0.09257959574460983, -0.05994723364710808, 0.04740903526544571, 0.2113606333732605, 0.20257632434368134, 0.09862225502729416, 0.07939372956752777, -0.3269522786140442, -0.1958569437265396, -0.08485093712806702, 0.045591678470373154, 0.04722456634044647, 0.013570595532655716, -0.09445926547050476, 0.02772628329694271, -0.017303287982940674, 0.08049067109823227, 0.2685387432575226, -0.05348174273967743, 0.059726130217313766, 0.1682802140712738, 0.36678341031074524, 0.1647418588399887, 0.07366657257080078, -0.2894655466079712, -0.03967323526740074, -0.18335862457752228, -0.1112324595451355, -0.07119868695735931, 0.027171829715371132, 0.04121886566281319, -0.10374660044908524, -0.1740528792142868, 0.38776999711990356, 0.15214335918426514, 0.1140993982553482, -0.2760593891143799, 0.3870144784450531, -0.2179049849510193, -0.27051982283592224, 0.059708066284656525, 0.02224535308778286, -0.26627492904663086, 0.11317891627550125, 0.20616675913333893, 0.13990803062915802, 0.1181330755352974, -0.01665274240076542, 0.15323500335216522, 0.0854000672698021, 0.29542186856269836, -0.23541530966758728], [0.03257622569799423, 0.028680769726634026, 0.12329179793596268, -0.20140407979488373, -0.05408799275755882, 0.11643404513597488, 0.020148685202002525, 0.16456714272499084, -0.09544143825769424, -0.04946514591574669, -0.17069301009178162, -0.11037895083427429, -0.22944311797618866, -0.17759542167186737, 0.08082443475723267, -0.2360786348581314, -0.1793919801712036, 0.15136884152889252, 0.10870596021413803, -0.07352181524038315, -0.49953365325927734, 0.43917039036750793, -0.18735931813716888, -0.24872201681137085, 0.0034103437792509794, 0.421587735414505, -0.05479320138692856, -0.07094766944646835, -0.1627981811761856, -0.2789124846458435, 0.25096946954727173, -0.11784396320581436, -0.34449079632759094, 0.07692751288414001, 0.02154957503080368, -0.013353297486901283, -0.40050724148750305, 0.2571927309036255, 0.14768925309181213, -0.09323902428150177, 0.18971669673919678, 0.0959339588880539, -0.10539406538009644, -0.10021854937076569, -0.047620102763175964, -0.33933982253074646, 0.1851235330104828, 0.15704742074012756, -0.19634002447128296, 0.006481552496552467, 0.008992365561425686, -0.28023216128349304, -0.14489693939685822, 0.09193205833435059, -0.1776840090751648, -0.00494300527498126, -0.03159291669726372, -0.11211025714874268, -0.04756729304790497, 0.2146982103586197, -0.09351999312639236, -0.04248233512043953, 0.13306084275245667, 0.16554546356201172], [0.18807144463062286, -0.1590556651353836, -0.1430106908082962, -0.15844957530498505, -0.1779479682445526, -0.22083637118339539, -0.06185341626405716, 0.2196570783853531, 0.07662533968687057, 0.34720033407211304, -0.00716969883069396, 0.15953870117664337, 0.05085763335227966, 0.2032037079334259, -0.1062392145395279, -0.125936821103096, 0.026983588933944702, 0.4168395400047302, 0.3409025967121124, -0.12000935524702072, 0.14860214293003082, -0.11408697068691254, -0.14977017045021057, 0.12497398257255554, 0.0446590930223465, -0.033043477684259415, 0.22100013494491577, -0.04788460209965706, 0.10087532550096512, 0.2686938941478729, -0.012085885740816593, -0.09562084823846817, 0.17941193282604218, 0.2595207989215851, -0.18274782598018646, -0.26020675897598267, 0.09092956781387329, -0.036635302007198334, 0.2942650020122528, 0.17484085261821747, 0.19766730070114136, 0.32490384578704834, -0.017355946823954582, -0.06580833345651627, -0.23725566267967224, -0.021818891167640686, 0.14240257441997528, 0.19497467577457428, 0.19799692928791046, -0.056281838566064835, 0.06927362829446793, -0.42958664894104004, 0.23540398478507996, -0.20206643640995026, 0.225277379155159, -0.06735366582870483, 0.029331155121326447, 0.03569173440337181, -0.044087834656238556, -0.24074208736419678, -0.15136666595935822, -0.09151758253574371, 0.011764172464609146, 0.19214142858982086], [0.33357715606689453, 0.10212837904691696, -0.20011655986309052, 0.06977725028991699, -0.10508137196302414, 0.0002681606274563819, 0.42836517095565796, -0.005915835499763489, -0.08409172296524048, -0.10331645607948303, -0.09591646492481232, 0.07956069707870483, -0.192990243434906, -0.06405630707740784, 0.12037651240825653, 0.3912207782268524, 0.030083483085036278, -0.13759325444698334, -0.022879812866449356, -0.1947559416294098, 0.13033825159072876, -0.38447105884552, -0.13625824451446533, -0.24533210694789886, 0.2110445499420166, 0.07080303877592087, 0.038863491266965866, -0.17430095374584198, -0.15224942564964294, -0.3094906210899353, 0.1518450826406479, -0.23450987040996552, 0.06002340838313103, 0.1186252161860466, -0.05655639246106148, -0.1725085824728012, 0.0018112086690962315, -0.11182399094104767, 0.12714825570583344, 0.014077211730182171, -0.16136853396892548, -0.23529811203479767, -0.10354577749967575, -0.11929037421941757, 0.15718479454517365, -0.28410378098487854, 0.19604240357875824, 0.21798211336135864, -0.22816479206085205, 0.131464421749115, 0.0791214257478714, -0.1693277657032013, -0.02752246893942356, 0.047531574964523315, -0.25596916675567627, 0.14052124321460724, -0.04207124188542366, 0.4433029592037201, -0.0062792301177978516, 0.02548549510538578, 0.34742143750190735, -0.12333552539348602, -0.25492218136787415, -0.06795474886894226], [0.16132736206054688, -0.15892310440540314, -0.23383745551109314, 0.11357051134109497, 0.08542714267969131, 0.3731202781200409, -0.0005870208842679858, -0.2041924148797989, -0.278878390789032, -0.21946540474891663, 0.07692066580057144, 0.23193226754665375, -0.21315577626228333, 0.2875797152519226, 0.21514172852039337, 0.029960159212350845, 0.39891284704208374, 0.1963728368282318, -0.04205585643649101, 0.07800192385911942, -0.23791761696338654, -0.19842195510864258, -0.10176186263561249, 0.23871205747127533, -0.012462490238249302, -0.0171484537422657, 0.29847267270088196, 0.11227979511022568, -0.10845453292131424, -0.010148867964744568, 0.10344891250133514, 0.30146050453186035, -0.0012542117619886994, -0.2962496876716614, -0.10391075909137726, -0.27823781967163086, -0.0015020046848803759, 0.017295358702540398, -0.16316866874694824, 0.10971853137016296, -0.06896362453699112, -0.04136289283633232, 0.01353670097887516, 0.3298628330230713, -0.2179352343082428, -0.1666698306798935, -0.0553390197455883, 0.2744833528995514, -0.05643228441476822, 0.039421264082193375, 0.11565548926591873, 0.13747340440750122, -0.08348172903060913, -0.08512753993272781, 0.0359288826584816, 0.020899992436170578, -0.18030323088169098, -0.02292037196457386, 0.008525955490767956, 0.16602113842964172, -0.2674914598464966, -0.23560619354248047, 0.27079957723617554, -0.10121595114469528], [-0.11558443307876587, 0.20460879802703857, -0.2235802710056305, -0.3897370398044586, 0.2057926505804062, -0.015548043884336948, 0.015276331454515457, -0.0536576583981514, 0.2254183292388916, 0.2311171144247055, -0.13358694314956665, -0.031463444232940674, -0.14573556184768677, 0.08271058648824692, 0.3893466293811798, 0.16882793605327606, -0.1490728110074997, -0.11014244705438614, -0.1634216457605362, -0.1275956630706787, -0.1682850420475006, -0.03379867598414421, -0.14480021595954895, 0.027614327147603035, -0.4084715247154236, 0.08708417415618896, 0.14659684896469116, 0.22349853813648224, 0.09664340317249298, 0.028259048238396645, 0.08273519575595856, 0.050236355513334274, 0.4004689157009125, 0.014250642620027065, 0.18906491994857788, -0.08724099397659302, 0.03126043826341629, 0.07582069933414459, 0.13014410436153412, -0.3648403286933899, 0.09393437206745148, 0.10625279694795609, -0.05579454451799393, -0.08924201875925064, 0.06712698936462402, -0.12218977510929108, -0.016084039583802223, -0.2996918857097626, 0.006113623268902302, -0.18794243037700653, 0.14288540184497833, 0.3037129044532776, 0.13252322375774384, -0.1865658015012741, 0.053047046065330505, -0.08634154498577118, -0.06464625149965286, 0.14167551696300507, 0.3351355493068695, -0.13732591271400452, -0.05440755560994148, -0.26793915033340454, 0.044529158622026443, 0.007150699850171804], [0.1163681373000145, 0.45073792338371277, -0.0546625517308712, -0.021353399381041527, 0.13831506669521332, 0.03486673906445503, -0.07898344099521637, 0.21180926263332367, -0.5454691648483276, 0.07400307059288025, 0.06967807561159134, 0.025025993585586548, 0.014746105298399925, -0.1089678406715393, 0.09705095738172531, 0.04828573018312454, -0.10733534395694733, 0.18111082911491394, 0.2932542860507965, 0.23399485647678375, 0.1861816793680191, -0.17937840521335602, -0.25006982684135437, 0.2075558602809906, -0.06157039478421211, 0.10002028197050095, -0.09711296111345291, -0.1665259450674057, 0.05976330116391182, 0.08705314248800278, -0.30455338954925537, 0.26206356287002563, -0.08957278728485107, -0.04380800947546959, -0.17222484946250916, 0.08339434117078781, -0.0606885626912117, 0.22919632494449615, -0.054000355303287506, -0.057708822190761566, 0.21523289382457733, 0.07873593270778656, 0.15279027819633484, -0.049958571791648865, 0.23918649554252625, -0.3632566034793854, -0.05914432555437088, -0.015676278620958328, 0.04403478652238846, 0.17607979476451874, 0.027684854343533516, 0.0745772272348404, 0.23052279651165009, 0.10565993934869766, -0.18059450387954712, 0.07502062618732452, -0.0740085020661354, -0.28486284613609314, 0.1786784529685974, 0.11777658760547638, 0.4202059507369995, -0.07010429352521896, -0.14380304515361786, -0.20877055823802948], [-0.2867572009563446, -0.351666122674942, 0.04692625254392624, -0.27632004022598267, 0.031817663460969925, 0.15572655200958252, 0.1284860223531723, 0.17357729375362396, -0.11538022756576538, 0.11087319254875183, -0.14998756349086761, 0.24933591485023499, -0.3660385310649872, -0.19106201827526093, -0.5101003646850586, 0.08615493774414062, -0.30830398201942444, 0.14119678735733032, 0.03438868746161461, -0.14123259484767914, -0.07318221777677536, -0.3253244459629059, 0.05320807918906212, 0.13140875101089478, -0.0017609935021027923, -0.10922259092330933, 0.06706652790307999, 0.18637217581272125, -0.10328216850757599, -0.019942142069339752, -0.1622004508972168, -0.26489320397377014, -0.13065192103385925, -0.3869427442550659, 0.10166661441326141, -0.011804287321865559, -0.04081356152892113, 0.04034863039851189, -0.19758497178554535, -0.27243027091026306, -0.0703083723783493, 0.29587429761886597, 0.08857907354831696, 0.08546002954244614, -0.1497221291065216, 